tree
version=v4
num_class=14
num_tree_per_iteration=14
label_index=0
max_feature_idx=77
objective=multiclass num_class:14
feature_names=Destination_Port Flow_Duration Total_Fwd_Packets Total_Backward_Packets Total_Length_of_Fwd_Packets Total_Length_of_Bwd_Packets Fwd_Packet_Length_Max Fwd_Packet_Length_Min Fwd_Packet_Length_Mean Fwd_Packet_Length_Std Bwd_Packet_Length_Max Bwd_Packet_Length_Min Bwd_Packet_Length_Mean Bwd_Packet_Length_Std Flow_Bytes/s Flow_Packets/s Flow_IAT_Mean Flow_IAT_Std Flow_IAT_Max Flow_IAT_Min Fwd_IAT_Total Fwd_IAT_Mean Fwd_IAT_Std Fwd_IAT_Max Fwd_IAT_Min Bwd_IAT_Total Bwd_IAT_Mean Bwd_IAT_Std Bwd_IAT_Max Bwd_IAT_Min Fwd_PSH_Flags Bwd_PSH_Flags Fwd_URG_Flags Bwd_URG_Flags Fwd_Header_Length Bwd_Header_Length Fwd_Packets/s Bwd_Packets/s Min_Packet_Length Max_Packet_Length Packet_Length_Mean Packet_Length_Std Packet_Length_Variance FIN_Flag_Count SYN_Flag_Count RST_Flag_Count PSH_Flag_Count ACK_Flag_Count URG_Flag_Count CWE_Flag_Count ECE_Flag_Count Down/Up_Ratio Average_Packet_Size Avg_Fwd_Segment_Size Avg_Bwd_Segment_Size Fwd_Header_Length.1 Fwd_Avg_Bytes/Bulk Fwd_Avg_Packets/Bulk Fwd_Avg_Bulk_Rate Bwd_Avg_Bytes/Bulk Bwd_Avg_Packets/Bulk Bwd_Avg_Bulk_Rate Subflow_Fwd_Packets Subflow_Fwd_Bytes Subflow_Bwd_Packets Subflow_Bwd_Bytes Init_Win_bytes_forward Init_Win_bytes_backward act_data_pkt_fwd min_seg_size_forward Active_Mean Active_Std Active_Max Active_Min Idle_Mean Idle_Std Idle_Max Idle_Min
feature_infos=[-0.19245173284562836:3.1767450790418685] [-0.98600752914217549:0.90901127671425286] [-0.4425070493497601:4.11325512217664] [-1.1989778467157901:4.4623102416517781] [-1.7565394228198232:2.4410797183363053] [-1.1861809875503648:1.8967493009213598] [-1.7233083338141038:2.7771382055396945] [-0.53889625744229408:1.4625161793198325] [-1.8121908281983699:2.2282147514184008] [0:3.1213601701093179] [-1.2735907080794024:1.4702686163967413] [-0.44406625319385618:0.88879685885522652] [-1.0538807697661368:0.99521522172041321] [0:3.6877184979341342] [-0.028712237055005418:324.62707954508846] [-0.0054279058515460102:85.516717637871338] [-0.96831865492008051:0.99293181851080348] [-0.38359789092795155:1.0019452118733774] [-0.97803140922670051:0.8857670552741852] [-0.59071057043129493:4.884434096434779] [-0.12481288596692665:1.317212259913022] [-0.14322139813458798:1.4881991189943917] [0:1.7054935703390757] [-0.13114282230575838:1.3714544612490833] [-0.35620718710802218:4.3341553238491057] [-0.12548042712156274:1.5576127812124334] [-0.14735578701666488:1.7918798060133407] [0:1.9410303134952718] [-0.13047002141073571:1.6041145658716407] [-0.39624062518028907:6.1981298082632996] [0:1] none none none [-1.2532491537205561:4.3056240984107008] [-2.4955509213409899:3.1674979864209125] [-0.51154377888906033:1.2812491015278384] [-0.36428278685901316:1.0306802973300533] [-0.53889625744229408:0.72514471548733639] [-1.1706253078418762:1.3018754772959737] [-1.4733280183272659:1.2329806813012936] [-0.64587628500880123:1.0581404149047489] [-0.63836690680228236:1.0681925928217286] [0:1] [0:1] none [0:1] [0:1] [0:1] none none [-1:5] [-1.5654897745754877:1.2054793497624494] [-1.8121908281983699:2.2282147514184008] [-1.0538807697661368:0.99521522172041321] [-1.2532491537205561:4.3056240984107008] none none none none none none [-0.4425070493497601:4.2248610361799104] [-1.7565394228198232:2.4616099597573302] [-1.1989778467157901:4.3601270951606583] [-1.1861809875503648:1.8984035138716304] [-0.6136286049090558:0.61490911703408935] [0:1.8907334097489035] [-0.63092975357145742:3.3110736128178324] [0:1.6666666666666667] [0:15.422841538976378] [0:14.679030780389489] [0:15.763592332333516] [0:15.415038210996334] [0:18.430631084706523] [0:17.953872021552112] [0:18.430631084706523] [0:18.430631084706523]
tree_sizes=3424 4319 6880 6958 6847 6858 2297 7299 1658 6897 1728 6809 5335 6461 7331 7131 6807 7001 6975 6922 7198 7617 7447 7031 7241 6864 7487 6940 7337 7081 6821 7010 6914 6939 7201 7624 7399 7019 7217 6932 7507 7045 7316 7144 6816 7035 6933 6976 7255 7600 7383 7040 7155 6966 7378 6928 7347 7123 6799 7016 6928 6965 7218 7609 7275 7032 7146 6981 7340 6980 7288 7104 6818 7004 6956 6958 7229 7555 7292 7047 7030 6914 7195 6949 7300 7137 6866 7008 6945 6962 7195 7578 7363 7083 6893 6983 7341 6963 7304 7157 6852 7018 6927 6990 7194 7607 7384 7053 6932 6944 7314 6936 7340 7157 6874 6979 6957 6980 7181 7571 7375 7038 6997 6955 7420 6971 7328 7117 6905 7035 6965 6916 7107 7585 7411 7038 6991 6897 7481 6870 7348 7146 6909 6995 6967 6988 7166 7566 7330 7042 6881 6937 7271 6995 7318 7147 6930 6966 6997 6987 7050 7653 7356 7013 6945 6973 7135 6975 7321 7097 6908 6946 6943 6962 7046 7637 7470 7055 6972 6974 7173 6919 7329 7136 6896 6941 6967 6977 7154 7582 7400 7056 6983 6957 7129 6939 7317 7084 6879 6895 6929 6940 7096 7519 7429 7001 7018 6960 7217 7002 7304 7115 6916 6924 6950 6987 7022 7494 7430 6979 7002 6977 7166 6966 7356 7096 6887 6953 6945 6984 7141 7497 7490 6949 7054 6954 7192 6956 7331 7021 6931 6982 6970 7028 7090 7514 7476 6978 6981 6956 7206 6998 7314 7057 6955 6927 6910 7006 7132 7496 7398 6964 6990 6953 7203 6936 7261 7031 6825 6891 6956 6938 7141 7493 7441 6904 7002 6958 7211 6980 7174 7057 6918 6879 6934 6996 7183 7542 7356 7012 6968 7009 7243 6931 7159 7029 6911 6897 6932 6949 7115 7536 7379 6928 7000 6971 7184 6969 7127 7100 6892 6923 6941 6965 7122 7547 7480 7005 7048 6950 7215 6949 7099 7072 6969 6935 6964 7002 7180 7525 7450 6960 7009 6944 7286 6927 7090 7064 6939 6929 6980 7000 7119 7565 7370 6998 6989 6949 7301 6949 7209 7027 6935 6895 6941 7006 7097 7402 7368 6989 6998 6994 7298 6995 7101 7103 6906 6908 7002 7048 7122 7577 7203 7028 6974 6954 7321 6977 7268 6912 6937 6913 6977 6995 7123 7594 7357 6965 7002 6948 7270 7002 7251 7086 6858 6896 6984 7060 7050 7578 7366 6899 7027 7004 7313 7003 7253 6878 6923 6926 7011 7009 7030 7587 7325 7024 6963 6952 7261 6974 7203 7004 6897 6873 7026 6992 7055 7529 7316 6731 7040 6966 7251 6960 7222 6842 6912 6846 7057 7026 7111 7600 7367 6921 7047 6990 7240 7001 7192 6967 6932 6917 7038 7019 7093 7592 7435 6918 7010 6960 7254 6982 7242 7013 6862 6858 7041 7014 7063 7638 7425 6838 7024 6965 7310 6954 7233 6993 6879 6912 7036 7021 7112 7584 7074 6979 7107 6927 7291 7017 7292 6996 6984 6890 7052 7050 7129 7623 7264 6984 7125 6926 7354 6932

Tree=0
num_leaves=31
num_cat=0
split_feature=55 67 67 0 24 3 27 19 8 71 1 17 8 8 19 17 19 8 1 1 14 1 9 1 15 15 19 19 1 19
split_gain=146007 28547.2 11584.5 160110 5006.4 102117 258.086 2.19218 5.53778 0.243489 7.87442 5.82077e-11 2.91038e-11 1.45519e-11 1.45519e-11 7.27596e-12 7.27596e-12 2.27374e-13 3.55271e-15 3.55271e-15 8.88178e-16 4.44089e-16 4.44089e-16 2.22045e-16 2.22045e-16 2.22045e-16 2.22045e-16 2.22045e-16 5.55112e-17 5.55112e-17
threshold=-1.1565525274226058 1.005900263063001 1.005900263063001 2.183673344066023 2.4109574850233533 1.0000000180025095e-35 1.0161908207323593 2.3829479247064143 -1.0940041989141924 7.9749134743707071 0.889552098040297 0.40910532474852551 0.22663279504940553 0.22410280865773755 1.5928699652868945 0.43397737823767829 0.76774703972879765 0.15981069457457012 -0.67818352846302632 0.50354230310302006 -0.02855124729780319 -0.69445922485985545 1.7053176261798868 0.45899616386503445 -0.0054261721817493525 -0.005426051431271302 1.1649025847679433 1.0709014434694 -0.685122013870331 1.0244319482717332
decision_type=2 2 2 2 2 2 2 2 2 2 2 2 2 2 2 2 2 2 2 2 2 2 2 2 2 2 2 2 2 2
left_child=1 -1 4 18 7 19 14 9 -9 17 -11 -5 13 15 -7 -13 -14 -2 21 23 22 -4 24 -6 -12 -24 27 -27 -23 -26
right_child=2 -3 3 11 5 6 -8 8 -10 10 20 12 16 -15 -16 -17 -18 -19 -20 -21 -22 28 25 -25 29 26 -28 -29 -30 -31
leaf_value=-5.9008340297837831 -5.9008340297837831 10.336342098459046 -5.9008340297837831 10.336342098459056 -5.9008340297837814 10.33634209845907 7.900765679222518 -5.5142345981589562 -5.9008340297837831 -5.4949046265777124 -5.9008340297837831 10.336342098458971 10.336342098458999 10.336342098459024 10.336342098459035 10.336342098458974 10.336342098458942 -5.9008340297837831 -5.9008340297837831 -5.9008340297837831 -5.9008340297837831 -5.9008340297837822 -5.9008340297837822 -5.9008340297837831 -5.9008340297837831 -5.9008340297837831 -5.9008340297837822 -5.9008340297837831 -5.9008340297837814 -5.9008340297837822
leaf_weight=0.32333207898773153 1187.9898039698601 1.6628506919369099 1.5643113916739819 0.33257013838738103 0.28637984138914052 0.1324121847283084 0.12317412532866001 0.12933283159509301 0.32641143212094803 0.12317412532865901 1.1147258342243729 0.15088830352760829 0.28945919452235103 0.51425197324715555 0.79755246150307357 0.20323730679228902 0.14165024412795901 280.41821372322738 19.809478705981746 19.923414771910757 0.34796690405346486 0.20631665992550552 0.12317412532866012 0.94844076503068209 0.35104625718668137 1.1362813061568879 0.16628506919369113 0.55736291711218644 0.18784054112621262 0.17552312859334052
leaf_count=105 385792 540 508 108 93 43 40 42 106 40 362 49 94 167 259 66 46 91064 6433 6470 113 67 40 308 114 369 54 181 61 57
internal_value=-5.85454 7.69308 -5.87225 -4.76836 -5.88953 -5.14446 10.0515 -5.90077 -5.79112 -5.9008 -5.88863 10.3363 10.3363 10.3363 10.3363 10.3363 10.3363 -5.90083 -5.90083 -5.90083 -5.90083 -5.90083 -5.90083 -5.90083 -5.90083 -5.90083 -5.90083 -5.90083 -5.90083 -5.90083
internal_weight=1520.56 1.98618 1518.57 23.4 1495.17 22.2114 1.05314 1472.96 0.455744 1472.5 4.09554 1.63206 1.29949 0.868378 0.929965 0.354126 0.431109 1468.41 21.7679 21.1582 3.97237 1.95847 3.6244 1.23482 1.6413 1.9831 1.85993 1.69364 0.394157 0.526569
internal_count=493791 645 493146 7599 485547 7213 342 478334 148 478186 1330 530 422 282 302 115 140 476856 7069 6871 1290 636 1177 401 533 644 604 550 128 171
is_linear=0
shrinkage=1


Tree=1
num_leaves=39
num_cat=0
split_feature=68 4 66 40 4 51 3 8 11 38 48 39 52 66 1 8 35 1 19 9 14 16 15 1 1 70 1 10 1 4 15 1 1 1 14 14 1 19
split_gain=249702 192001 7817.39 3422.46 3787.05 259.73 270.764 222.223 182.324 83.2413 243.05 97.2416 27.729 21.3305 37.2343 2.03887 1.12417 2.44677 0.515543 66.5403 0.211022 0.000296003 0.33035 5.82077e-11 7.27596e-12 7.27596e-12 3.63798e-12 9.09495e-13 2.27374e-13 2.27374e-13 2.27374e-13 5.68434e-14 2.84217e-14 2.84217e-14 2.84217e-14 2.84217e-14 1.42109e-14 7.10543e-15
threshold=1.0000000180025095e-35 0.033220487469059722 0.0019640004028892498 1.123457398687947 0.62520267069439139 1.5000000000000002 0.65698187400813512 -0.96061348114525091 0.28353395094926576 -1.0000000180025095e-35 1.0000000180025095e-35 -0.52560524006896026 -0.77855644621494413 -1.0000000180025095e-35 -0.83003178881823336 -0.55213724924008678 0.95964324078206553 0.43955890282711813 2.3829479247064143 0.51102309502116305 0.31395358986600957 0.78178486674069736 -0.0054242363339849367 0.033825404040475453 0.45899616386503445 7.9927755998591588 1.0000000180025095e-35 1.4327452726862877 0.8722091992209281 0.66393318895894682 0.10279523948486056 0.35599485963550964 0.38566633477536927 0.27007084862856695 0.49662301723744856 0.041848476318377188 0.9061601794845745 0.86300653036461339
decision_type=2 2 2 2 2 2 2 2 2 2 2 2 2 2 2 2 2 2 2 2 2 2 2 2 2 2 2 2 2 2 2 2 2 2 2 2 2 2
left_child=3 2 12 5 27 8 -7 -4 9 18 11 13 30 -11 -15 -3 23 33 21 -20 -16 -1 25 26 -17 -23 -9 -5 -6 36 -2 -12 -8 -18 35 -29 -27 -38
right_child=1 15 7 4 28 6 32 16 -10 10 31 -13 -14 14 20 24 17 -19 19 -21 -22 22 -24 -25 -26 29 -28 34 -30 -31 -32 -33 -34 -35 -36 -37 37 -39
leaf_value=-1.0591128353830268 -1.0591128353830268 -1.0421046631444428 -1.0556916513120473 -0.86068415926621311 -1.0591128353830268 -1.0591128353830268 -0.86068415926621311 -0.86068415926621311 -0.86481809001864685 -0.96891798260265705 -1.0591128353830268 -1.0591128353830268 -0.99659421140101712 -0.97342772524167553 -0.8697036445442502 -1.0591128353830268 -0.86068415926621322 -0.89044846068373529 -1.0591128353830268 -0.930134195907098 -0.86068415926621311 -1.0591128353830268 -1.0508449738781596 -0.86068415926621311 -1.0591128353830268 -1.0591128353830268 -0.86068415926621311 -0.86068415926621322 -1.0591128353830268 -1.0591128353830268 -1.0591128353830268 -1.0591128353830268 -0.86068415926621311 -0.86068415926621311 -0.86068415926621311 -0.86068415926621311 -1.0591128353830268 -1.0591128353830268
leaf_weight=47382.516398310661 475.9896696805954 17.638579607009888 14.614823102951048 426.85362648963928 489.09261453151703 35.025179505348206 22.426194071769714 1567.8177473545074 12.09502601623535 13.858883976936339 131.02944850921631 15.370762228965758 18.394518733024597 11.087107181549067 11.087107181549078 483.04510152339935 11.591066598892214 10.079188346862791 1268.7178331613541 10.079188346862791 15.622741937637327 10545.350807905197 12.09502601623535 43033.850586056709 16553.554981470108 12.09502601623535 1269.4737722873688 11.843046307563784 11.59106659889221 376.96164417266846 19.402437567710876 63.498886585235596 11.33908689022064 10.331168055534361 10.331168055534361 13.606904268264769 15.874721646308901 10.079188346862791
leaf_count=188041 1889 70 58 1694 1941 139 89 6222 48 55 520 61 73 44 44 1917 46 40 5035 40 62 41850 48 170783 65694 48 5038 47 46 1496 77 252 45 41 41 54 63 40
internal_value=-0.985017 -0.915621 -0.862923 -1.05731 -0.963817 -1.05882 -0.961716 -0.860753 -1.05893 -1.05897 -1.03082 -0.948709 -1.05687 -0.915857 -0.896401 -1.0591 -0.860691 -0.870059 -1.05909 -1.0581 -0.864428 -1.05911 -1.0591 -0.860684 -1.05911 -1.05911 -0.860684 -0.860684 -1.05911 -1.05911 -1.05911 -1.05911 -0.860684 -0.860684 -0.860684 -0.860684 -1.05911 -1.05911
internal_weight=124425 63485.8 46431.5 60939.5 963.318 59976.2 68.7905 45917.8 59907.4 59895.3 261.555 67.0266 513.787 51.6558 37.797 17054.2 45903.1 32.0014 59633.8 1278.8 26.7098 58355 10972.5 45871.1 17036.6 10960.4 2837.29 462.635 500.684 415.011 495.392 194.528 33.7653 21.9222 35.7811 25.45 38.0489 25.9539
internal_count=493791 251948 184267 241843 3823 238020 273 182228 237747 237699 1038 266 2039 205 150 67681 182170 127 236661 5075 106 231586 43545 182043 67611 43497 11260 1836 1987 1647 1966 772 134 87 142 101 151 103
is_linear=0
shrinkage=1


Tree=2
num_leaves=64
num_cat=0
split_feature=5 24 44 47 29 35 13 5 34 9 27 37 6 9 8 26 5 9 26 24 6 5 17 48 3 21 21 24 15 75 15 74 4 21 75 24 24 23 36 6 9 1 1 1 1 4 0 16 1 21 0 1 23 36 1 1 0 21 36 0 23 36 23
split_gain=221215 67764 42812.6 10094 9404.84 52481.5 8331.58 5936.25 3048.35 1424.14 2402.29 409.265 342.259 5960.62 159.521 139.341 16848.5 260.874 91.8402 55.0338 45.0582 780.253 42.4895 42.4504 695.076 124.881 253.353 226.737 15.4553 15.3725 9.82855 1.49941 1.47308 1.32852 1.08887 1.05158 9.37307 43.5568 0.979987 0.729342 0.831215 2.91038e-11 1.45519e-11 7.27596e-12 7.27596e-12 7.27596e-12 9.09495e-13 5.68434e-14 2.84217e-14 1.42109e-14 7.10543e-15 7.10543e-15 7.10543e-15 7.10543e-15 3.55271e-15 1.77636e-15 8.88178e-16 8.88178e-16 8.88178e-16 4.44089e-16 4.44089e-16 4.44089e-16 2.22045e-16
threshold=1.1290321670935717 3.2277714073963328 1.0000000180025095e-35 1.0000000180025095e-35 1.9294189927146677 0.800760253625736 3.0648982526946225 1.1439653744269516 -1.0000000180025095e-35 2.005295443094258 1.6198876339355099 -0.34488536510946299 1.1831542681481595 1.9147811754297168 0.56248351651899797 1.3212562570782855 0.97836353263633458 1.7634057287061216 1.2414487208142517 3.1935988043465717 0.94988768297173054 0.69578035705362351 0.66896136853526234 1.0000000180025095e-35 -0.82074244803277496 0.57738992691662061 0.55935641359984867 1.5774304899031781 -0.0054077518423326877 16.757283213182273 -0.0053582251176109395 15.443843332641093 1.3845442720183867 1.0027968927664108 16.462815881787233 2.4109574850233533 3.1927664889017886 1.0512450472306345 -0.50534116938989859 0.89705285614953789 1.7380365534701288 0.63645912324896881 0.87285307895449071 0.60872278937284074 0.6565730673483724 1.1693242274115616 2.8129144634952854 0.80342225227037845 -0.81742426773678722 1.3015835400742182 3.0587011601047691 0.86802338025267645 1.0512450472306345 0.47534577893174995 0.58237636923284242 0.89769848884384462 3.0821129068393378 1.3106029027581998 0.036418324361041622 1.9013651000122151 1.2771227662949065 -0.50924291035324099 1.2771227662949065
decision_type=2 2 2 2 2 2 2 2 2 2 2 2 2 2 2 2 2 2 2 2 2 2 2 2 2 2 2 2 2 2 2 2 2 2 2 2 2 2 2 2 2 2 2 2 2 2 2 2 2 2 2 2 2 2 2 2 2 2 2 2 2 2 2
left_child=1 4 3 59 9 20 61 41 -5 12 -11 -8 15 18 -15 19 17 -17 51 23 39 29 -21 35 25 26 27 -25 31 34 32 -10 44 -19 55 46 37 -37 -24 49 -41 43 -33 -2 45 -13 -1 -18 -48 -6 53 -14 -38 58 -4 -22 -52 -51 -26 -3 -39 -7 -40
right_child=7 2 54 8 5 6 11 -9 28 10 -12 30 13 14 -16 16 47 33 -20 22 21 -23 38 24 50 -27 -28 -29 -30 -31 -32 42 -34 -35 -36 36 52 60 62 40 -42 -43 -44 -45 -46 -47 48 -49 -50 57 56 -53 -54 -55 -56 -57 -58 -59 -60 -61 -62 -63 -64
leaf_value=-4.2461207558690521 -1.1059757860760882 -4.2461207558690521 -4.2461207558690521 -4.2461207558690521 -4.2461207558690521 -4.2461207558690521 -2.3769868452780116 -4.2461207558690521 -1.1825646877783722 -4.2461207558690521 -1.2025956313004897 -1.1059757860760908 -4.2461207558690521 -1.1059757860760895 -2.0218514022657055 -2.2050265255036257 -4.2461207558690521 -1.1844794103209164 -3.6619077382331522 -3.9416218497073103 -4.2461207558690521 -2.4405373982381029 -4.1778567347865962 -2.9115591437070441 -4.2461207558690521 -4.036777757882855 -2.5015957726507412 -4.1378398948417088 -1.3085657841272575 -4.0332295714763093 -1.2837198409700172 -1.1059757860760886 -1.1825646877783558 -1.105975786076089 -4.1879699230951086 -3.8604889174734254 -4.2461207558690521 -4.2461207558690521 -4.2461207558690521 -4.1676171316242279 -4.2461207558690521 -1.1059757860760886 -1.1059757860760886 -1.1059757860760886 -1.1059757860760913 -1.105975786076097 -4.2461207558690521 -4.2461207558690521 -4.2461207558690521 -4.2461207558690521 -4.2461207558690521 -4.2461207558690521 -4.2461207558690521 -4.2461207558690521 -4.2461207558690521 -4.2461207558690521 -4.2461207558690521 -4.2461207558690521 -4.2461207558690521 -4.2461207558690521 -4.2461207558690521 -4.2461207558690521 -4.2461207558690521
leaf_weight=6763.302239170298 7.5792677327990514 1.8470484390854829 2.1495822351425913 0.79614156857132812 96.492358110845089 1.2419808469712736 0.66875891759991901 1.5445146430283774 0.65283608622849243 1.7355886194854968 1.0349840391427276 13.821017630398282 37.641573362052441 1.2579036783426993 0.76429590582847584 0.63691325485706229 110.934366164729 0.63691325485706318 0.68468174897134204 2.6272671762853852 2.89795530959963 0.63691325485706407 0.73245024308562312 0.63691325485706307 3.1367977801710358 0.71652741171419609 0.71652741171419609 0.92352421954274178 0.98721554502845066 0.93944705091416914 0.84391006268560431 20.938523253425959 0.65283608622848888 3.5030229017138481 0.85983289405703622 0.90760138817131419 14.10762859508395 0.7483730744570497 0.74837307445704904 0.63691325485706218 0.71652741171419621 46.160288145765662 9.2989335209131223 5.1749201957136393 1.9266625959426171 0.63691325485706407 14.123551426455377 407.00349268503487 156.07559310272336 2.483961693942546 4.4424699526280156 0.84391006268560786 27.482806947082281 38.34217794239521 19.903539214283228 9.7288499679416418 0.85983289405703534 4.7609265800565481 1.7674342822283504 1.098675364628434 3.0412607919424772 1.2419808469712759 1.1145981959998608
leaf_count=424755 476 116 135 50 6060 78 42 97 41 109 65 868 2364 79 48 40 6967 40 43 165 182 40 46 40 197 45 45 58 62 59 53 1315 41 220 54 57 886 47 47 40 45 2899 584 325 121 40 887 25561 9802 156 279 53 1726 2408 1250 611 54 299 111 69 191 78 70
internal_value=-4.199 -4.22235 -2.51479 -1.44287 -4.23506 -3.83072 -1.52672 -1.1862 -1.19014 -4.24257 -3.10917 -1.16258 -4.24298 -4.09925 -1.45213 -4.24377 -4.21886 -1.26298 -4.23591 -4.24562 -4.23405 -4.15318 -4.08337 -4.24574 -4.20053 -3.46108 -3.27992 -3.63732 -1.11382 -4.22879 -1.11716 -1.10759 -1.10891 -1.11805 -4.24241 -4.24607 -4.23856 -4.17161 -4.22686 -4.24564 -4.20918 -1.10598 -1.10598 -1.10598 -1.10598 -1.10598 -4.24612 -4.24612 -4.24612 -4.24612 -4.24612 -4.24612 -4.24612 -4.24612 -4.24612 -4.24612 -4.24612 -4.24612 -4.24612 -4.24612 -4.24612 -4.24612 -4.24612
internal_weight=7862.55 7802.09 57.6725 35.6194 7744.42 141.188 21.0341 60.459 32.6736 7603.23 2.77057 18.5501 7600.46 41.1924 2.0222 7559.27 522.715 4.77685 39.1702 7036.55 120.154 15.063 5.22269 7031.33 51.5422 2.99349 2.27696 1.56044 31.8775 14.4261 17.8813 30.8903 17.0374 4.13994 13.4866 6979.79 46.2877 4.69724 2.59542 105.091 1.35344 58.9145 30.2375 12.7542 16.3846 14.4579 6933.5 517.938 170.199 103.737 48.5487 38.4855 41.5904 43.2464 22.0531 12.6268 5.3023 7.24489 4.90423 2.94572 3.78963 2.48396 1.86297
internal_count=493791 489994 3622 2237 486372 8867 1321 3797 2052 477505 174 1165 477331 2587 127 474744 32828 300 2460 441916 7546 946 328 441588 3237 188 143 98 2002 906 1123 1940 1070 260 847 438351 2907 295 163 6600 85 3700 1899 801 1029 908 435444 32528 10689 6515 3049 2417 2612 2716 1385 793 333 455 308 185 238 156 117
is_linear=0
shrinkage=1


Tree=3
num_leaves=64
num_cat=0
split_feature=66 9 52 25 30 66 66 34 5 15 17 19 66 15 3 4 17 24 29 48 47 20 24 34 38 19 52 36 24 70 19 20 17 22 20 21 67 24 23 19 11 15 37 42 18 67 24 20 15 34 15 3 3 4 17 2 15 3 15 3 15 15 17
split_gain=232517 93863.5 50582.9 29994.4 18944.7 15928.8 7883.14 3393.35 2265.21 454.907 358.544 208.722 142.532 125.488 370.32 96.096 456.393 81.1358 74.5127 35.6235 28.93 68.4372 12.35 6.95526 5.66888 2.41189 1.3427 1.08245 1.5038 0.840125 0.833735 14.29 18.7018 3.11289 6.70747 7.12884 0.285312 0.20192 0.20273 0.103238 0.0518807 0.0519495 0.0510898 0.0200893 0.0835266 0.00122096 0.100485 0.0229406 0.253417 0.000421111 0.41512 2.91038e-11 1.45519e-11 1.45519e-11 1.45519e-11 7.27596e-12 7.27596e-12 1.81899e-12 1.81899e-12 9.09495e-13 9.09495e-13 4.54747e-13 4.54747e-13
threshold=1.0000000180025095e-35 1.6806344246969924 -1.1037022465409119 1.1824675870867207 1.0000000180025095e-35 0.011674690717315939 0.0065805175688121121 -0.63152175096496987 1.1281901207209775 15.139114298204136 0.90700034293649789 2.1682267077636865 0.027371327524996335 0.0062666659349705041 -0.82074244803277496 0.62520267069439139 0.92129093421028374 2.2244923782927342 0.98852822578654231 1.0000000180025095e-35 1.0000000180025095e-35 0.49463764927920789 1.4013280945388222 1.0000000180025095e-35 -1.0000000180025095e-35 1.0709014434694 1.11009031239403 -0.37272305228265751 1.2893984260524809 12.214402836878085 1.2396708145327378 0.63503565244166904 0.35571563940471951 0.5805067090543109 0.49463764927920789 0.42158400145636971 1.3000681610726983 2.1141288128035844 0.66282583874592127 1.010666205210095 1.0000000180025095e-35 1.4820209725560505 0.77087373840282924 1.0216282404472516 0.88196653201883646 1.0023677933549224 0.88544773320596037 0.47111107193540025 0.08079308000970821 0.96384680528565525 -0.0052742454004869573 1.2564707973660305 0.84058748351430246 1.226381348063861 0.56454456174025236 0.84058748351430246 1.9021503758332563 -1.0000000180025095e-35 0.0010504098663229324 2.6653570962017548 0.08079308000970821 -0.005385828980107631 -0.10677508682888602
decision_type=2 2 2 2 2 2 2 2 2 2 2 2 2 2 2 2 2 2 2 2 2 2 2 2 2 2 2 2 2 2 2 2 2 2 2 2 2 2 2 2 2 2 2 2 2 2 2 2 2 2 2 2 2 2 2 2 2 2 2 2 2 2 2
left_child=4 2 5 8 7 6 -2 18 -3 10 13 19 -5 39 23 40 -17 20 25 24 -13 -22 27 -15 26 -1 29 59 -29 30 37 33 -33 57 35 -35 -16 43 -39 -7 49 -42 55 45 -45 46 47 56 -49 52 -51 -47 54 -10 -4 -8 60 -32 -54 -14 -9 -41 -6
right_child=1 3 15 12 62 9 42 11 53 -11 -12 17 22 14 36 16 -18 -19 -20 -21 21 -23 -24 -25 -26 -27 -28 28 -30 -31 31 32 -34 34 -36 -37 -38 38 -40 61 41 -43 -44 44 -46 51 -48 48 -50 50 -52 -53 58 -55 -56 -57 -58 -59 -60 -61 -62 -63 -64
leaf_value=-1.1576967409350938 -1.1576967409350938 -1.1576967409350938 -1.1576967409350938 -1.0009967040632157 -1.1576967409350938 -1.1525017940605369 -0.94989886595282069 -0.94989886595282069 -0.94989886595282069 -0.94989886595282069 -0.94989886595282069 -0.94989886595282069 -1.1576967409350938 -0.99607617150443695 -1.149547804661279 -1.1576967409350938 -0.94989886595282069 -1.1501404545721019 -1.0157859970447609 -1.0439026665400395 -0.97190099389212026 -1.1064589087476839 -1.1057472721895254 -0.94989886595282069 -0.98159684688231996 -1.1323555366689628 -0.96686195778810835 -1.1317220065623095 -1.1576967409350938 -0.96406690288343033 -0.94989886595282069 -1.0434079096948436 -0.94989886595282069 -0.95789109191367738 -0.94989886595282069 -1.0055590110373582 -1.1576967409350938 -0.9498988659528208 -0.96003534765927312 -1.1576967409350938 -1.1576967409350938 -1.1525017940605369 -0.95246427181679949 -0.9550938128273776 -0.94989886595282069 -0.94989886595282069 -0.95496710680604691 -0.94989886595282069 -0.95682546178556316 -1.1576967409350938 -1.14730684718598 -0.94989886595282069 -1.1576967409350938 -0.94989886595282069 -1.1576967409350938 -0.94989886595282069 -0.94989886595282069 -0.94989886595282069 -1.1576967409350938 -1.1576967409350938 -0.94989886595282069 -1.1576967409350938 -1.1576967409350938
leaf_weight=194.66031596064568 506.98304787278175 133.06199595332146 34154.34349656105 14.677724689245222 525.02943068742752 9.6247375011444074 4480.0746883451939 23.339988440275192 8886.520134806633 28.633594065904617 21.896277815103531 13.955869376659392 2194.6807686984539 12.993395626544951 12.27154031395912 151.58961564302444 32.002252191305161 13.234014064073561 9.8653559386730176 10.105974376201628 20.45256718993187 17.565145939588547 11.549685001373289 21.896277815103531 14.196487814188002 9.8653559386730176 11.790303438901899 9.624737501144411 13.234014064073561 10.587211251258848 1300.7832732796669 9.624737501144411 12.03092187643051 18.768238127231598 64.726359695196152 13.474632501602171 86.141400635242462 9.8653559386730212 9.8653559386730176 1489.6687467396259 9.624737501144411 9.6247375011444074 19.490093439817429 9.6247375011444074 39.461423754692078 18915.977847874165 9.8653559386730176 154.71765533089638 14.437106251716612 8391.3273903727531 9.6247375011444074 31.52101531624794 5909.8294441401958 237.97163471579552 22957.164506167173 80.847795009613037 4885.9979924559593 20.93380406498909 1271.1872054636478 9.6247375011444074 584.46218475699425 14.196487814188002 642.45122820138931
leaf_count=809 2107 553 141944 61 2182 40 18619 97 36932 119 91 58 9121 54 51 630 133 55 41 42 85 73 48 91 59 41 49 40 55 44 5406 40 50 78 269 56 358 41 41 6191 40 40 81 40 164 78614 41 643 60 34874 40 131 24561 989 95409 336 20306 87 5283 40 2429 59 2670
internal_value=-1.08767 -1.12617 -1.14545 -0.992706 -0.960586 -1.01487 -0.970617 -0.951887 -0.952886 -1.1475 -1.15089 -0.950269 -1.1563 -1.15357 -1.10706 -1.1576 -1.12148 -1.03961 -1.15 -0.950046 -1.01147 -1.03407 -1.15732 -0.967096 -0.95001 -1.15647 -0.949993 -1.15758 -1.14676 -0.949985 -0.949979 -0.951149 -0.991458 -0.950533 -0.95918 -0.977812 -1.15668 -0.949911 -0.954967 -1.15766 -1.15769 -1.1551 -0.94991 -0.949907 -0.950917 -0.949905 -0.949925 -0.949917 -0.95049 -1.1577 -1.15768 -0.949899 -1.1577 -0.949899 -1.1577 -0.949899 -0.949899 -0.949899 -1.1577 -1.1577 -0.949899 -1.1577 -1.1577
internal_weight=118815 91192 79681 11510.9 27623.2 6784.72 5087.4 26455.8 9257.55 1697.32 1668.69 26241.4 2253.39 1646.79 133.303 72896.3 183.592 65.2076 214.391 26176.2 51.9736 38.0177 2238.71 34.8897 26166.1 204.526 26151.9 2227.16 22.8588 26140.1 26129.5 1440.34 21.6557 1418.69 96.9692 32.2429 98.4129 24689.1 19.7307 1513.49 72712.7 19.2495 4580.41 24669.4 49.0862 24620.3 5672.82 5662.95 169.155 72693.5 8400.95 18947.5 64292.5 9124.49 57111.5 4560.92 5493.8 1321.72 7181.02 2204.31 607.802 1503.87 1167.48
internal_count=493791 378990 331151 47839 114801 28197 21143 109949 38474 7054 6935 109058 9365 6844 554 302954 763 271 891 108787 216 158 9304 145 108745 850 108686 9256 95 108637 108593 5986 90 5896 403 134 409 102607 82 6290 302191 80 19036 102525 204 102321 23576 23535 703 302111 34914 78745 267197 37921 237353 18955 22832 5493 29844 9161 2526 6250 4852
is_linear=0
shrinkage=1


Tree=4
num_leaves=64
num_cat=0
split_feature=70 7 26 6 37 4 8 12 24 15 51 3 4 23 6 48 5 15 4 67 4 2 19 1 19 66 66 40 74 1 73 75 19 19 19 19 19 21 19 19 17 19 19 29 28 72 19 24 24 24 24 12 19 19 19 19 1 19 4 19 19 1 25
split_gain=221004 53929 32211.6 50310.5 17041.1 4785.53 2535.58 15861.6 2529.91 19349.2 2326.9 13880.5 352.108 234.821 4431.1 206.557 6049.66 411.741 197.484 124.61 2120.25 2597.58 15.3145 34.6953 13.1326 10.9381 14.9672 10.7164 8.79042 3.35907 7.87658 2.75419 2.47311 4.40538 2.1886 1.77476 0.845495 0.808085 1.10648 0.58647 2.20207 0.294062 2.62187 0.191819 22.6421 0.176112 0.37901 1.86917 0.0565529 0.00368092 0.549272 2.36493 2.91038e-11 2.91038e-11 2.91038e-11 2.91038e-11 7.27596e-12 7.27596e-12 3.63798e-12 3.63798e-12 3.63798e-12 1.81899e-12 1.81899e-12
threshold=15.422686745973499 0.72508460307193434 1.7398194833939076 1.0958181393428721 -0.36114037250910169 0.74832962102664857 0.90653551789312969 -0.58037034129683873 3.9691258112790693 -0.0054271575390226921 1.5000000000000002 0.65698187400813512 1.5959811942294879 1.371053060878489 1.2836847564169518 1.0000000180025095e-35 0.69063392361405351 0.012131824321069394 -0.79517532575934557 1.8368963502170004 0.30994687371483159 1.2564707973660305 4.4793643229178448 0.40118673742739591 4.4796164437539572 0.018420050259242808 0.18788029460834371 -0.047007032278736767 15.726436771747069 0.61256510113577567 6.9102520348033734 16.757283213182273 4.479422590717081 4.4795179681816926 1.0939690872034138 4.4799552109856142 4.4794773576862852 1.1223856234288878 4.4797664947023756 1.2519885224760932 0.78106258788895777 4.4785527595409329 4.4787306841194061 2.0825424386936136 0.68534652886133085 15.762536298800407 4.4790627265840852 3.1929376516513748 3.1933816531602481 1.3239482128900486 1.3305511278816657 0.82309148898555862 4.4799038192775873 4.4797664947023756 4.4796900994375308 4.4794773576862852 0.6565730673483724 4.4797664947023756 -0.64472680043149067 4.4786457847022589 4.4791992112350068 0.86946287642590137 0.9365843187707602
decision_type=2 2 2 2 2 2 2 2 2 2 2 2 2 2 2 2 2 2 2 2 2 2 2 2 2 2 2 2 2 2 2 2 2 2 2 2 2 2 2 2 2 2 2 2 2 2 2 2 2 2 2 2 2 2 2 2 2 2 2 2 2 2 2
left_child=1 2 6 -4 27 -3 8 34 10 -10 12 62 13 15 -15 19 17 -17 -11 22 29 -22 41 -24 32 -19 -27 35 -6 39 -31 -5 -25 36 61 45 -34 38 -26 -21 -41 43 -43 49 -45 46 47 59 -35 -1 51 -51 53 54 55 -47 -7 60 -20 -2 -48 -8 -12
right_child=4 5 3 31 28 56 7 -9 9 18 11 -13 -14 14 -16 16 -18 25 58 20 21 -23 23 24 37 26 -28 -29 -30 30 -32 -33 33 48 -36 -37 -38 -39 -40 40 -42 42 -44 44 -46 52 57 -49 -50 50 -52 -53 -54 -55 -56 -57 -58 -59 -60 -61 -62 -63 -64
leaf_value=-4.8726832300623606 0.96358061944961371 -4.3421137891976231 -4.8726832300623606 0.96358061944975404 -4.580870037586755 0.96358061944975226 0.96358061944975493 -4.8726832300623606 -4.8726832300623606 -0.15217570472168696 0.96358061944976114 -4.8726832300623606 -3.2677106714465296 -4.8726832300623606 0.96358061944973894 -3.1218040752087619 0.4248485718024817 -4.8726832300623606 0.96358061944974516 -4.8726832300623606 0.39139788910542883 -4.8726832300623606 -4.3421137891976231 -4.6295055696660228 -4.8726832300623606 -4.4349634413489527 -4.8726832300623606 0.67888482191252209 -4.8726832300623606 -4.580870037586755 -4.8726832300623606 0.81767402321193661 -4.8726832300623606 -4.710564789798136 0.81767402321193661 0.86630955529121856 -4.7893080322121877 -4.8726832300623606 -4.7702926362112716 -4.730335331293773 -4.8726832300623606 -4.7267766338245583 -4.8726832300623606 -4.4920573268333097 -4.8726832300623606 0.96358061944975848 0.96358061944972739 0.83940479286437686 -4.6902999847651081 -4.7267766338245583 -4.8726832300623606 -4.8726832300623606 0.96358061944972562 0.96358061944974427 0.96358061944973894 0.96358061944974871 0.96358061944974871 0.9635806194497416 0.96358061944975404 0.96358061944974605 0.96358061944975137 0.96358061944973716 0.96358061944973894
leaf_weight=3790.1130595803261 0.43692335486413003 0.47119185328483482 9.4238370656967145 5.7571077346801749 0.34268498420715232 3.4097155928611755 0.68536996841430553 8.4214834868907911 13.733100742101668 0.58256447315216053 0.8053097128868083 7.0507435500621796 0.34268498420715232 6.3825078308582297 0.34268498420715321 0.34268498420715943 0.55686309933662315 24.347768127918247 0.59113159775733937 15.566465407609948 0.43692335486411948 0.50546035170555115 0.37695348262786765 0.41122198104858254 0.57399734854698159 0.34268498420715232 0.45405760407447815 0.35125210881233471 1.0451892018318174 0.34268498420715221 0.71107134222984314 0.34268498420715321 0.6168329715728762 0.92524945735931374 0.34268498420715321 0.51402747631072898 0.59969872236251831 6.4424777030944824 0.48832610249519348 0.35125210881233115 1.1993974447250364 0.34268498420715277 3.0327621102333069 0.39408773183822532 45.645639896392822 8.6527958512306125 0.3940877318382271 0.40265485644340504 0.54829597473144531 0.34268498420715232 252.76444435119629 1.4649783074855802 0.3683863580226906 1.0366220772266395 0.71107134222984392 1.8676331639289863 0.92524945735931385 0.41978910565376271 0.65110146999359031 0.78817546367645264 1.8076632916927335 0.34268498420715332 0.38552060723304749
leaf_count=442402 51 55 1100 672 40 398 80 983 1603 68 94 823 40 745 40 40 65 2842 69 1817 51 59 44 48 67 40 53 41 122 40 83 40 72 108 40 60 70 752 57 41 140 40 354 46 5328 1010 46 47 64 40 29504 171 43 121 83 218 108 49 76 92 211 40 45
internal_value=-4.82562 -4.84998 -4.85603 -2.58263 0.535135 0.443415 -4.86445 -4.06081 -4.86633 -4.22992 -4.86871 -4.0294 -4.87037 -4.87051 -4.57529 -4.87098 -4.73062 -4.84326 0.607377 -4.87187 -4.7445 -2.43206 -4.87246 -4.8135 -4.83025 -4.86672 -4.68442 0.952314 -4.80063 -4.86443 -4.77778 0.955384 -4.74371 -4.76116 0.927104 0.957833 -4.83158 -4.86602 -4.82562 -4.86976 -4.84044 -4.87262 -4.85787 -4.87263 -4.86943 0.96062 0.951814 0.932863 -4.70302 -4.87267 -4.87249 -4.84502 0.963581 0.963581 0.963581 0.963581 0.963581 0.963581 0.963581 0.963581 0.963581 0.963581 0.963581
internal_weight=4230.37 4211.23 4206.42 15.5236 19.139 4.80616 4190.9 9.79222 4181.11 15.5579 4165.55 8.24157 4157.31 4156.97 6.72519 4150.24 26.0441 25.4872 1.8248 4124.2 19.1133 0.942384 4105.08 10.9831 10.6061 25.1445 0.796743 17.7511 1.38787 18.1709 1.05376 6.09979 3.1013 2.69008 1.37074 17.3998 1.21653 7.5048 1.06232 17.1171 1.55065 4094.1 3.37545 4090.72 46.0397 16.8858 4.24929 1.62775 1.47355 4044.69 254.572 1.80766 12.6365 12.2681 11.2315 10.5204 4.33497 2.62154 1.24223 1.2251 2.20175 1.02805 1.19083
internal_count=493791 491557 490996 1812 2234 561 489184 1143 488041 1816 486225 962 485263 485223 785 484438 3040 2975 213 481398 2231 110 479167 1282 1238 2935 93 2072 162 2121 123 712 362 314 160 2031 142 876 124 1998 181 477885 394 477491 5374 1971 496 190 172 472117 29715 211 1475 1432 1311 1228 506 306 145 143 257 120 139
is_linear=0
shrinkage=1


Tree=5
num_leaves=64
num_cat=0
split_feature=29 24 16 8 7 6 4 15 67 16 26 6 29 28 26 4 18 28 4 70 6 4 48 19 37 5 18 67 37 68 8 15 25 4 17 29 40 16 15 24 66 21 19 19 73 19 19 19 24 16 19 19 24 19 77 24 37 19 14 19 14 14 15
split_gain=170980 32617.4 88666.1 29621.1 28019.4 21519.1 16465.7 8031.19 6521.76 8183.03 1716.24 11006.2 447.222 7097.73 5457.21 364.356 275.267 261.543 438.91 239.548 468.667 188.247 123.811 2264.93 1940.71 38.9035 129.432 27.2972 199.225 53.4233 243.977 20.8476 19.3439 14.478 29.542 9.33741 181.654 265.597 8.31504 7.75092 4.99709 3.15202 6.46574 3.11279 2.58319 2.50038 2.43049 2.37403 1.85019 1.6476 1.20468 1.19949 0.112282 0.620307 0.485964 0.0536738 0.0252033 0.0173784 10.5324 2.91038e-11 7.27596e-12 7.27596e-12 7.27596e-12
threshold=5.0027554447011227 3.0223755415813578 0.62236993902928617 -0.71920204120916076 1.0000000180025095e-35 0.94988768297173054 0.74832962102664857 -0.0053663395682856394 1.0023677933549224 0.87189280224204124 1.6880441575711609 1.0041557383397659 1.9494152802770406 0.60268688920566194 1.5618323094675151 -0.61415394881905538 0.30881626561360415 1.3950123865422752 0.75316465829553347 15.422686745973499 0.99242589324199004 -0.79517532575934557 1.0000000180025095e-35 -0.13469402787799825 0.21912619726280394 -1.0000000180025095e-35 1.0000000180025095e-35 1.0214808405231799 -0.35010302311988611 1.0000000180025095e-35 0.79726905069944731 -0.0053499027188642191 0.69010919484156086 1.0386919245872877 0.74682065301641731 1.8390210897764525 -0.095975573566734654 0.051849607129117327 -0.005406819914167897 1.7026870850473232 0.037663242614807448 1.1223856234288878 4.4793643229178448 4.479422590717081 6.6637708581706061 4.4794773576862852 4.4786457847022589 4.4796164437539572 1.4134125742260346 0.64663725460773935 4.4795179681816926 4.4797664947023756 3.1930551311445883 4.4789970413525362 15.896941556861089 3.1933816531602481 0.74610529854614649 1.379614397351266 0.045396925142847676 0.73949544195469963 1.4861768198088636 0.90528892445973963 -0.005390524569226971
decision_type=2 2 2 2 2 2 2 2 2 2 2 2 2 2 2 2 2 2 2 2 2 2 2 2 2 2 2 2 2 2 2 2 2 2 2 2 2 2 2 2 2 2 2 2 2 2 2 2 2 2 2 2 2 2 2 2 2 2 2 2 2 2 2
left_child=1 4 7 -2 10 44 15 41 38 21 12 -12 19 16 17 60 -14 32 -19 22 -21 -10 27 24 -24 39 -27 35 -29 48 -31 -9 -15 -34 -35 57 37 -37 52 40 -25 42 46 -44 59 -45 -3 50 49 -30 -47 -49 53 -4 -55 -52 -42 -1 -59 -5 61 -6 -48
right_child=3 2 8 5 6 -7 -8 31 9 -11 11 -13 13 14 -16 -17 -18 18 -20 20 -22 -23 23 25 -26 26 -28 28 29 30 -32 -33 33 34 -36 36 -38 -39 -40 -41 56 -43 43 45 -46 47 62 51 -50 -51 55 -53 -54 54 -56 -57 -58 58 -60 -61 -62 -63 -64
leaf_value=-4.8200133469752657 -4.8200133469752657 0.58401919214613862 -4.8200133469752657 0.71912000562414935 0.71912000562416267 -4.8200133469752657 -4.8200133469752657 -4.8200133469752657 -3.7610613825077284 0.71912000562416356 0.71912000562416711 -4.8200133469752657 -1.6547942883470173 -4.4876653458192992 0.51396691849085574 -0.62370020106660462 0.03621315393381952 -2.6043600059354923 -4.8200133469752657 -2.6043600059354914 -4.8200133469752657 -4.8200133469752657 -4.8200133469752648 -4.8200133469752657 -0.31359977197912503 -3.7392068391509761 -4.8200133469752657 -3.7339087680342082 -4.8200133469752657 -3.5417518040677054 -4.8200133469752657 -4.3047451281288067 -4.8200133469752657 -4.2661000117153218 -4.8200133469752657 -4.8200133469752648 -4.8200133469752657 -3.0637027717608154 -4.6069697564906749 -4.6148602598419535 -4.6815350131602793 0.71912000562416711 0.48832278259918027 0.71912000562415646 0.58723587818132383 0.63998952915844587 0.71912000562414935 0.71912000562416001 -4.7193018314734578 -4.7347959107814281 0.56525519027417914 0.6125982103818588 -4.8200133469752657 -4.7577758935752721 -4.8200133469752657 0.54602208835542587 -4.6995974045274522 -4.8200133469752657 -4.5562450920895783 0.71912000562416711 0.71912000562415379 0.71912000562415912 0.71912000562416534
leaf_weight=4021.9469021763653 3.4572195643559125 0.37009400036185836 5.9034506399184385 3.2766859056428173 2.3469375632703318 1.9407368311658491 2.2927774656563997 0.39717404916882515 0.61381443962454785 1.2366555621847508 1.0380685376003373 6.5894785430282354 0.37912068329751381 0.45133414678275485 0.48744087852537532 0.59576107375323673 0.65894785430282354 0.36106731742620368 0.58673439081758261 0.36106731742620357 0.70408126898109913 1.3269223915413015 0.43328078091144817 24.931698268279447 0.53257429320365191 0.37009400036185525 1.1012553181499241 0.46036082971841352 17.033350699581217 0.46938751265406553 1.8233899530023334 0.38814736623316903 53.519203125499189 0.36106731742620357 0.72213463485240936 0.51452092733234422 17.114590846002102 0.3700940003618598 0.46938751265407219 0.48744087852537532 0.36106731742620368 2.7170315636321893 0.43328078091144551 0.64992117136716876 0.37912068329751392 0.63186780549585897 0.41522741504013572 0.60478775668889262 0.49646756146103044 0.58673439081758161 0.97488175705075242 0.46938751265406609 30.952495786361396 0.80337478127330519 0.51452092733234167 0.57770770788192749 0.41522741504013538 217.94023279845715 0.37912068329751392 14.695439819246529 0.37009400036185969 0.60478775668889273 2.8975652223452926
leaf_count=445562 383 41 654 363 260 215 254 44 68 137 115 730 42 50 54 66 73 40 65 40 78 147 48 2762 59 41 122 51 1887 52 202 43 5929 40 80 57 1896 41 52 54 40 301 48 72 42 70 46 67 55 65 108 52 3429 89 57 64 46 24144 42 1628 41 67 321
internal_value=-4.77312 -4.79579 -3.56691 -0.541975 -4.81076 0.18689 -1.45467 0.315722 -4.63709 -2.45959 -4.81552 -4.06617 -4.81683 -4.67834 -4.75363 0.514912 -0.581372 -4.79948 -3.97595 -4.81868 -4.06894 -4.48509 -4.81886 -4.71524 -2.33517 -4.79833 -4.54815 -4.81956 -4.76251 -4.78572 -4.55832 -4.56534 -4.81366 -4.81635 -4.63538 -4.81984 -4.7839 -4.08523 -4.81613 -4.81238 -4.81612 0.672573 0.656813 0.615477 0.716395 0.629573 0.705544 0.611713 -4.81449 -4.81718 0.581786 0.672573 -4.8187 -4.81309 -4.78207 0.558099 -4.6912 -4.81999 -4.81956 0.71912 0.71912 0.71912 0.71912
internal_weight=4457.29 4433.55 53.3477 23.7492 4380.2 20.292 6.21036 11.5271 41.8206 3.17739 4373.99 7.62755 4366.36 57.5271 56.489 3.91758 1.03807 56.0015 0.947802 4308.83 1.06515 1.94074 4307.77 28.6326 0.965855 27.6668 1.47135 4279.14 20.8697 20.4093 2.29278 0.785321 55.0537 54.6024 1.0832 4258.27 17.9992 0.884615 38.6432 26.1954 25.708 10.7418 8.02472 4.34183 18.3512 3.90855 3.68289 3.25863 18.1166 17.6201 2.18446 1.07418 38.1738 7.22135 1.3179 1.55259 0.776295 4240.27 218.319 17.9721 3.32182 2.95173 3.31279
internal_count=493791 491160 5910 2631 485250 2248 688 1277 4633 352 484562 845 483717 6373 6258 434 115 6204 105 477344 118 215 477226 3172 107 3065 163 474054 2312 2261 254 87 6099 6049 120 471742 1994 98 4281 2902 2848 1190 889 481 2033 433 408 361 2007 1952 242 119 4229 800 146 172 86 469748 24186 1991 368 327 367
is_linear=0
shrinkage=1


Tree=6
num_leaves=20
num_cat=0
split_feature=0 37 66 24 1 52 14 6 1 1 6 24 14 19 14 19 15 1 1
split_gain=201619 140113 114341 586.549 146.774 18.158 7.92832 7.12943 5.82077e-11 2.91038e-11 2.91038e-11 2.91038e-11 1.45519e-11 1.45519e-11 7.27596e-12 1.81899e-12 9.09495e-13 1.42109e-14 2.22045e-16
threshold=-0.12749763963931673 -0.23610211943985512 0.0026104642491450547 1.1255560001822318 -0.49540098961387863 -0.6318989311711678 0.3550533626932208 -0.02051735744821976 0.62229824337588513 -0.53136709241965685 -0.079793849481538406 0.080760237019107312 0.33360518662899952 1.0628783901310432 0.24779133065328021 1.1013469915697818 29.520071220914801 -0.84427359372476096 -0.86063806078213856
decision_type=2 2 2 2 2 2 2 2 2 2 2 2 2 2 2 2 2 2 2
left_child=1 3 4 5 6 -1 9 8 10 12 -7 -10 13 -3 -11 -15 -2 18 -4
right_child=16 2 17 -5 -6 7 -8 -9 11 14 -12 -13 -14 15 -16 -17 -18 -19 -20
leaf_value=-0.68334532878611709 -4.5057740774782307 -0.44811894425121857 -4.5057740774782307 -2.10806877148045 -1.2137142524072577 -0.44811894425121768 -0.65100170091256793 -0.62845917239464022 -0.44811894425121945 -0.44811894425122301 -0.44811894425124077 -0.44811894425121768 -0.44811894425123011 -0.44811894425122478 -0.44811894425121857 -0.44811894425122389 -4.5057740774782307 -4.5057740774782307 -4.5057740774782307
leaf_weight=0.85024474840611119 5776.4888863451779 12.322387658059599 1.2075939904898403 0.54218505695462127 0.65308654587715764 24.965157395228744 0.49289550632238288 0.55450744461268087 10.350805632770063 2.6246685711666968 0.628441770561042 11.016214566305278 0.56682983227074224 0.91185668669641085 3.7706506233662367 0.70237609650939703 150.02506973687559 85.480403183959424 0.52986266929656167
leaf_count=69 468780 1000 98 44 53 2026 40 45 840 213 51 894 46 74 306 57 12175 6937 43
internal_value=-4.45875 -2.69696 -3.6926 -0.472655 -0.475336 -0.454322 -0.452794 -0.450224 -0.448119 -0.448119 -0.448119 -0.448119 -0.448119 -0.448119 -0.448119 -0.448119 -4.50577 -4.50577 -4.50577
internal_weight=6084.68 158.17 109.263 48.9076 22.0448 48.3654 21.3917 47.5151 46.9606 20.8988 25.5936 21.367 14.5035 13.9366 6.39532 1.61423 5926.51 87.2179 1.73746
internal_count=493791 12836 8867 3969 1789 3925 1736 3856 3811 1696 2077 1734 1177 1131 519 131 480955 7078 141
is_linear=0
shrinkage=1


Tree=7
num_leaves=64
num_cat=0
split_feature=5 0 0 0 0 0 0 0 0 0 0 0 0 0 0 0 0 0 0 0 0 0 0 24 24 24 29 0 0 19 19 19 19 19 19 19 19 0 0 1 19 19 19 19 0 0 4 4 19 19 19 19 19 19 19 19 19 19 19 19 19 19 19
split_gain=46997.9 1.77636e-15 8.88178e-16 8.88178e-16 8.88178e-16 8.88178e-16 8.88178e-16 8.88178e-16 8.88178e-16 8.88178e-16 8.88178e-16 8.88178e-16 8.88178e-16 8.88178e-16 8.88178e-16 8.88178e-16 8.88178e-16 8.88178e-16 8.88178e-16 8.88178e-16 8.88178e-16 8.88178e-16 8.88178e-16 8.88178e-16 2.22045e-16 1.11022e-16 1.11022e-16 2.77556e-17 6.93889e-18 6.93889e-18 6.93889e-18 6.93889e-18 6.93889e-18 6.93889e-18 6.93889e-18 6.93889e-18 6.93889e-18 3.46945e-18 3.46945e-18 3.46945e-18 3.46945e-18 3.46945e-18 3.46945e-18 3.46945e-18 1.73472e-18 1.73472e-18 1.73472e-18 8.67362e-19 8.67362e-19 8.67362e-19 8.67362e-19 8.67362e-19 8.67362e-19 8.67362e-19 8.67362e-19 8.67362e-19 8.67362e-19 8.67362e-19 8.67362e-19 8.67362e-19 8.67362e-19 8.67362e-19 8.67362e-19
threshold=1.5807615585218135 3.1667296925373853 3.0821129068393378 3.0758559845100049 3.0663085981176574 3.0587011601047691 2.5089647516529641 2.4886006306642683 2.4418672001952593 2.2837899609599703 2.2541024668693663 2.244003895251923 2.2359060011440346 2.1858474221888913 2.1815505632977006 2.1805444070709448 2.1623613837867959 2.1234416668276239 2.1174900883789625 2.1070197816970424 2.1016999006787356 2.0943317532156711 2.081877779948428 1.0083822418539767 1.4105106525932769 1.3586535126604262 2.0122351557340461 3.0539563940548193 2.2172194450663727 0.81047883837519674 0.5679174011880942 1.0420181759262641 1.010666205210095 1.0709014434694 -1.0000000180025095e-35 1.0588001210330404 1.7000097217526677 3.1496741446679142 2.171318783893994 -0.66400686953341592 0.88995882268560378 0.65140646158469473 0.78544118538515151 1.0059604459205238 2.4693228803791736 2.2295357403845544 -1.5218258486260405 -1.5218258486260405 0.5679174011880942 0.86300653036461339 0.90894873423748768 0.92700420026417951 0.84874983609417376 0.91506645262857 0.30535466038950571 0.88995882268560378 0.82626929819883299 0.9712139594919923 0.66364529961895502 0.76774703972879765 0.95525281862123956 0.88995882268560378 0.81845898942070761
decision_type=2 2 2 2 2 2 2 2 2 2 2 2 2 2 2 2 2 2 2 2 2 2 2 2 2 2 2 2 2 2 2 2 2 2 2 2 2 2 2 2 2 2 2 2 2 2 2 2 2 2 2 2 2 2 2 2 2 2 2 2 2 2 2
left_child=1 2 3 4 5 6 7 8 9 10 11 12 13 14 15 16 17 18 19 20 21 22 23 -1 25 26 -25 -8 33 30 54 32 -14 -15 -16 -31 -36 40 57 -3 41 48 58 -40 53 -30 60 -17 -4 -6 -7 52 -9 -10 -11 56 -13 -18 -19 -20 -21 62 -22
right_child=-2 39 37 -5 49 50 27 51 44 29 -12 55 31 28 34 47 38 42 59 46 61 -23 -24 24 -26 -27 -28 -29 45 35 -32 -33 -34 -35 36 -37 -38 -39 43 -41 -42 -43 -44 -45 -46 -47 -48 -49 -50 -51 -52 -53 -54 -55 -56 -57 -58 -59 -60 -61 -62 -63 -64
leaf_value=-11.064216593528172 324.67548814931001 -11.064216593528165 -11.064216593528148 -11.064216593528156 -11.064216593528153 -11.064216593528153 -11.064216593528171 -11.064216593528149 -11.064216593528158 -11.064216593528135 -11.064216593528169 -11.064216593528151 -11.064216593528169 -11.064216593528169 -11.06421659352814 -11.06421659352816 -11.064216593528158 -11.064216593528149 -11.064216593528124 -11.064216593528164 -11.064216593528151 -11.064216593528162 -11.064216593528167 -11.064216593528171 -11.064216593528171 -11.064216593528171 -11.064216593528171 -11.064216593528164 -11.064216593528165 -11.064216593528171 -11.064216593528169 -11.064216593528149 -11.06421659352813 -11.06421659352814 -11.064216593528169 -11.064216593528156 -11.06421659352814 -11.064216593528164 -11.064216593528169 -11.064216593528107 -11.064216593528165 -11.064216593528169 -11.064216593528169 -11.064216593528148 -11.064216593528165 -11.064216593528165 -11.064216593528162 -11.064216593528151 -11.064216593528132 -11.064216593528144 -11.06421659352813 -11.064216593528135 -11.064216593528128 -11.064216593528149 -11.064216593528164 -11.064216593528151 -11.064216593528144 -11.064216593528139 -11.064216593528151 -11.064216593528164 -11.064216593528139 -11.064216593528153 -11.064216593528142
leaf_weight=6.4728818005095992 0.0010424742758922126 0.0087638515396974981 0.0033747896050052564 0.0054950762678352963 0.0043819257698495253 0.0043819257698495253 0.21042078223035865 0.003763508826524097 0.0060604860445899744 0.0022616391070194855 0.043713243365346766 0.0041168899369957712 0.037529073932092483 0.045144436862757042 0.001484200663981027 0.0041345589925185777 0.0066258958213446517 0.003763508826524097 0.0017845746078827265 0.0067142410989617929 0.0042052352146136895 0.0080747583742785123 0.024312620400451901 0.77775648603710557 0.59714340047503356 0.082832532294560224 0.086366343399276957 0.0061134932111599474 0.0082691179850371554 0.037317045265808702 0.023888563067885116 0.002120286662830039 0.0010954814424621864 0.001484200663981027 0.045144436862757042 0.0032157681052922263 0.001484200663981027 0.0058131192672590251 0.022422031459427672 0.0012898410532223856 0.0082337798739899881 0.016873948025022401 0.018305141522432677 0.0019966032741649533 0.0079864130966598168 0.0080394202632305678 0.008039420263231345 0.0039932065483306856 0.0011838267200801056 0.0016785602747404482 0.0011131504979857709 0.0013075101087451912 0.0010778123869386036 0.0021732938294007909 0.0054597381567873526 0.0022616391070187092 0.0016785602747404482 0.0014311934974102769 0.0022969772180658765 0.0059721407669712789 0.0013958553863631096 0.0025443439953960478 0.0015902149971225299
leaf_count=366340 59 496 191 311 248 248 11909 213 343 128 2474 233 2124 2555 84 234 375 213 101 380 238 457 1376 44018 33796 4688 4888 346 468 2112 1352 120 62 84 2555 182 84 329 1269 73 466 955 1036 113 452 455 455 226 67 95 63 74 61 123 309 128 95 81 130 338 79 144 90
internal_value=-11.0241 -11.0642 -11.0642 -11.0642 -11.0642 -11.0642 -11.0642 -11.0642 -11.0642 -11.0642 -11.0642 -11.0642 -11.0642 -11.0642 -11.0642 -11.0642 -11.0642 -11.0642 -11.0642 -11.0642 -11.0642 -11.0642 -11.0642 -11.0642 -11.0642 -11.0642 -11.0642 -11.0642 -11.0642 -11.0642 -11.0642 -11.0642 -11.0642 -11.0642 -11.0642 -11.0642 -11.0642 -11.0642 -11.0642 -11.0642 -11.0642 -11.0642 -11.0642 -11.0642 -11.0642 -11.0642 -11.0642 -11.0642 -11.0642 -11.0642 -11.0642 -11.0642 -11.0642 -11.0642 -11.0642 -11.0642 -11.0642 -11.0642 -11.0642 -11.0642 -11.0642 -11.0642 -11.0642
internal_weight=8.72482 8.72378 8.71372 8.67824 8.67275 8.66669 8.66119 8.44466 8.43851 8.42229 8.35015 8.30644 8.29838 8.25763 8.1947 8.14658 8.13846 8.10598 8.08161 8.07386 8.05771 8.04937 8.04129 8.01698 1.5441 0.946955 0.864123 0.216534 0.0629372 0.0721428 0.0316099 0.0407448 0.0386246 0.0466286 0.0481128 0.0405328 0.0466286 0.0354795 0.0324757 0.0100537 0.0296663 0.0214326 0.0243656 0.0244186 0.0162202 0.0163085 0.0161495 0.00812777 0.00455862 0.00606049 0.00549508 0.00614883 0.00484132 0.00823378 0.00772138 0.00805709 0.00579545 0.00805709 0.00606049 0.00775672 0.0081101 0.00833979 0.00579545
internal_count=493791 493732 493163 491155 490844 490501 490190 477935 477587 476669 472586 470112 469656 467350 463788 461065 460605 458767 457388 456949 456035 455563 455106 453730 87390 53594 48906 12255 3562 4083 1789 2306 2186 2639 2723 2294 2639 2008 1838 569 1679 1213 1379 1382 918 923 914 460 258 343 311 348 274 466 437 456 328 456 343 439 459 472 328
is_linear=0
shrinkage=1


Tree=8
num_leaves=14
num_cat=0
split_feature=68 10 6 17 29 3 48 36 0 8 0 10 27
split_gain=52802.7 90560.4 1194.49 5658.7 6.36812 1554.68 4.98218 261.117 3.55271e-15 3.55271e-15 2.77556e-17 1.73472e-18 8.67362e-19
threshold=2.0725586899821513 0.65690933474312019 1.4605943133354817 -1.0000000180025095e-35 1.9070353017380575 0.65698187400813512 1.0000000180025095e-35 0.89975022969396001 3.1726333603509906 -0.027554343527176561 3.0821129068393378 0.55256435167523732 1.454497381952655
decision_type=2 2 2 2 2 2 2 2 2 2 2 2 2
left_child=2 -2 4 11 6 -6 8 10 9 -1 -8 -4 -3
right_child=1 12 3 -5 5 -7 7 -9 -10 -11 -12 -13 -14
leaf_value=-9.8941470338999586 348.57428794923692 -9.8941470338999391 -9.8941470338999533 75.788552059630248 -9.8941470338999586 29.13908255313752 -9.8941470338999586 3.4126357798644751 -9.8941470338999586 -9.8941470338999586 -9.8941470338999427 -9.8941470338999444 -9.8941470338999373
leaf_weight=20.578022212066585 0.0027896458959720807 0.0025049881514860317 0.0079134852967399638 0.0023341935047928039 0.59874909975405799 0.0025619197003834407 0.19254249837103898 0.0037574822272290467 0.019242863527323517 6.6934991354173752 0.0029604405426653093 0.0031312351893575405 0.0022772619558963925
leaf_count=361452 49 44 139 41 10517 45 3382 66 338 117571 52 55 40
internal_value=-9.84613 122.173 -9.88169 5.05475 -9.88881 -9.72784 -9.89233 -9.64322 -9.89415 -9.89415 -9.89415 -9.89415 -9.89415
internal_weight=28.1123 0.0075719 28.1047 0.0133789 28.0913 0.601311 27.49 0.19926 27.2908 27.2715 0.195503 0.0110447 0.00478225
internal_count=493791 133 493658 235 493423 10562 482861 3500 479361 479023 3434 194 84
is_linear=0
shrinkage=1


Tree=9
num_leaves=64
num_cat=0
split_feature=11 40 2 67 1 29 53 16 14 29 18 15 29 40 70 4 3 36 34 66 19 24 16 20 36 70 4 16 19 25 19 19 22 41 9 24 19 19 16 67 29 14 19 19 1 19 1 1 1 13 14 1 1 15 1 1 1 16 1 1 36 1 15
split_gain=447198 6703.86 1757.42 279.37 1453.91 5.23472 259.483 22.5157 1.56013 17.1872 0.889128 3.63274 0.726319 8.23563 16.4269 0.491698 223.78 3.3516 1.14578 2.12588 10.7402 4.30176 10.3122 1.21762 9.5847 0.520025 0.469378 0.269735 0.126391 0.120645 0.0498753 0.0832296 0.190573 0.0464982 0.0736886 0.0327431 0.0883166 0.0275874 0.0993311 0.0209251 0.0182807 0.112074 0.00901801 0.104411 0.0141792 0.102727 0.00869473 0.0910883 5.82077e-11 2.91038e-11 3.63798e-12 1.81899e-12 1.81899e-12 2.27374e-13 5.68434e-14 5.68434e-14 5.68434e-14 5.68434e-14 1.42109e-14 1.42109e-14 1.42109e-14 7.10543e-15 7.10543e-15
threshold=-0.31871189318437271 -0.93423705906222176 1.0000000180025095e-35 1.8368963502170004 0.29727747130770082 2.0194264000683688 -0.90395194827880232 -0.14088559964238526 27.055763153181342 0.32967874007691145 0.55718996862727443 -0.0053291073650901227 2.4355058296267442 -0.18761688887708636 6.8632806522521781 -0.48744855206371712 0.84058748351430246 0.4332801607053165 0.9921128644110887 0.0065805175688121121 1.4123336823184576 0.92868751686441797 -0.099933851698012263 0.49463764927920789 0.4332801607053165 9.5370868791158987 1.0083744851559797 -0.37862991444754529 1.1972225331426898 0.65364310007532622 -0.13469402787799825 -1.0000000180025095e-35 0.6319346496252457 0.91214663295114351 1.9095996565531159 1.4105106525932769 1.1740031017755259 0.92108386243185225 0.74454261230296226 1.0104881746207879 2.0042017732163759 0.16950830271366751 1.1049810619417395 1.1121430032985142 -0.66853258962193818 0.9712139594919923 -0.70254465196626625 -0.69642559791414693 -0.65685436619765303 3.3975651786409768 0.47969075514268117 0.9061601794845745 -0.60060842244480084 0.028120295999041377 0.9061601794845745 0.86128217099611104 -0.68692717863162112 -0.58603551935194675 -0.60060842244480084 0.64170982299660484 -0.34615985224106011 -0.31313384366611324 -0.0054264582165054224
decision_type=2 2 2 2 2 2 2 2 2 2 2 2 2 2 2 2 2 2 2 2 2 2 2 2 2 2 2 2 2 2 2 2 2 2 2 2 2 2 2 2 2 2 2 2 2 2 2 2 2 2 2 2 2 2 2 2 2 2 2 2 2 2 2
left_child=3 2 48 5 -5 8 -7 -8 15 33 11 -6 13 14 -9 16 18 40 25 20 21 30 23 24 -23 39 29 -26 -3 -15 54 32 -32 58 -35 37 -37 38 -12 51 49 59 44 -44 45 46 -41 -48 -2 -17 -50 52 -1 -21 -20 -31 -55 -46 -10 -42 -4 -33 -40
right_child=1 28 60 4 10 6 7 12 9 -11 35 -13 -14 26 -16 17 -18 -19 19 53 -22 22 -24 -25 27 -27 -28 -29 -30 55 31 61 -34 34 -36 36 -38 -39 62 42 41 -43 43 -45 57 -47 47 -49 50 -51 -52 -53 -54 56 -56 -57 -58 -59 -60 -61 -62 -63 -64
leaf_value=-1.5223733650705278 -1.261629231232819 -1.5223733650705278 -1.5223733650705278 -1.261629231232819 -1.4832617449948715 -1.3020262097147175 -1.4456839139417899 -1.4311129182273297 -1.5223733650705278 -1.4441501249192152 -1.515854761724585 -1.5223733650705278 -1.5223733650705278 -1.5161651714077251 -1.5223733650705278 -1.5223733650705278 -1.261629231232819 -1.4944364935879162 -1.5223733650705278 -1.5223733650705278 -1.4702245383029859 -1.4650096556262318 -1.4571873316111006 -1.5223733650705278 -1.5223733650705278 -1.5093361583786424 -1.5099569777449227 -1.5133821880416412 -1.515854761724585 -1.5223733650705278 -1.5223733650705278 -1.5223733650705278 -1.5139622639789887 -1.515854761724585 -1.5223733650705278 -1.5223733650705278 -1.515854761724585 -1.5223733650705278 -1.5223733650705278 -1.5223733650705278 -1.5223733650705278 -1.515854761724585 -1.5161651714077251 -1.5223733650705278 -1.5223733650705278 -1.5163095480045345 -1.5170520562166969 -1.5223733650705278 -1.261629231232819 -1.5223733650705278 -1.261629231232819 -1.5223733650705278 -1.5223733650705278 -1.5223733650705278 -1.5223733650705278 -1.5223733650705278 -1.5223733650705278 -1.5223733650705278 -1.5223733650705278 -1.5223733650705278 -1.5223733650705278 -1.5223733650705278 -1.5223733650705278
leaf_weight=6919.4271039962769 19984.917784929276 243.53376626968384 54.651278257369995 63.855704069137573 7.6703548431396475 13.614879846572874 9.77970242500305 7.6703548431396511 57.335902452468872 7.6703548431396475 7.6703548431396475 26.270965337753296 1169.1538369655609 8.0538725852966291 13.806638717651365 46584.749586582184 8.2456314563751203 10.738496780395506 226.65898561477661 449.86631155014038 11.505532264709471 9.5879435539245588 8.4373903274536115 34.516596794128418 33.366043567657464 7.6703548431396475 8.0538725852966291 11.122014522552496 7.6703548431396475 230.30240416526794 15.53246855735779 12.847844362258909 11.889050006866453 7.6703548431396511 9.9714612960815412 16.107745170593265 7.6703548431396475 257.34040498733521 16.683021783828735 85.332697629928589 15.340709686279295 7.6703548431396475 8.0538725852966291 42.570469379425049 169.70660090446472 8.2456314563751203 9.3961846828460676 55.801831483840942 1685.5604767799377 11803.717309236526 170.2818775177002 32.790766954421997 3559.6199238300323 7.6703548431396475 22.819305658340454 45.830370187759399 233.94582271575928 34.708355665206909 23.202823400497437 31.64021372795105 10.163220167160032 23.586341142654419 7.8621137142181423
leaf_count=36084 104219 1270 285 333 40 71 51 40 299 40 40 137 6097 42 72 242934 43 56 1182 2346 60 50 44 180 174 40 42 58 40 1201 81 67 62 40 52 84 40 1342 87 445 80 40 42 222 885 43 49 291 8790 61555 888 171 18563 40 119 239 1220 181 121 165 53 123 41
internal_value=-1.46195 -1.26535 -1.2624 -1.522 -1.4809 -1.52224 -1.51932 -1.5213 -1.5223 -1.51623 -1.52122 -1.51353 -1.5218 -1.51966 -1.48978 -1.52231 -1.52202 -1.52237 -1.52219 -1.52067 -1.51787 -1.51921 -1.51001 -1.51504 -1.51035 -1.52235 -1.52186 -1.52013 -1.52217 -1.5222 -1.52205 -1.52081 -1.51873 -1.52186 -1.51954 -1.52205 -1.52027 -1.5222 -1.52082 -1.52236 -1.52237 -1.52146 -1.52201 -1.52139 -1.5221 -1.52174 -1.52204 -1.52161 -1.26163 -1.52237 -1.26163 -1.52237 -1.52237 -1.52237 -1.52237 -1.52237 -1.52237 -1.52237 -1.52237 -1.52237 -1.52237 -1.52237 -1.52237
internal_weight=94688.8 22156.8 21905.6 72532 411.131 72120.9 1506.27 1492.65 70614.6 105.851 347.275 33.9413 1482.87 313.718 21.477 70508.8 12054.9 58453.9 12046.7 1113.35 421.87 410.364 97.03 88.5926 54.076 10933.3 292.241 44.4881 251.204 284.187 313.334 63.8557 27.4215 98.1805 17.6418 313.334 23.7781 289.556 32.2155 10925.7 58443.1 54.6513 413.816 50.6243 363.191 158.776 150.531 65.198 21840.8 58388.5 1855.84 10511.8 10479 691.482 249.478 276.133 241.616 204.415 80.5387 46.9809 64.8145 36.4342 24.5451
internal_count=493791 115545 114235 378246 2144 376102 7855 7784 368247 552 1811 177 7733 1636 112 367695 62865 304830 62822 5806 2200 2140 506 462 282 57016 1524 232 1310 1482 1634 333 143 512 92 1634 124 1510 168 56976 304774 285 2158 264 1894 828 785 340 113897 304489 9678 54818 54647 3606 1301 1440 1260 1066 420 245 338 190 128
is_linear=0
shrinkage=1


Tree=10
num_leaves=15
num_cat=0
split_feature=67 67 0 67 29 0 14 9 8 1 19 4 14 19
split_gain=258888 176491 8536.4 13216.9 87.6285 16.6904 1425.71 229.044 10.3203 5.82077e-11 1.45519e-11 4.54747e-13 4.44089e-16 2.22045e-16
threshold=1.0116163388029176 1.0153270305893189 -1.0000000180025095e-35 1.8368963502170004 1.0037184179242569 -0.12749763963931673 -0.028712104818974186 0.93096374279526983 -0.44589097211264755 -0.66853258962193818 0.68696245332588679 1.5959811942294879 0.041848476318377188 0.81845898942070761
decision_type=2 2 2 2 2 2 2 2 2 2 2 2 2 2
left_child=5 4 3 -3 9 6 -1 8 -8 10 -2 -7 13 -5
right_child=1 2 -4 12 -6 11 7 -9 -10 -11 -12 -13 -14 -15
leaf_value=-1.6714700119538799 0.64307616299636905 0.64307616299635928 -4.8029148368865702 -4.8029148368865702 0.0077105463433593258 -4.8029148368865702 -4.8029148368865702 -3.7519341176109151 -4.5435819321302393 0.64307616299636905 0.64307616299636816 -4.8029148368865702 -4.8029148368865702 -4.8029148368865702
leaf_weight=0.36724261939525504 0.44987220875918765 1.9555669482797409 26.817892281338573 0.6977609768509867 0.55086392909288306 4386.7773561347276 75.046029273420572 0.52332073263823886 0.38560475036501785 29.755833236500621 6.2890298571437597 2.0198344066739073 1.2486249059438703 0.64267458394169807
leaf_count=40 49 213 2921 76 60 477807 8174 57 42 3241 685 220 136 70
internal_value=-4.75574 -1.70314 -4.46334 -2.45949 0.633628 -4.80251 -4.77933 -4.79436 -4.80159 0.643076 0.643076 -4.80291 -4.80291 -4.80291
internal_weight=4533.53 68.4081 31.3625 4.54463 37.0456 4465.12 76.3222 75.955 75.4316 36.4947 6.7389 4388.8 2.58906 1.34044
internal_count=493791 7451 3416 495 4035 486340 8313 8273 8216 3975 734 478027 282 146
is_linear=0
shrinkage=1


Tree=11
num_leaves=64
num_cat=0
split_feature=67 24 67 37 35 20 24 24 15 9 29 22 15 24 19 19 19 17 19 24 24 19 24 48 67 37 5 19 19 8 21 19 24 24 19 20 21 29 35 39 16 6 24 19 67 8 9 39 14 0 1 0 0 24 0 1 1 24 1 4 4 4 4
split_gain=143746 77768.8 18620.3 16765.6 14681.2 6023.69 1460.02 1132.54 849.049 790.163 5152.43 647.466 859.423 526.765 543.159 650.86 480.285 505.248 428.491 369.338 305.994 308.273 361.377 296.467 930.308 14098.7 164.947 161.041 124.882 237.198 108.308 106.397 94.6621 105.222 77.6473 194.904 58.7759 48.2126 495.122 5389.45 36.2641 9.92069 6.8607 6.49504 0.193684 10.3857 0.0214526 4.12749 6.43224 1.13687e-13 7.10543e-15 1.77636e-15 1.77636e-15 1.77636e-15 8.88178e-16 8.88178e-16 4.44089e-16 4.44089e-16 2.22045e-16 2.22045e-16 2.22045e-16 2.22045e-16 2.22045e-16
threshold=1.2960369672201726 1.3167893379999984 1.3061975237265766 -0.35010302311988611 -1.0000000180025095e-35 1.0803893926236845 1.2956965193613981 1.3765218174468383 -0.0050730530036355815 2.05948611019581 2.2489362325784059 1.4644929091416741 -0.0054043663236831452 1.4105106525932769 1.2639062247974724 1.1972225331426898 1.1492149054324663 0.78296967695428121 1.219060002832564 1.3765218174468383 1.3239482128900486 1.188686459369398 1.3487250678564273 1.0000000180025095e-35 1.0104881746207879 0.66236257133370058 1.1439653744269516 1.1740031017755259 1.0939690872034138 0.63661083143393815 1.1740473404523479 1.1740031017755259 1.3305511278816657 1.388068715339597 1.1121430032985142 1.0764337015799963 1.1703129998956399 2.0472501581098195 0.800760253625736 0.67191391319883353 -0.4692082387906415 1.3193562478172554 1.2833775800125771 1.1828834159843562 1.0104881746207879 0.45571187148715403 1.8786618146521679 0.48011059168269887 -0.0286938907096673 3.0417721429723685 0.89038801401130974 2.1496050541812952 3.1759847357179667 1.4259554153872038 1.9288524077493949 0.66755314996957738 0.89117268896548396 1.2074922141588225 0.15388087219593646 1.3233141447559589 0.83890958104523294 1.0472319334970102 1.0778175038591151
decision_type=2 2 2 2 2 2 2 2 2 2 2 2 2 2 2 2 2 2 2 2 2 2 2 2 2 2 2 2 2 2 2 2 2 2 2 2 2 2 2 2 2 2 2 2 2 2 2 2 2 2 2 2 2 2 2 2 2 2 2 2 2 2 2
left_child=9 2 -2 -3 -5 7 28 18 11 23 -11 19 31 14 15 16 34 36 20 -7 -6 22 -22 26 25 40 37 -21 42 -30 -17 -13 -14 43 35 -9 -18 44 51 -40 -25 60 59 -34 46 -46 49 48 -48 -1 -49 53 -51 -39 -26 57 61 -47 -42 -4 -41 -52 -63
right_child=1 3 6 4 5 8 -8 13 -10 10 -12 12 32 -15 -16 30 17 -19 -20 27 21 -23 -24 24 54 -27 -28 -29 29 -31 -32 -33 33 -35 -36 -37 -38 38 39 41 58 -43 -44 -45 45 55 47 50 -50 52 56 -53 -54 -55 -56 -57 -58 -59 -60 -61 -62 62 -64
leaf_value=-6.1664783320342229 13.485935848613838 -6.1664783320342229 -6.1664783320342229 -6.166478332034222 10.764832346677895 10.834222964213623 -1.3044465492959372 4.9194988980749201 14.997660016355898 -6.1664783320342229 6.2222855792185037 9.814605726954241 13.939453098936319 1.8960505625905792 2.2007391545386099 8.7895127674948341 6.6304425297830392 2.1946627438730086 5.756979892410941 9.0717012788066569 5.407659827241643 10.017862757911161 9.3194765570316846 -5.2044720434710356 -6.1664783320342229 10.140316788856559 -4.1016843468254134 6.5991924177884087 -2.9918575797757083 -6.1664783320342229 6.857606805436621 7.6362205908288843 11.705460717717411 13.130236044439158 7.7708810681250959 7.6549997730368702 4.9194988980748668 -6.1664783320342229 4.0628552030210852 -6.1664783320342229 -6.1664783320342229 -5.63737487332447 -5.8015793949930128 11.149634862103124 -5.6373748733244655 -6.1664783320342229 -6.1664783320342229 -6.1664783320342229 -5.6373748733244655 -6.1664783320342229 -6.1664783320342229 -6.1664783320342229 -6.1664783320342229 -6.1664783320342229 -6.1664783320342229 -6.1664783320342229 -6.1664783320342229 -6.1664783320342229 -6.1664783320342229 -6.1664783320342229 -6.1664783320342229 -6.1664783320342229 -6.1664783320342229
leaf_weight=1071.6476855892688 0.13229926675558035 0.25278609897941384 1.6372034261003152 0.19372392632067281 0.12993677984923113 0.14411170128732897 0.17482403106987465 0.14883667510002829 0.1086743976920842 0.62842151708900829 0.096861963160336018 0.11576185841113318 0.09449947625398647 0.099224450066685566 0.10158693697303522 0.17718651797622442 0.10158693697303534 0.19136143941432238 0.16773657035082579 0.11812434531748295 0.15119916200637817 0.12048683222383261 0.096861963160336018 0.10394942387938488 5.2116461154073477 0.14411170128732909 0.096861963160335018 0.14883667510002851 0.094499476253986248 0.15592413581907749 0.12284931913018227 0.10867439769208431 0.10631191078573465 0.16064910963177681 0.096861963160336018 0.11576185841113329 0.099224450066685677 12.334544138051571 0.14174921438097854 0.72292099334299542 0.84813279937952646 0.094499476253986248 0.13702424056828011 0.10394942387938499 0.094499476253985359 2.645985335111618 0.14647418819367886 40.908823270350695 0.094499476253985359 11.278512490913268 0.12284931913018171 0.92373238038271743 0.25514858588576395 3.4185185534879574 0.80088306125253428 0.71583353262394656 1.7954900488257406 1.6372034261003134 0.85285777319222689 0.51265965867787588 0.69457115046679974 0.27404848113656033 1.4222171176224945
leaf_count=453610 56 107 693 82 55 61 74 63 46 266 41 49 40 42 43 75 43 81 71 50 64 51 41 44 2206 61 41 63 40 66 52 46 45 68 41 49 42 5221 60 306 359 40 58 44 40 1120 62 17316 40 4774 52 391 108 1447 339 303 760 693 361 217 294 116 602
internal_value=-6.12049 1.33986 -4.83054 6.24683 7.19085 8.01749 -5.72402 6.27689 10.7814 -6.16178 -4.51195 10.3652 11.3012 5.39209 5.69236 6.029 5.24491 4.03311 7.94295 8.79438 8.67851 7.94295 6.93513 -6.16281 -5.85875 -4.90946 -6.16492 7.69322 -6.02854 -4.96851 7.9985 8.75981 12.5267 12.1668 6.55967 6.11628 5.78504 -6.16509 -6.08465 -5.25944 -6.11107 -6.13341 -6.14461 11.4307 -6.16639 -6.15666 -6.16643 -6.16536 -5.95899 -6.16648 -6.16648 -6.16648 -6.16648 -6.16648 -6.16648 -6.16648 -6.16648 -6.16648 -6.16648 -6.16648 -6.16648 -6.16648 -6.16648
internal_weight=1166.57 6.42124 2.84443 3.57681 3.32402 3.1303 2.71213 1.9207 1.20959 1160.15 0.725283 1.10092 0.689846 1.25448 1.15526 1.05367 0.753633 0.392173 0.666221 0.411073 0.498485 0.368548 0.248061 1159.43 7.96158 1.94905 1151.47 0.266961 2.53731 0.250424 0.300036 0.224436 0.46541 0.37091 0.36146 0.264599 0.200811 1151.37 18.3305 1.65374 1.80494 1.51199 2.28689 0.210261 1133.04 5.09352 1127.95 44.7644 0.240974 1083.18 44.5234 16.6768 11.5337 15.7531 6.01253 4.99902 3.6146 4.28319 1.70099 2.14986 1.41749 1.81911 1.69627
internal_count=493791 2718 1204 1514 1407 1325 1148 813 512 491073 307 466 292 531 489 446 319 166 282 174 211 156 105 490766 3370 825 487396 113 1074 106 127 95 197 157 153 112 85 487355 7759 700 764 640 968 89 479596 2156 477440 18948 102 458492 18846 7059 4882 6668 2545 2116 1530 1813 720 910 600 770 718
is_linear=0
shrinkage=1


Tree=12
num_leaves=47
num_cat=0
split_feature=9 21 40 24 39 29 48 67 36 0 0 0 0 19 0 0 1 1 1 2 19 19 19 2 4 19 36 36 1 1 1 4 4 16 19 19 19 19 36 8 16 19 19 19 25 4
split_gain=1098.79 2214.9 3932.66 1897.02 15496 656.824 305.734 999.552 15036 1.77636e-15 1.77636e-15 2.22045e-16 1.11022e-16 1.11022e-16 2.77556e-17 1.38778e-17 1.38778e-17 6.93889e-18 6.93889e-18 6.93889e-18 6.93889e-18 6.93889e-18 6.93889e-18 3.46945e-18 3.46945e-18 3.46945e-18 3.46945e-18 3.46945e-18 1.73472e-18 1.73472e-18 1.73472e-18 1.73472e-18 1.73472e-18 1.73472e-18 1.73472e-18 1.73472e-18 1.73472e-18 1.73472e-18 1.73472e-18 8.67362e-19 8.67362e-19 8.67362e-19 8.67362e-19 8.67362e-19 8.67362e-19 4.33681e-19
threshold=1.9766275845224244 0.53720518343110857 1.0197842569387816 0.080760237019107312 0.9359337153085362 2.0122351557340461 1.0000000180025095e-35 1.0104881746207879 0.61140221386172589 2.1858474221888913 1.6508082267986803 2.1234416668276239 2.1070197816970424 0.96597032971131713 2.183673344066023 1.5451959856888673 -0.73669861029580774 0.62229824337588513 -0.62363092065431391 2.3773616141344704 0.92700420026417951 1.0059604459205238 0.94977436531932169 0.65698187400813512 1.2043805543539683 1.115672238159588 -0.46098755964423771 -0.13746783164097151 0.65186263297050939 0.64170982299660484 -0.7623510936537129 0.83890958104523294 1.0162389772818392 0.65873191255372021 1.0628783901310432 0.98148167988904222 0.81047883837519674 0.96065069472897102 -0.028478224600693363 0.71527671826432415 -0.55443578562807427 0.84140827484245306 0.81845898942070761 0.87673004248444475 0.96886689674134452 0.79328851822934088
decision_type=2 2 2 2 2 2 2 2 2 2 2 2 2 2 2 2 2 2 2 2 2 2 2 2 2 2 2 2 2 2 2 2 2 2 2 2 2 2 2 2 2 2 2 2 2 2
left_child=6 2 -2 4 -3 28 9 8 26 10 -1 12 13 -12 -13 16 -9 -5 21 23 -14 22 -18 31 32 -23 -8 -28 29 39 -17 45 33 41 -22 36 -32 -33 -29 -6 -20 -25 -35 -38 -41 -19
right_child=1 3 -4 17 5 -7 7 15 -10 -11 11 14 20 -15 -16 30 18 19 40 -21 34 25 -24 24 -26 -27 27 38 -30 -31 35 37 -34 42 -36 -37 43 -39 -40 44 -42 -43 -44 -45 -46 -47
leaf_value=-10.428228504727125 101.93335662173078 167.92349391809458 -10.4282285047271 -10.428228504727123 -10.428228504727112 26.112124381899154 -10.428228504727114 -10.428228504727112 125.76763225455403 -10.428228504727125 -10.428228504727125 -10.428228504727125 -10.428228504727123 -10.428228504727125 -10.428228504727125 -10.428228504727116 -10.428228504727123 -10.428228504727105 -10.428228504727111 -10.428228504727103 -10.428228504727119 -10.428228504727123 -10.428228504727123 -10.428228504727111 -10.428228504727119 -10.4282285047271 -10.428228504727119 -10.428228504727105 -10.428228504727102 -10.428228504727093 -10.428228504727114 -10.428228504727121 -10.428228504727093 -10.428228504727107 -10.428228504727095 -10.428228504727102 -10.428228504727111 -10.428228504727102 -10.428228504727125 -10.428228504727111 -10.4282285047271 -10.428228504727093 -10.428228504727102 -10.428228504727091 -10.428228504727093 -10.428228504727095
leaf_weight=14.095542471710365 0.00133497582282771 0.0014017246139701465 0.0018689661519601941 0.017254562510061078 0.0039715530729154125 0.0013683502183994287 0.0040383018640568471 0.0038046810950618229 0.0022027101076673708 0.98801560647552911 0.79497810249449752 0.13393144942529034 0.035143238535965793 0.15445670270128176 0.078029336844338104 0.0055735240603098637 0.018489415146177635 0.002302833294379524 0.0033040651615010574 0.0022360845032380885 0.0084437220793915913 0.02419643678877037 0.01915690305759199 0.0032373163703596219 0.008477096474962309 0.0018355917563894755 0.0092780819686595333 0.0022694588988088063 0.0020692125253845015 0.0014350990095408642 0.0046724153799004853 0.010446185813634656 0.001468473405111582 0.0025030796678038314 0.0015685965918237352 0.0019357149431016305 0.0031705675792181864 0.0019357149431016305 0.0097453235066485878 0.0032373163703596219 0.0018689661519601932 0.0014350990095408633 0.0020358381298137829 0.0013683502183994278 0.0014350990095408633 0.0015018478006822988
leaf_count=422346 40 42 56 517 119 41 121 114 66 29604 23820 4013 1053 4628 2338 167 554 69 99 67 253 725 574 97 254 55 278 68 62 43 140 313 44 75 47 58 95 58 292 97 56 43 61 41 43 45
internal_value=-10.3827 -4.26016 36.3891 -6.12731 9.68123 -6.72908 -10.4099 -7.86216 0.46744 -10.4282 -10.4282 -10.4282 -10.4282 -10.4282 -10.4282 -10.4282 -10.4282 -10.4282 -10.4282 -10.4282 -10.4282 -10.4282 -10.4282 -10.4282 -10.4282 -10.4282 -10.4282 -10.4282 -10.4282 -10.4282 -10.4282 -10.4282 -10.4282 -10.4282 -10.4282 -10.4282 -10.4282 -10.4282 -10.4282 -10.4282 -10.4282 -10.4282 -10.4282 -10.4282 -10.4282 -10.4282
internal_weight=16.48 0.0729564 0.00320394 0.0697525 0.0149184 0.0135166 16.407 0.116911 0.0275339 16.2901 15.3021 1.20655 0.99459 0.949435 0.211961 0.0893766 0.0726561 0.0548341 0.0688514 0.0375796 0.0451556 0.0636783 0.0376463 0.0353435 0.0191569 0.026032 0.0253312 0.0212929 0.0121483 0.0100791 0.0167206 0.0161866 0.0106798 0.00921133 0.0100123 0.011147 0.00921133 0.0123819 0.0120148 0.00864397 0.00517303 0.00467242 0.00453892 0.00453892 0.00467242 0.00380468
internal_count=493791 2186 96 2090 447 405 491605 3503 825 488102 458498 36152 29801 28448 6351 2678 2177 1643 2063 1126 1353 1908 1128 1059 574 780 759 638 364 302 501 485 320 276 300 334 276 371 360 259 155 140 136 136 140 114
is_linear=0
shrinkage=1


Tree=13
num_leaves=60
num_cat=0
split_feature=67 19 4 18 20 5 19 19 23 17 21 22 22 1 36 19 19 19 20 21 19 17 19 15 19 67 67 19 19 19 19 67 37 0 0 19 36 66 20 23 48 19 29 19 9 0 1 0 1 19 19 19 1 19 20 1 1 1 1
split_gain=73644.2 43213.2 18184.5 11153 5671.9 1797.01 1700.03 1283.43 1653.34 1098.14 662.599 1021.59 574.361 2561.77 512.192 674.499 639.6 1208.46 1227.77 453.208 383.183 349.617 306.738 241.928 239.626 70.6838 198.404 58.8088 106.273 44.3958 20.9302 7.06487 214.175 17.2684 190.144 5.14686 270.633 2185.99 7.41672 14.7421 2.51093 21.3049 0.344107 8.37438 15.6971 5.68434e-14 8.88178e-16 4.44089e-16 4.44089e-16 4.44089e-16 2.22045e-16 2.22045e-16 1.11022e-16 1.11022e-16 1.11022e-16 5.55112e-17 5.55112e-17 2.77556e-17 2.77556e-17
threshold=1.8368963502170004 1.0588001210330404 -0.8428489418543812 0.5710933723761028 1.0716620494622657 1.5807906845046857 1.2639062247974724 1.1972225331426898 1.1349785302385089 0.78106258788895777 1.1827850419739765 1.4644929091416741 1.4249298800751236 0.66755314996957738 -0.46098755964423771 1.1740031017755259 1.1226305007525099 1.0976765780831768 1.0764337015799963 1.1740473404523479 1.1492149054324663 0.78296967695428121 1.219060002832564 -0.0054018416260839816 1.1828834159843562 1.0239529259187703 1.3000681610726983 1.1427471391751756 1.188686459369398 1.1828834159843562 1.2295100685233347 1.0104881746207879 -0.232663522735824 -1.0000000180025095e-35 1.7710535100504143 1.4350908058830514 0.47534577893174995 0.18788029460834371 0.39823863794589182 0.41339057777058097 1.0000000180025095e-35 0.98650979049425835 3.2670178163117289 1.1649025847679433 1.7220973362537066 3.0923131470783001 -0.65965985945816752 2.0861982928228908 0.64170982299660484 0.33601151669998391 0.4596506129252545 0.81047883837519674 0.48674074571856657 0.79397828543724358 0.4122331123868625 -0.65965985945816752 0.1687205747493665 0.89117268896548396 -0.69445922485985545
decision_type=2 2 2 2 2 2 2 2 2 2 2 2 2 2 2 2 2 2 2 2 2 2 2 2 2 2 2 2 2 2 2 2 2 2 2 2 2 2 2 2 2 2 2 2 2 2 2 2 2 2 2 2 2 2 2 2 2 2 2
left_child=5 12 3 4 -3 25 7 8 14 -9 11 29 52 -14 15 16 17 18 -6 -8 -18 -17 -11 -23 -12 31 -27 -13 -29 -5 -30 35 -33 46 -35 40 38 -38 39 -37 42 56 45 47 -45 -1 -34 48 -44 -47 -51 53 54 -52 -2 -36 -42 -15 -28
right_child=1 2 -4 10 6 -7 19 9 -10 22 24 27 13 57 -16 21 20 -19 -20 -21 -22 23 -24 -25 -26 26 58 28 30 -31 -32 32 33 34 55 36 37 -39 -40 -41 41 -43 43 44 -46 49 -48 -49 -50 50 51 -53 -54 -55 -56 -57 -58 -59 -60
leaf_value=-7.0038170468404353 -7.0038170468404353 -3.3863777762033451 -7.0038170468404353 6.314936631414195 18.63478378379974 2.9852482118507595 23.518326799159695 2.7632689838796534 6.1739974390517993 8.867697753079824 3.1702309018263168 -2.7572579030490996 3.5551948782624301 -7.0038170468404353 10.988183536065085 15.194105750250829 7.1041961086441052 22.297441045319765 6.797500170481408 16.396493235093089 13.751240768439652 16.846044190964356 13.072970905195477 21.774204293674174 8.1894278898352262 -3.6358563465920635 -7.0038170468404353 0.98743516011237809 -2.3967009946139726 4.0951443517050912 -0.89938827764040941 -3.3411597853204094 -7.0038170468404353 -3.5155720358689075 -7.0038170468404353 -7.0038170468404317 -7.0038170468404353 4.1876356966929915 -7.0038170468404353 -5.8939209069858816 -7.0038170468404353 -5.8127089943135992 -7.0038170468404353 -7.0038170468404353 -5.7829312930004289 -7.0038170468404353 -7.0038170468404353 -7.0038170468404353 -7.0038170468404353 -7.0038170468404353 -7.0038170468404353 -7.0038170468404353 -7.0038170468404353 -7.0038170468404353 -7.0038170468404353 -7.0038170468404344 -7.0038170468404353 -7.0038170468404353 -7.0038170468404353
leaf_weight=466.27109268994536 0.53035263973288171 0.055287726921960489 0.20169781858567137 0.045049258973449469 0.04095387179404486 0.045049258973448469 0.040953871794044971 0.051192339742556214 0.06450234807562083 0.081907743588089943 0.049144646152853966 0.047096952563151717 0.075764662818983197 0.12593315576668829 0.077812356408685557 0.07883620320353657 0.046073105768300593 0.046073105768300593 0.047096952563151717 0.049144646152853966 0.040953871794044971 0.044025412178598344 0.092146211536601186 0.05733542051166296 0.046073105768300593 0.059383114101364209 0.091122364741750062 0.056311573716811836 0.054263880127109587 0.045049258973449469 0.040953871794044971 0.04095387179404486 1.2081392179243264 0.043001565383746221 0.37575177371036261 0.089074671152053919 0.38906178204342623 0.049144646152853966 25.457950553973205 0.045049258973449469 0.27951017499435593 0.041977718588896096 0.38189485447946969 0.073716969229280838 0.040953871794044971 0.075764662818982642 3.1022557883989066 0.057335420511662849 2.3343706922605634 0.094193905126303767 0.52113801857922259 1.2552361704874782 0.14948163204826415 0.38701408845372498 0.061430807691067457 0.051192339742556214 0.075764662818983197 0.11159930063877255 0.074740816024132073
leaf_count=455411 518 54 197 44 40 44 40 50 63 80 48 46 74 123 76 77 45 45 46 48 40 43 90 56 45 58 89 55 53 44 40 40 1180 42 367 87 380 48 24865 44 273 41 373 72 40 74 3030 56 2280 92 509 1226 146 378 60 50 74 109 73
internal_value=-6.95753 1.51058 6.96345 9.13344 12.1366 -7.00054 13.1357 12.3743 13.6892 9.20067 1.9819 0.789071 -6.24521 -4.45033 14.7008 15.4206 13.5704 15.7363 12.3032 19.6337 10.2322 17.6914 11.094 19.6337 5.59887 -7.00143 -6.1159 -1.21405 -0.734404 5.20504 -1.7527 -7.00183 -6.94159 -6.97244 -6.68463 -7.00241 -6.98077 -5.7487 -7.00186 -6.63103 -7.00361 -6.87795 -7.00371 -6.98651 -6.56779 -7.00382 -7.00382 -7.00382 -7.00382 -7.00382 -7.00382 -7.00382 -7.00382 -7.00382 -7.00382 -7.00382 -7.00382 -7.00382 -7.00382
internal_weight=505.566 2.5545 1.49994 1.29824 0.914295 503.012 0.859007 0.768909 0.543663 0.225246 0.383943 0.288725 1.05456 0.313297 0.47916 0.401348 0.221151 0.134124 0.0880508 0.0900985 0.087027 0.180197 0.174054 0.101361 0.0952178 502.967 0.225246 0.198626 0.151529 0.0900985 0.0952178 502.742 4.82129 4.78034 0.469946 497.92 26.0303 0.438206 25.5921 0.134124 471.89 0.397253 471.493 2.88827 0.114671 468.604 4.3104 2.7736 2.71627 2.33335 2.25758 2.16339 0.741265 0.908152 0.591783 0.426944 0.355275 0.237532 0.165863
internal_count=493791 2495 1465 1268 893 491296 839 751 531 220 375 282 1030 306 468 392 216 131 86 88 85 176 170 99 93 491252 220 194 148 88 93 491032 4709 4669 459 486323 25424 428 24996 131 460899 388 460511 2821 112 457690 4210 2709 2653 2279 2205 2113 724 887 578 417 347 232 162
is_linear=0
shrinkage=1


Tree=14
num_leaves=64
num_cat=0
split_feature=6 18 17 19 51 20 71 74 48 0 14 24 39 16 18 0 67 0 1 67 1 67 67 0 30 3 8 55 5 26 30 66 68 3 17 6 0 5 2 67 40 46 8 37 29 8 19 1 24 66 77 28 40 15 25 1 29 1 4 24 1 66 28
split_gain=14303.8 84823.7 178382 20.0746 6.38392 139.816 0.616335 21.3314 0.399932 19.9466 117.604 0.394607 69.3748 0.0414902 0.0278177 0.0496017 0.000441604 0.00177005 0.00163565 0.00210322 0.00289787 0.000229329 0.00354143 0.0533179 5.07025e-06 4.23974e-06 2.87614e-06 2.46045e-06 2.01097e-06 1.98607e-06 1.40028e-06 1.18339e-06 6.01141e-07 3.57008e-07 2.97517e-07 2.54581e-07 2.37315e-07 2.05527e-07 1.56895e-07 1.29757e-07 1.8522e-07 1.11444e-07 7.96194e-08 7.34624e-08 5.90472e-08 4.26053e-07 5.89225e-08 5.7676e-08 5.44635e-08 3.50481e-08 3.29756e-08 3.22315e-08 2.69985e-08 3.59884e-08 2.71278e-08 2.33384e-08 2.18697e-08 1.8847e-08 1.72506e-08 1.4806e-08 1.32694e-08 1.14925e-08 1.13819e-07
threshold=1.4605943133354817 -0.67744569463206628 -0.0011768601306873258 -0.2618966255234586 1.5000000000000002 0.69419864859437952 7.9749134743707071 16.199665111814763 1.0000000180025095e-35 2.183673344066023 1.3011477354105232 2.4109574850233533 0.50576504478262585 -0.75564207154256324 0.38099202046077091 2.183673344066023 1.0182504157041121 -1.0000000180025095e-35 -1.0000000180025095e-35 1.0331858244910992 -0.72074963647646162 1.005900263063001 1.0066729081752734 2.183673344066023 1.0000000180025095e-35 1.3659724481421465 -0.83123281022146045 0.67061839018165881 1.1290321670935717 1.6880441575711609 1.0000000180025095e-35 -0.010622155414557256 1.591329169322069 0.65698187400813512 0.69089772273287042 1.1854307174664207 -1.0000000180025095e-35 1.1281901207209775 -1.0000000180025095e-35 1.0116163388029176 0.3543362634490646 1.0000000180025095e-35 0.45571187148715403 -0.35550578825021345 1.9294189927146677 0.14251496523670898 -0.13469402787799825 -0.37583173222204841 1.7026870850473232 0.011674690717315939 17.00802347439026 1.3214200775532328 0.16530174224552138 -0.0054158853325045131 0.55648016020890567 -0.49540098961387863 1.0037184179242569 0.82833420536220703 -0.8428489418543812 1.097543649238768 0.40118673742739591 1.0000000180025095e-35 1.2857328205721719
decision_type=2 2 2 2 2 2 2 2 2 2 2 2 2 2 2 2 2 2 2 2 2 2 2 2 2 2 2 2 2 2 2 2 2 2 2 2 2 2 2 2 2 2 2 2 2 2 2 2 2 2 2 2 2 2 2 2 2 2 2 2 2 2 2
left_child=4 -2 -3 -4 6 33 8 -8 11 13 -11 21 14 -10 15 -13 31 -18 19 20 -19 24 23 -23 25 28 -24 30 29 35 41 48 43 -6 42 38 55 -31 -1 40 46 49 -28 50 61 -46 -33 -42 -15 -16 -9 -36 53 -47 -55 -26 -44 -29 -32 -27 -51 -40 -63
right_child=1 2 3 -5 5 -7 7 32 9 10 -12 12 -14 16 27 -17 17 18 -20 -21 -22 22 26 -25 36 59 34 57 -30 37 58 39 -34 -35 51 -37 -38 -39 44 -41 47 -43 56 -45 45 52 -48 -49 -50 60 -52 -53 -54 54 -56 -57 -58 -59 -60 -61 -62 62 -64
leaf_value=-0.046556089499625655 -0.046464420272332392 -0.046464410508993345 291.0351200299728 286.01647202226735 -0.046464223428419049 -1.8755503347070595 1.050832849305843 -0.046510397029036678 0.0033660790562917162 6.8044703622019815 0.046469982092731649 -0.046561599299871886 -1.7921849720166609 -0.046554208872145474 -0.046554556779932948 0.046438194400545724 -0.046473535377494296 -0.025714631015915597 -0.04650803555449224 -0.035705410192479949 0.046429994033221782 -0.046530487873987017 -0.046554010692752106 0.04642997952868877 -0.046510099048106934 -0.046510333878624806 -0.046409742936015672 -0.046472771287113024 -0.046530544746627954 -0.046465290043567642 -0.046499255469875926 -0.046506358812738291 -0.046471487493910141 -0.046554649271248569 -0.046555742714324576 -0.046533254034331034 -0.046470660235022145 -0.046552804420391246 -0.046555141270216753 -0.046473542736802098 -0.04651491717899197 -0.046555783075514438 -0.046473742467951017 -0.046589392181984254 -0.046554890040870531 -0.046481517290628993 -0.046560003927858376 -0.046468747500256258 -0.046591593332245357 -0.046548389381347671 -0.046554904699205833 -0.046514960783009443 -0.04653194799046427 -0.046513307423264642 -0.046551441458423957 -0.046532222317656587 -0.046499309384676127 -0.046464590267239904 -0.046471818376807542 -0.04653006333516041 -0.04653052496767391 -0.046554796387070885 -0.046535724632249538
leaf_weight=333.74867394567218 0.13781932217534631 0.014940133085474372 0.0049814212834462523 0.0033209475222965024 0.11465456063160662 0.10926738276612002 0.045561942155471047 0.077248898822290357 0.042475680896430723 0.0073378884480915776 0.052472880524874199 0.039652064908293094 0.0572420250973672 0.34475158248096827 0.1623806217685323 0.022457783677964471 0.10930187907069921 0.0036619678030547212 0.01186889293603588 0.010317324740940936 0.0022453710334957577 0.23538954449637017 2.4087463783033023 0.01650631197844632 5.2619806049624458 5.3390057723736373 0.048161912651265459 1.2146946563152599 8.4019803896080685 0.67916980522568238 0.060477150022052117 0.08755607227794826 1.3223667691345327 2.2744377627968788 0.10807875362661935 1.3290159829152788 0.39951720845419814 0.074442104669287801 309.00424386351438 2.0552125744288787 0.087798980647228575 0.53398773097433139 2.2729762183542008 0.095144819259076585 13.268154383287756 0.061928423237986863 0.12322999583553418 0.29464611381990835 0.1357989723328501 0.10635574418120075 0.090221098624169827 0.087813707849819109 1.5837209076453349 0.15774104185402404 0.066213058875291608 0.12197342608124007 0.086837911368791043 1.6744331172085365 1.0865312662790527 0.096817415440455856 4.5910056515131146 696.61856719632078 0.78318213066086073
leaf_count=113464 166 18 58 45 139 41 18 59 76 91 245 13 26 119 56 336 105 26 7 86 68 122 2148 506 2793 2827 45 1190 3582 822 37 49 1345 782 50 672 411 26 105831 1974 51 182 2238 28 4561 53 98 326 38 39 31 53 676 87 48 51 67 2008 1102 44 1950 239266 320
internal_value=-0.0449736 14.8546 103.213 289.028 -0.0466886 -0.126543 -0.0465457 -0.0158231 -0.0465816 -0.0293745 0.875576 -0.0466233 -0.0567524 -0.0457323 -0.0462868 -0.0129346 -0.0463708 -0.0435964 -0.0324023 -0.0220835 0.00170744 -0.0465533 -0.0462239 -0.0404389 -0.0465546 -0.0465548 -0.0465146 -0.0465065 -0.0465549 -0.0465551 -0.0465234 -0.0464926 -0.0464852 -0.0465503 -0.0464782 -0.0465551 -0.0465078 -0.0464739 -0.0465551 -0.0464795 -0.0465001 -0.0465341 -0.0464734 -0.0465543 -0.0465548 -0.0465517 -0.0465377 -0.0464793 -0.0465648 -0.0465317 -0.0465344 -0.0465375 -0.0465294 -0.0465153 -0.0465246 -0.0465106 -0.0464747 -0.046468 -0.0464733 -0.0465107 -0.0465309 -0.0465549 -0.0465548
internal_weight=1399.47 0.161062 0.0232425 0.00830237 1399.31 2.49836 1396.81 1.63054 1395.18 3.36868 0.0598108 1391.81 9.54922 3.30887 9.49198 0.0621098 3.26639 0.137395 0.0280936 0.0162247 0.00590734 1382.26 5.26451 0.251896 1377 1371.21 5.01261 9.42987 1365.78 1357.38 6.54074 3.12899 1.58498 2.38909 2.60387 1356.62 5.78347 0.753612 1355.29 2.64844 0.593231 5.39373 2.40798 0.262615 1021.54 15.1378 0.210786 0.382445 0.480551 4.85974 0.16747 0.195892 1.8696 0.285883 0.223954 5.38395 2.35981 2.88913 1.14701 5.43582 4.69736 1006.41 697.402
internal_count=493791 287 121 103 493504 962 492542 1481 491061 3359 336 487702 6939 3023 6913 349 2947 292 187 180 94 480763 5229 628 475534 472279 4601 6564 469408 465826 3366 2655 1463 921 2453 464978 3255 848 464306 2498 524 2227 2350 118 350842 5425 147 377 157 2045 90 103 864 188 135 2844 2305 3198 1139 2871 1989 345417 239586
is_linear=0
shrinkage=0.05


Tree=15
num_leaves=64
num_cat=0
split_feature=69 67 8 43 47 25 24 66 48 10 77 19 4 8 24 23 14 18 2 28 52 19 4 34 24 67 14 48 5 48 74 8 8 67 77 41 18 4 19 9 15 18 25 73 24 2 52 2 4 24 4 15 15 8 14 24 9 6 12 4 25 21 21
split_gain=227381 148187 4904.28 154.348 104.515 86.576 47.8487 34.3114 30.8058 12.1256 9.63386 7.32884 6.0291 3.72085 3.39195 2.2268 1.86062 1.33578 1.17109 0.787565 0.593373 0.565371 0.807381 0.479646 0.410666 0.316396 1.48999 0.179923 0.308069 0.151914 0.0973402 0.0867849 0.0727703 0.0611838 0.121501 0.0587892 0.0561461 0.109613 0.247607 0.0480424 0.0443999 0.0340669 0.0330548 0.0306674 0.0293073 0.0377096 0.0276507 0.0233878 0.11467 0.0217241 0.0181547 0.0380119 0.0180701 0.0161131 0.0147455 0.141125 0.0137932 0.0203211 0.0133989 0.0282715 0.0220862 0.0385887 0.0129099
threshold=1.0000000180025095e-35 1.0023677933549224 -1.0065281881604042 1.0000000180025095e-35 1.0000000180025095e-35 1.2708119609638764 3.0223755415813578 -0.0068114090522605813 1.0000000180025095e-35 0.75520431777803798 15.901281588599387 0.43803571133688385 0.75316465829553347 -0.71920204120916076 2.4109574850233533 0.34489204872124718 -0.028668110467304529 0.45708926287732438 -1.0000000180025095e-35 1.2857328205721719 -0.81145356060204477 4.884411167640514 0.77541227012851299 -0.45950940473070789 1.1255560001822318 1.0116163388029176 -0.027757332010216035 1.0000000180025095e-35 0.68410667918861223 1.0000000180025095e-35 15.483934291075222 -0.10361497579081631 0.90653551789312969 1.8368963502170004 15.552792369848877 -0.1014374896602982 -0.79937174790816556 -0.50995835234906528 0.87673004248444475 1.8745586436330917 -0.0053582251176109395 -0.60034300600047363 -1.0000000180025095e-35 15.414981707940937 1.2893984260524809 0.65698187400813512 0.61688878028920968 1.0000000180025095e-35 -0.8428489418543812 1.3167893379999984 -0.79517532575934557 -0.0054271575390226921 -0.0053396012852918026 -0.55213724924008678 0.049822870898535883 1.2956965193613981 1.7634057287061216 1.1831542681481595 0.75241264916360395 1.5068850180311262 1.3175211209146906 1.0683657114542287 1.3401360160323104
decision_type=2 2 2 2 2 2 2 2 2 2 2 2 2 2 2 2 2 2 2 2 2 2 2 2 2 2 2 2 2 2 2 2 2 2 2 2 2 2 2 2 2 2 2 2 2 2 2 2 2 2 2 2 2 2 2 2 2 2 2 2 2 2 2
left_child=1 2 11 14 -5 6 7 15 19 12 17 -1 13 -7 20 18 -15 40 27 23 -4 30 -23 -9 35 -25 44 -2 42 -17 47 -11 -28 39 -35 53 -22 38 -38 -14 -8 -10 -29 62 -27 49 56 48 -19 -46 51 -50 -21 -18 -3 -56 -33 -58 59 60 61 -48 -39
right_child=5 54 3 4 -6 9 10 8 41 31 -12 -13 33 16 -16 29 24 21 -20 52 36 22 -24 25 -26 26 32 28 -30 -31 -32 46 -34 34 -36 -37 37 43 -40 -41 -42 -43 -44 -45 45 -47 58 -49 50 -51 -52 -53 -54 -55 55 -57 57 -59 -60 -61 -62 -63 -64
leaf_value=-0.070825508469489443 -0.052294211622770051 -0.070817447963098551 0.11965541433538157 -0.072749105806962047 0.12274900393840014 -0.070945516673587491 -0.065426698875903896 -0.071101127878127932 -0.053191991230704554 -0.070002580738769526 -0.064235366644086411 -0.027122196107457204 -0.05288551464924926 -0.052571430314405171 0.13840275450889766 -0.064746459791763897 -0.061571630903423394 -0.059446830060442463 -0.059692559240545319 -0.066393845834437651 0.11461524756956683 -0.064581300137782446 -0.051458089301520238 -0.070812033148833831 -0.070033639239379733 -0.070722031271826219 -0.058028721152183584 -0.05919828676287138 -0.05230789492045286 -0.070833175488969585 -0.051485347597277457 -0.067867232195720981 -0.051553491702633916 -0.061688834500862023 -0.052610487553107224 -0.064118192493826776 0.11154854502912714 0.1109373432282024 0.10185103122214548 -0.051526998394379186 -0.07083169413875999 -0.057571541820629103 -0.063293136382127857 0.11290554984624475 -0.062923165550819227 -0.072422239541225425 -0.064786540239848353 -0.052789100178074179 -0.052545276264363221 -0.047482374629381617 -0.051458249408785461 -0.057501977104827989 -0.064226444030011279 -0.059686020817708046 -0.070966192122242172 -0.0640899239255322 -0.064712067426295164 -0.067776235825783557 -0.064227017574327888 -0.067528709907914305 -0.064384095231176011 -0.068862470150520078 0.11237342574183543
leaf_weight=369.1426854133606 65.035722948610783 14813.239972997482 19.526667788602936 19.141317158937454 10.634814172983171 70.224674556520768 7.9886302947998047 27661.759809879582 243.03205898478228 6.9286154061555854 398.75792835652828 9.8487649112939817 382.61439781077206 100.3981659100391 11.247046330739975 13.743308112025259 11.583781331777571 8.1948966085910779 517.94714088737874 12.80571438372135 10.375904798434929 23.714575916528702 23.172826454043388 25263.777166064203 9.9677201807498914 95.103867031152376 8.4186635240931338 11.623847536508039 21.245320029556751 40.342428579926491 191.6537222713232 5.9934002459048719 8.9535782403636404 5.6612585261464146 10.56088702380657 7.7351434081804191 17.005814969546922 48204.249824896644 10.739097803831099 78.415609945892356 7.2457655377074826 4.522952824832088 8.5558468064946265 19.808872848749161 1.0394609098123671 0.99081105778532208 23.367557429135051 135.47346345335245 15.1754178032279 0.29172382482647119 13.771090097725393 5.1909554153680793 38.615192919969559 516.33382800221443 57.003822454596957 8.5855675488710386 29.368140473962079 6.6328508069612147 749.98676033318304 8.1750522112160393 242.76735207205002 7.7271722179139024 15.654738709330557
leaf_count=1518 623 61435 77 77 42 297 36 113367 2191 36 1848 40 3340 923 50 63 58 46 2783 71 40 109 244 104280 43 402 63 74 204 166 2010 26 94 41 96 39 66 183931 41 868 59 32 43 76 28 5 134 1190 137 1275 145 31 186 2775 820 40 138 83 3512 45 1185 34 60
internal_value=0.00225803 0.0672932 0.109473 0.110877 -0.00292519 -0.0701474 -0.0705438 -0.0707269 -0.0708691 -0.0605885 -0.0586324 -0.0696898 -0.0571142 -0.0600151 0.110948 -0.0595539 -0.0588269 -0.0534555 -0.0587109 -0.0709511 0.110941 -0.0529234 -0.0580955 -0.0709571 -0.0599779 -0.0708001 -0.0681811 -0.0539347 -0.0565102 -0.0692865 -0.0522671 -0.0644247 -0.0546914 -0.0527606 -0.0557787 -0.0597908 0.110938 0.110937 0.107795 -0.0526544 -0.0679974 -0.053272 -0.0609344 0.110939 -0.0705865 -0.0650366 -0.0643887 -0.0531097 -0.0541355 -0.0595394 -0.0528605 -0.0538086 -0.0647662 -0.0597274 -0.0708141 -0.0700661 -0.0656463 -0.0652766 -0.0643375 -0.0646313 -0.0645448 -0.0657994 0.110938
internal_weight=120719 63596.2 48717.4 48338.4 29.7761 57122.6 54848.1 54017.8 53339.3 2274.44 830.339 378.991 1193.5 716.243 48308.6 678.494 646.019 431.581 624.408 53091.8 48297.4 416.347 46.8874 53040.3 545.62 25378.6 114.798 106.461 41.425 54.0857 369.46 1080.95 17.3722 477.252 16.2221 535.653 48277.8 48267.5 27.7449 461.03 15.2344 247.555 20.1797 48239.7 97.4259 2.322 1074.02 177.806 42.3324 1.33118 34.1375 20.3664 51.4209 527.918 14878.8 65.5894 41.9944 36.001 1032.02 282.037 273.862 31.0947 48219.9
internal_count=493791 248313 186018 184460 119 245478 231805 225950 221994 13673 5855 1558 8480 4135 184341 3956 3838 4007 3727 219771 184291 3912 353 219514 2915 106147 1867 944 321 229 3559 5193 157 4345 137 2872 184214 184174 107 4208 95 2223 117 184067 1710 1308 5157 1549 359 1303 313 168 257 2833 62295 860 247 221 4910 1398 1353 168 183991
is_linear=0
shrinkage=0.05


Tree=16
num_leaves=64
num_cat=0
split_feature=65 24 29 6 6 15 8 24 66 18 26 36 48 66 9 24 1 23 21 9 34 24 70 19 6 9 36 24 6 19 4 6 35 10 24 46 29 40 9 24 6 74 22 4 6 36 18 15 1 40 15 24 73 29 29 41 4 28 36 74 36 1 15
split_gain=11478 7022.99 3699.51 1404.82 707.09 414.293 179.27 418.463 173.073 127.033 105.783 1061.27 104.236 213.077 76.6085 125.356 57.12 49.1913 53.0826 40.5484 15.9301 23.159 15.9763 14.7653 14.594 13.8581 13.1951 9.1217 7.3446 5.53508 75.7927 5.01157 4.56947 3.69239 3.63132 244.539 2.52337 13.8209 1.99821 1.90157 1.78202 1.46165 1.2721 1.97964 4.06711 1.01482 0.400275 0.286789 0.271383 0.263034 0.133788 0.11087 0.100246 0.191541 0.0982686 0.139439 0.0556793 0.0163848 0.0150689 0.0784933 0.0268364 0.00691576 0.00669161
threshold=1.1290321670935717 3.1935988043465717 1.9002878018333087 0.89705285614953789 1.1854307174664207 -0.0053049554508730066 0.56248351651899797 0.64638834734244155 0.011674690717315939 0.86251061642256743 1.3212562570782855 -0.49112785386502084 1.0000000180025095e-35 -0.010622155414557256 2.005295443094258 0.080760237019107312 0.4516677834394478 0.52059047045807205 0.51547064211592697 2.05948611019581 1.3060040630790526 0.22190399553250231 14.997982403176755 0.97638372549352115 1.4099621875559591 1.7843321578654383 -0.45815537469558576 0.76813487095019639 1.1751007468081645 4.4799552109856142 0.52516726547657677 1.2686407517368032 0.800760253625736 -1.0000000180025095e-35 2.4109574850233533 1.0000000180025095e-35 1.9724392723929378 1.0172611344578806 1.7553752579611948 1.1303365992679468 1.3698950375777432 15.443843332641093 1.4326723135456723 0.984923180344076 1.346102947153643 -0.45614728008026578 0.55718996862727443 -0.0054050616671754417 0.52077773256354132 0.6717354141859847 -0.0053931469418670944 1.0640642000382516 6.5301482329940557 2.0273487809440955 0.48430863973951771 0.87711664965071856 -1.177976677479087 1.3950123865422752 -0.50534116938989859 16.594310602317535 -0.50576793435686718 0.89117268896548396 -0.0053049554508730066
decision_type=2 2 2 2 2 2 2 2 2 2 2 2 2 2 2 2 2 2 2 2 2 2 2 2 2 2 2 2 2 2 2 2 2 2 2 2 2 2 2 2 2 2 2 2 2 2 2 2 2 2 2 2 2 2 2 2 2 2 2 2 2 2 2
left_child=1 2 4 32 10 6 -6 -8 56 14 12 -12 34 17 20 -16 -10 18 -14 27 26 -22 45 -24 36 -13 31 -17 -28 30 -18 38 -4 -34 -1 -36 40 -38 -5 -29 47 48 -41 -44 -45 49 -27 -2 -31 -23 -39 -48 53 -40 55 -49 -3 -54 60 -60 -43 -11 -56
right_child=24 8 3 9 5 -7 7 -9 16 61 11 25 13 -15 15 19 29 -19 -20 -21 21 22 23 -25 -26 46 28 39 -30 41 -32 -33 33 -35 35 -37 37 50 52 42 -42 58 43 44 -46 -47 51 54 -50 -51 -52 -53 57 -55 62 -57 -58 -59 59 -61 -62 -63 -64
leaf_value=-0.047096815459785051 0.16623926285095181 -0.059388494890574697 -0.047060848730245484 0.20763738539395701 0.19666439764431204 -0.04677395920800799 1.1211667082814252 0.29484555489165626 0.33951996297315196 -0.050285296528060679 -0.047108308068266096 0.26696771944287317 0.42232761124397789 -0.04670330077309779 0.54673702371659449 0.28845421131747967 -0.046966536109593539 0.48542607694407769 0.070713134517290763 0.36918131695252865 0.35341202172776764 0.15909279189404282 0.39587750293209534 0.19034137454001362 0.24466647491105104 0.18450940698078822 0.19604397407963076 0.19556456271558006 0.25869274843378604 0.19972049909733303 0.17554953063767276 0.21223831748646496 -0.04681465704609912 0.17551511201495046 1.7259310808538295 -0.046642104332377067 0.2508828262110952 0.18235359642308357 0.18671689992526036 0.17719372397660901 0.19359997048891092 0.17551511201494907 0.1757204783912889 -0.046647351149363532 0.17572047839128851 0.19898374692548337 0.1755203411354728 0.18745727217855293 0.18579017839710341 0.17752509690650586 0.17553648187652468 0.1690214088847366 0.17552288179694109 0.17535813107475268 0.17552967577572168 0.17551511201494907 -0.046701089126116556 0.17766990979523636 0.17551511201494907 0.17004297090623388 0.17792566426082984 -0.046628556599791288 0.17412964838157075
leaf_weight=6513.4617138064232 8.3085629004053754 0.97209954261779774 82.651084756587906 5.1992704123258298 14.255145055241885 13.125462001655249 1.9911299347877482 6.6466122418642044 5.2679988220334044 2.1938822111115037 492.22231153817847 4.6316163055598727 1.6971014775335795 14.061246170079357 3.7713291049420077 2.4229676345712745 4.128549726214259 2.2411478497087955 2.9206834807991982 4.3962796007326714 3.256609595384238 3.6198939727619317 1.8890912928619212 1.6257805740460751 7.96005655825138 12.153465332463382 10.708754378487411 10.071224937681107 8.307451531292374 6.1660132799297562 52.372993096709251 10.894636958850525 0.33687837602339527 0.41903656721114729 0.19736472517251691 13.747550568999941 7.3275829013445763 8.9675638377682727 6.2095775995404372 2.706993356347084 13.827928841114042 283.05920115113258 0.83744555711746094 0.40404969360679421 0.41872277855873086 4.4045367836952973 29.96054282784462 4.1902187561183819 8.0747228860855085 4.1595321148633966 36.45333656668663 8.4030833318829519 125.70739734172821 9.2253292302484606 667.91141338273883 5.8665119409561157 7.8302910290658456 9.5619253367185575 42.95124813914299 7.733149765059351 12.036997463088481 3.1486747660674821 8.6453534990123426
leaf_count=435036 62 8 7017 28 77 2420 54 54 43 41 32529 56 31 3080 51 19 414 41 85 78 32 67 61 73 59 62 70 70 57 50 250 60 88 2 9 2898 48 44 32 13 71 1351 4 82 2 27 143 67 40 20 174 42 600 69 3189 29 1437 46 205 77 76 717 54
