tree
version=v4
num_class=15
num_tree_per_iteration=15
label_index=0
max_feature_idx=77
objective=multiclass num_class:15
feature_names=Destination_Port Flow_Duration Total_Fwd_Packets Total_Backward_Packets Total_Length_of_Fwd_Packets Total_Length_of_Bwd_Packets Fwd_Packet_Length_Max Fwd_Packet_Length_Min Fwd_Packet_Length_Mean Fwd_Packet_Length_Std Bwd_Packet_Length_Max Bwd_Packet_Length_Min Bwd_Packet_Length_Mean Bwd_Packet_Length_Std Flow_Bytes/s Flow_Packets/s Flow_IAT_Mean Flow_IAT_Std Flow_IAT_Max Flow_IAT_Min Fwd_IAT_Total Fwd_IAT_Mean Fwd_IAT_Std Fwd_IAT_Max Fwd_IAT_Min Bwd_IAT_Total Bwd_IAT_Mean Bwd_IAT_Std Bwd_IAT_Max Bwd_IAT_Min Fwd_PSH_Flags Bwd_PSH_Flags Fwd_URG_Flags Bwd_URG_Flags Fwd_Header_Length Bwd_Header_Length Fwd_Packets/s Bwd_Packets/s Min_Packet_Length Max_Packet_Length Packet_Length_Mean Packet_Length_Std Packet_Length_Variance FIN_Flag_Count SYN_Flag_Count RST_Flag_Count PSH_Flag_Count ACK_Flag_Count URG_Flag_Count CWE_Flag_Count ECE_Flag_Count Down/Up_Ratio Average_Packet_Size Avg_Fwd_Segment_Size Avg_Bwd_Segment_Size Fwd_Header_Length.1 Fwd_Avg_Bytes/Bulk Fwd_Avg_Packets/Bulk Fwd_Avg_Bulk_Rate Bwd_Avg_Bytes/Bulk Bwd_Avg_Packets/Bulk Bwd_Avg_Bulk_Rate Subflow_Fwd_Packets Subflow_Fwd_Bytes Subflow_Bwd_Packets Subflow_Bwd_Bytes Init_Win_bytes_forward Init_Win_bytes_backward act_data_pkt_fwd min_seg_size_forward Active_Mean Active_Std Active_Max Active_Min Idle_Mean Idle_Std Idle_Max Idle_Min
feature_infos=[-0.19245173284562836:3.1767450790418685] [-0.95366390559636727:0.87478099687532995] [-0.79374465423039997:7.3781293868901585] [-1.1989778467157901:4.4623102416517781] [-1.7768107989771298:2.5039652573094129] [-1.0429708982717079:1.6677508263419105] [-1.7097610056483219:2.7906855337054766] [-0.53889625744229408:1.4625161793198325] [-1.7968494399209234:2.2435561396958477] [0:3.3161064395282414] [-0.99900654625567087:1.1532810055984164] [0:1.3406086772641541] [-1.0433764981846083:0.98529568312465532] [0:2.5074672989172577] [-0.029489657000162012:340.03850135152265] [-0.54995569992951709:1.1716921360219064] [-0.95125893765661063:0.95151274948126707] [-0.41953643203807878:0.91025550483367756] [-0.93903164156781271:0.8482901168024608] [-0.5980277005554242:4.9449375674328548] [-0.30586811105767092:1.1633156330971346] [-0.35377374643908804:1.3307628863773722] [0:1.6406665732365411] [-0.32363442777286833:1.2179996206958181] [-0.35620718710802218:4.3341553238491057] [-0.12164665997435196:1.5100234890361901] [-0.14265354010608558:1.7346994166133454] [0:1.8150814892565232] [-0.12690262193408447:1.5602537816017898] [-0.3877619350384901:6.0655032708430099] [0:1] none none none [-1.2532491537205561:4.3056240984107008] [-2.4955509213409899:3.1674979864209125] [-0.49205256798166214:1.2545411935196942] [-0.34909390477396113:1.0526961790413438] [-0.54301656625084593:0.73068904821823721] [-1.0321989004081202:1.1421212567888186] [-1.4294879387823329:1.1879559579058268] [-0.63354357165322517:1.0087832733416884] [-0.62658416956002294:1.0177081268587258] [0:1] [0:1] none [0:1] [0:1] [0:1] none none [-1:6] [-1.4960545266642644:1.1456108747679303] [-1.7968494399209234:2.2435561396958477] [-1.0433764981846083:0.98529568312465532] [-1.2532491537205561:4.3056240984107008] none none none none none none [-0.79374465423039997:7.5783218985140222] [-1.7768107989771298:2.5249022129858396] [-1.1989778467157901:4.3601270951606583] [-1.0429708982717079:1.6692053227339319] [-0.6136286049090558:0.6171239539452863] [0:2.0393882212716656] [-0.63092975357145742:3.3110736128178324] [0:1.6666666666666667] [0:15.422841538976378] [0:14.679030780389489] [0:15.763592332333516] [0:15.415038210996334] [0:18.430631084706523] [0:17.953872021552112] [0:18.430631084706523] [0:18.430631084706523]
tree_sizes=7061 6855 6852 6804 6877 6768 6890 4751 5872 7192 6829 6996 6874 7301 6941 6986 7052 6983 6922 6931 7082 7048 7361 7663 7223 6977 7139 7006 7191 7026 7014 7014 6983 6988 6974 7038 7093 7355 7660 7565 6965 7145 7042 7506 7010 6926 7042 7036 6964 6980 7032 7095 7364 7674 7466 6985 7120 6986 7228 7020 7053 7038 7063 7011 7008 7030 7057 7373 7679 7519 6993 7151 6999 7269 7029 6918 7074 7072 7004 6976 6998 7038 7359 7716 7476 7019 7146 7048 7323 7046 6919 7084 7077 6991 7015 7018 7048 7342 7664 7207 7027 7162 6996 7316 7062 6999 7016 7077 6999 6992 7050 7047 7390 7672 7203 7037 7158 7042 7267 7079 7057 7077 7083 7030 7012 7008 7038 7339 7679 7322 7030 7201 6960 7280 7038 6876 7005 7097 7019 7019 6998 7033 7393 7689 7221 7078 7195 7040 7292 7078 6953 7067 7092 7024 7018 7016 7067 7384 7682 7173 7055 7198 7049 7295 7056 6929 7048 7079 6985 6993 7006 7030 7385 7718 7191 7028 7220 7035 7311 7005 7015 7066 7088 7010 7038 7029 7057 7413 7707 7229 7044 7207 7022 7290 7069 6882 6978 7074 7032 7047 7027 7077 7427 7706 7221 7060 7201 7059 7227 7026 7066 7022 7083 7061 7044 7051 7100 7315 7721 7252 7042 7253 7043 7278 7081 6823 7040 7015 7072 7032 7050 7078 7350 7743 7254 7024 7217 7038 7292 7078 7014 7053 7070 7100 7058 7046 7077 7395 7713 7236 7029 7209 7078 7306 7068 6979 7050 7031 7055 7101 7071 7075 7321 7735 7351 7034 7186 7054 7339 7110 6952 7088 7059 7040 7063 7049 7094 7357 7722 7291 7053 7135 7112 7311 7093 6966 7093 6940 7058 6953 7065 7065 7379 7728 7371 7049 7171 7069 7411 7126 7034 7065 7036 7073 7063 7068 7046 7374 7720 7265 7006 7204 7072 7276 7125 6863 7106 7056 7057 7043 7060 7080 7380 7718 7334 7041 7260 7083 7358 7127

Tree=0
num_leaves=64
num_cat=0
split_feature=13 52 35 39 0 69 9 0 43 0 19 23 0 67 19 43 55 1 74 24 40 71 26 13 4 46 8 0 69 2 22 5 24 18 55 24 67 35 5 0 67 0 67 67 14 1 20 48 21 2 24 13 35 67 24 4 36 0 76 10 17 18 18
split_gain=822751 396560 277271 181785 112635 31451.6 16484.2 14330.3 11393.5 17070 8389.94 5046.83 4996.13 7066.12 3980.88 3633.47 3455.21 4474.83 6018.63 3510.65 2068.37 1547.95 5759.94 1414.54 2634.41 1445.84 984.293 15366.4 8978.94 4497.18 965.415 2272.19 876.627 803.805 803.038 2411.59 4702.33 697.215 9846.41 659.332 649.152 612.755 593.681 543.881 491.762 489.386 552.562 705.182 406.584 1053.14 406.526 404.521 520.763 391.376 369.697 901.59 221.68 834.937 194.428 2036.76 192.286 348.667 407.253
threshold=2.0612726111507782 -0.74668333238477969 -0.39102339041201145 -0.61917679403906545 1.0000000180025095e-35 0.83333333333333337 0.57735496333329006 0.79883821848813275 1.0000000180025095e-35 0.5580662442045653 0.84424657014751425 1.1664543003812318 -0.12749763963931673 1.0134843992350315 2.8570288284935001 1.0000000180025095e-35 0.67061839018165881 -0.35709952204662748 15.440176138678686 1.3988414695309406 -0.75203538871885167 14.678555773725389 1.6262273787682824 2.0235343070554346 0.083724191900034897 1.0000000180025095e-35 -0.42124134059862833 -1.0000000180025095e-35 0.83333333333333337 3.7615870809386895 1.6405735380418711 -0.16562759049903161 1.4697240196987653 -0.49636863000124182 0.37294796690736404 1.764218508582865 1.8887064344875495 2.1336207478758733 0.70776242818168023 -1.0000000180025095e-35 1.0186131152959095 -1.0000000180025095e-35 1.0112418200476514 1.8894694351163273 -0.02940323700954204 -0.53832826231298214 0.030370829935317627 1.0000000180025095e-35 -0.028144433989234659 0.78158539731316246 0.93212505369192711 1.9888190836418957 0.97518377259861044 0.99224281541482506 3.9084876357892093 -0.67655864796733345 1.0380213236433387 1.0000000180025095e-35 18.420180503790579 -0.40185757379448001 -0.032979293639028941 -0.37067564196433095 -0.35668037841006378
decision_type=2 2 2 2 2 2 2 2 2 2 2 2 2 2 2 2 2 2 2 2 2 2 2 2 2 2 2 2 2 2 2 2 2 2 2 2 2 2 2 2 2 2 2 2 2 2 2 2 2 2 2 2 2 2 2 2 2 2 2 2 2 2 2
left_child=1 2 3 4 5 -1 14 40 11 -10 39 12 13 50 15 32 17 19 -19 33 -3 23 -23 26 -25 -26 27 28 -22 -30 37 -32 42 45 54 36 -36 58 41 -7 53 -39 -5 -38 -37 46 47 -12 -41 60 -4 -29 -53 -2 56 -56 -14 -58 -28 -60 -50 -62 -63
right_child=7 20 8 6 -6 10 -8 -9 9 -11 16 -13 34 -15 -16 -17 -18 18 -20 -21 21 22 -24 24 25 -27 30 51 29 -31 31 -33 -34 -35 35 44 43 38 -40 48 -42 -43 -44 -45 -46 -47 -48 -49 49 -51 -52 52 -54 -55 55 -57 57 -59 59 -61 61 62 -64
leaf_value=-0.1940132624753681 -0.19386929267332431 -0.45809288602032222 -0.19465668829060911 -0.46055791503330751 -0.19386929267332431 -0.19793273126797889 -0.19735118842562796 -0.19465691953748643 -0.46164222919578879 -0.19386929267332431 -0.44639289969668772 -0.45866477074327655 -0.19505385173223291 -0.45839914518533803 -0.19386929267332431 -0.19837663632453781 -0.45959194928020103 -0.21030888455876967 -0.46205623992052713 -0.45758400019183088 -0.19386929267332431 -0.19441919414399728 -0.46015420483366759 -0.46097046280616605 -0.45543433998849747 -0.19934897859575754 -0.1943342063463957 -0.19565241895154104 -0.46205623992052713 -0.19386929267332431 -0.45300698709930254 -0.19386929267332431 -0.23368744204627145 -0.25923878590869126 -0.19838353356042338 -0.193939411490828 -0.4610666201889877 -0.46205623992052713 -0.19456398863517346 -0.46125257027680633 -0.20410543569802669 -0.220510380148212 -0.19386929267332431 -0.19386929267332431 -0.27068442822591715 -0.39187751416299121 -0.28017498487445036 -0.19386929267332431 -0.41239199043030439 -0.45859079480175502 -0.44958242842065727 -0.45905973771664776 -0.19386929267332431 -0.46203776680301123 -0.46205623992052713 -0.19386929267332431 -0.44339975663376524 -0.19386929267332431 -0.44614684474484567 -0.19386929267332431 -0.2102584950050978 -0.4428346498447891 -0.20664009968509586
leaf_weight=1736.4752897918224 13.609909400343893 75.69346871972084 635.00481393933296 34071.382779628038 15759.902211368084 24.609699189662933 617.47972512245178 507.85470145940781 1086.9283808767796 1315.5002839565277 130.87885478138924 191.65735429525375 32417.126257583499 451.17781847715378 142.06508168578148 133.11610016226768 831.88240745663643 970.21874684095383 314.33297601342201 1017.3873369544744 661.66532139480114 909.25381021201611 262.8763322532177 138.14990226924419 60.405625283718109 629.59813760221004 219072.93206676841 31545.719181731343 1050.5731434375048 183.64055834710598 121.55699902772903 278.16417568922043 42.694099351763725 290.6554623991251 487.34661880135536 2852.3014235049486 303.14674910902977 389.84000761806965 5829.8885883390903 6283.676526427269 24.423262074589729 28.15200437605381 20.880956888198853 20.32164554297924 225.21603500843048 450.99138136208057 312.84147909283638 35.05017763376236 45.304218962788582 519.41380259394646 16.033591896295547 33.372243598103523 41.575476661324501 43306.172400549054 44.74490761756897 104.59122155606747 42.880536466836929 153.62418282032013 87.998318314552307 880.91536872088909 67.117361426353455 54.626074716448784 27.406255915760994
leaf_count=9314 73 406 3406 182750 84532 132 3312 2724 5830 7056 702 1028 173877 2420 762 714 4462 5204 1686 5457 3549 4877 1410 741 324 3377 1175050 169203 5635 985 652 1492 229 1559 2614 15299 1626 2091 31270 33704 131 151 112 109 1208 2419 1678 188 243 2786 86 179 223 232283 240 561 230 824 472 4725 360 293 147
internal_value=-0.254037 -0.229549 -0.312043 -0.376838 -0.283951 -0.392216 -0.453404 -0.458714 -0.209423 -0.315018 -0.42247 -0.202737 -0.201438 -0.306325 -0.457999 -0.459094 -0.367941 -0.346296 -0.271912 -0.388994 -0.196761 -0.196685 -0.254016 -0.196428 -0.261671 -0.221768 -0.19622 -0.204218 -0.342481 -0.422152 -0.195038 -0.272674 -0.460111 -0.331814 -0.198284 -0.219767 -0.296482 -0.194901 -0.211371 -0.456282 -0.461808 -0.445788 -0.460395 -0.44428 -0.199556 -0.354502 -0.319295 -0.393051 -0.45719 -0.421432 -0.200935 -0.195928 -0.311952 -0.461954 -0.195734 -0.274225 -0.195375 -0.248321 -0.194433 -0.216782 -0.322177 -0.294775 -0.363924
internal_weight=410382 366530 104248 63900.4 28872.8 13112.9 35027.6 43852.1 40347.6 2402.43 11376.4 37945.2 37753.5 1102.22 34410.1 34268.1 4354.24 3522.36 1284.55 2237.8 262282 262206 1172.13 261034 828.154 690.004 260206 33516.5 1895.88 1234.21 226689 399.721 34135 1220.42 36651.3 3888.33 810.815 226290 6247.88 7022.15 43344.2 417.992 34092.3 323.468 3077.52 929.762 478.771 165.929 6997.54 713.868 651.038 31620.7 74.9477 43319.8 32763 149.336 32613.6 196.505 220042 968.914 194.454 149.15 82.0323
internal_count=2201182 1965971 559159 342745 154866 70334 187879 235211 216414 12886 61020 203528 202500 5912 184567 183805 23355 18893 6890 12003 1406812 1406406 6287 1400119 4442 3701 1395677 179774 10169 6620 1215903 2144 183091 6546 196588 20856 4349 1213759 33512 37665 232487 2242 182862 1735 16507 4987 2568 890 37533 3829 3492 169605 402 232356 175732 801 174931 1054 1180247 5197 1043 800 440
is_linear=0
shrinkage=1


Tree=1
num_leaves=64
num_cat=0
split_feature=29 0 0 36 22 19 22 34 66 66 67 0 14 67 0 0 18 27 28 19 8 37 0 19 19 28 25 19 24 24 14 67 67 66 36 16 1 66 66 67 0 14 66 0 66 36 52 19 1 37 36 29 39 39 66 66 36 66 0 66 0 0 0
split_gain=6271.47 186042 372855 214076 8243.41 6414.37 5035.25 1899.57 6296.57 202020 251871 51518.3 52100.2 15383.4 17284.3 13413.6 1648.5 891.775 886.079 1110.69 801.338 26225.6 599.55 575.869 476.262 1116.42 715.892 775.814 355.36 224.534 216.167 566.604 17660.6 135.804 531.266 134.457 96.0034 31.9342 1664.72 1547.39 2357.12 1964.7 73.1973 166.871 38.9797 172.314 163.155 30.2003 224.095 28.2755 23.2516 18.6471 1196.33 16930.9 17.5463 1677.63 14.8812 8.21517 20.692 6.15666 61.4712 2.12758 815.487
threshold=1.8252879120322116 2.1825547308407036 2.1847328198770923 -0.11740303250248911 0.93381810078135197 1.7210677372496086 0.57885680203687884 -1.1565525274226058 -0.0070450410570579774 -0.0061105047537554601 1.0200525681163317 3.086112817068948 0.47081802082271756 1.020768091005938 1.7127917282696401 1.7696485265671986 0.29477721553270048 0.94209574137562557 1.0769984597540738 1.7621298032930051 2.1861786064547606 0.18231592715062148 3.0639973904222173 1.7401089952530988 1.7047971396771937 1.0769984597540738 1.0917851708170949 1.6520892504115459 3.0142545057466363 3.0142545057466363 3.0256590519171573 1.0066729081752734 1.0003988909826564 1.0000000180025095e-35 0.82376172264407888 -0.64701787069531247 -0.73111556195433758 0.16508966597023975 0.18423142197434947 1.0200525681163317 3.086112817068948 0.94886768355632667 0.19346460505651533 1.6085617900745823 -0.002449124903716929 0.71959794488988893 -0.72608224437525648 0.82859723855087308 -0.6387811555027253 0.078156329430524071 0.95426024983490698 1.4814270219972798 0.20510652101139165 0.075226098149077228 0.16890328116872791 0.20986970726712584 1.1621335158707133 0.20986970726712584 3.0554597473399885 0.0036812563870687559 1.849437845538054 2.1825547308407036 2.1847328198770923
decision_type=2 2 2 2 2 2 2 2 2 2 2 2 2 2 2 2 2 2 2 2 2 2 2 2 2 2 2 2 2 2 2 2 2 2 2 2 2 2 2 2 2 2 2 2 2 2 2 2 2 2 2 2 2 2 2 2 2 2 2 2 2 2 2
left_child=7 -2 3 4 5 6 -3 8 -1 10 -10 12 -12 15 -15 -14 17 24 19 23 51 49 -17 -7 25 26 27 29 -29 -8 37 32 -32 34 -33 36 -24 44 39 -39 41 -41 43 -40 45 47 -47 -11 -49 -22 -36 61 53 -53 56 -56 59 58 -44 60 -35 -9 -63
right_child=1 2 -4 -5 -6 18 16 20 9 30 11 -13 13 14 -16 22 -18 -19 -20 -21 21 -23 35 -25 -26 -27 -28 28 -30 -31 31 33 -34 54 50 -37 -38 38 42 40 -42 -43 57 -45 -46 46 -48 48 -50 -51 -52 52 -54 -55 55 -57 -58 -59 -60 -61 -62 62 -64
leaf_value=-7.3955901916277202 -7.3955901916277202 7.9213310754233568 -7.3955901916277202 65.193297552223925 -4.4124852158530503 7.7722370981320132 15.356150743011881 -7.3955901916277202 -7.3955901916277202 -7.3955901916277202 -7.3955901916277194 -7.3955901916277194 31.401918774912751 56.997777968239234 12.191887453538168 57.842524109807442 29.280900457896806 27.647321132989475 14.763122909126679 3.6772909896376618 -7.3955901916277202 34.837944495703205 62.718676379136994 15.700874090506414 14.939452191095391 14.625757775607838 28.898853680297087 28.214052852524979 21.389658396450695 20.430150110181433 -7.3955901916277202 -0.41588944702676489 28.214052852524979 -7.3955901916277202 -5.9438124367507266 60.923362979054318 65.193297552223356 -7.3955901916277211 -7.3955901916277202 -1.7023440940708827 -7.3955901916277194 14.939452191095267 -7.3955901916277202 -3.362874205858287 -7.3828896128854016 -7.3955901916277194 -3.6538949470993298 -3.0402569269967419 -7.3955901916277202 -5.9438124367507221 -7.3955901916277202 -7.3955901916277202 -7.3955901916277202 28.898853680297087 3.3583191037574647 -7.3955901916277202 -6.5612351600892067 -7.3955901916277202 -5.9438124367507266 -7.3955901916277202 -5.6672833405836611 -5.5365034275244165 -7.3955901916277202
leaf_weight=102.93242070445558 79.783560915151611 0.075080361741129309 2.0616102999192663 0.29549977235728808 0.050283178046811372 0.046150314097758383 0.046150314097758383 1069.4825572268455 0.56757998233660945 1.0394152831868293 0.0392622075160034 0.047527935414109379 0.039951018174178898 0.042706260806880891 0.04339507146505639 0.054416041995864362 0.065437012526672333 0.039951018174178898 0.065437012526672333 0.081279657664708793 1.2811878242064256 0.037884586199652293 0.060615337919443846 0.045461503439582884 0.044772692781407386 0.061304148577619344 0.034440532908774912 0.036506964883301407 0.039951018174178898 0.041328639490529895 0.75287004938581858 0.035818154225125798 0.036506964883301407 0.4642583836102866 0.034440532908774912 0.035129343566950411 0.11089851596625522 0.10883208399172684 0.082657278981059679 0.035129343566950411 0.05097198870498687 0.035818154225125909 0.085412521613761672 0.037195775541476905 19.684142178681217 0.051660799363162369 0.066814633843023219 0.034440532908774912 0.20733200811082486 0.034440532908774801 0.13845094229327515 0.47941221809014933 30.78088188188849 0.034440532908774912 0.037195775541476794 1.4513240567757746 0.059926527261268236 7.6692178681259975 0.034440532908774912 2.1366906616603956 0.057860095286741853 0.591688355372752 192.15819812187692
leaf_count=149435 115828 109 2993 429 73 67 67 1552651 824 1509 57 69 58 62 63 79 95 58 95 118 1860 55 88 66 65 89 50 53 58 60 1093 52 53 674 50 51 161 158 120 51 74 52 124 54 28577 75 97 50 301 50 201 696 44687 50 54 2107 87 11134 50 3102 84 859 278971
internal_value=-7.34922 -6.92643 5.02997 28.9924 15.1632 16.5242 19.8252 -7.37368 -7.19762 -6.62311 15.0724 41.9817 47.4858 53.0521 34.4156 58.3829 22.006 20.6237 9.80756 7.93194 -7.3925 -6.17654 62.5119 11.7067 19.7021 20.5232 22.3457 20.969 24.6482 17.7533 -7.27941 -6.98255 -5.74872 -7.20311 -5.95819 63.7415 64.3187 -7.33228 -7.24816 -3.06193 0.806544 6.69934 -7.3703 -6.14406 -7.36476 -7.10981 -5.28545 -7.27851 -6.77517 -7.35759 -7.10639 -7.39377 -7.35565 -4.96299 -7.26486 -7.12687 -7.34042 -7.38917 -6.97841 -7.35798 -7.20406 -7.39472 -7.38988
internal_weight=1516.2 82.9142 3.13064 1.06903 0.773534 0.723251 0.484923 1433.28 138.403 35.4703 1.04148 0.473902 0.426374 0.387112 0.0861013 0.30101 0.409842 0.344405 0.238328 0.172891 1294.88 1.35351 0.261059 0.0916118 0.304454 0.259682 0.198377 0.163937 0.076458 0.087479 34.4288 5.20534 0.789377 4.41597 0.20871 0.206643 0.171514 29.2235 8.13968 0.230752 0.121919 0.0709475 7.90892 0.119853 21.0838 1.39966 0.118475 1.28119 0.241773 1.31563 0.172891 1293.53 31.2947 0.513853 4.20726 1.48852 2.71874 7.78907 0.119853 2.65881 0.522118 1262.23 192.75
internal_count=2201182 120373 4545 1552 1123 1050 704 2080809 200930 51495 1512 688 619 562 125 437 595 500 346 251 1879879 1965 379 133 442 377 288 238 111 127 49983 7557 1146 6411 303 300 249 42426 11817 335 177 103 11482 174 30609 2032 172 1860 351 1910 251 1877914 45433 746 6108 2161 3947 11308 174 3860 758 1832481 279830
is_linear=0
shrinkage=1


Tree=2
num_leaves=64
num_cat=0
split_feature=12 4 3 68 0 52 4 34 35 75 5 37 73 13 4 24 28 1 14 12 5 4 17 7 0 68 14 14 74 7 0 1 34 5 68 25 8 0 26 11 18 47 0 35 36 0 4 67 67 43 0 1 23 21 8 24 23 13 1 22 34 24 1
split_gain=963186 252890 119104 586479 75903.5 3788.09 29700 1212.93 461.832 450.327 6465.9 231.527 136.694 3483.78 1627.93 82.6549 78.8688 24.4842 19.2383 412.832 18.7247 3593.25 17.7968 194.678 427.5 16.5451 78.7137 9.44631 5.6549 48.298 92.2514 5.03951 19.0116 4.35604 2.91407 2.89244 5.81711 2.84731 2.81794 2.685 58.9369 9.01532 34.4606 1.96282 1.18198 14.829 219.806 2.66974 20.7006 0.942187 91.8481 55.8994 35.7241 0.821265 0.308668 1.80405 0.503768 0.284742 0.684977 0.283808 3.54906 4.91511 0.184521
threshold=0.81500579870948175 0.18157317783661861 -0.82074244803277496 0.50000000000000011 0.24942805438583401 0.94528544958004812 0.010925170164665265 0.84297536986732446 0.95964324078206553 17.459653290007676 0.99227227727120437 0.5105410042766253 13.816787741626388 2.0235343070554346 0.5734894609676805 1.4388664810966436 1.1915722312369021 -0.078141913026341353 68.295929248433808 0.65605719443961763 0.99227227727120437 0.083724191900034897 0.59599313238794682 -1.0000000180025095e-35 0.79883821848813275 1.0000000180025095e-35 -0.029205154652905099 8.8887089684603815 15.503712514538583 -1.0000000180025095e-35 0.19433720608530605 0.56459922446431043 0.42068506232257319 0.99238476987650581 -1.0000000180025095e-35 0.86368826046264757 -1.0000000180025095e-35 0.79883821848813275 0.4770263306036488 1.3402745706801171 -0.52294248043659464 1.0000000180025095e-35 0.5580662442045653 0.19696528679045183 0.86082712175930409 1.0000000180025095e-35 -0.67655864796733345 1.0003988909826564 0.92683254019413264 1.0000000180025095e-35 0.25460619844332349 -0.31638736248587135 0.45428101109946023 0.16241100286903279 -1.0798871740659124 0.85505494094867174 1.0393876778398983 1.9888190836418957 0.7697049631766032 1.1877159616026514 0.42068506232257319 0.40695385293334668 0.069306190265643872
decision_type=2 2 2 2 2 2 2 2 2 2 2 2 2 2 2 2 2 2 2 2 2 2 2 2 2 2 2 2 2 2 2 2 2 2 2 2 2 2 2 2 2 2 2 2 2 2 2 2 2 2 2 2 2 2 2 2 2 2 2 2 2 2 2
left_child=2 11 3 22 7 9 8 15 53 12 43 27 18 35 -15 17 -12 -5 20 -20 39 33 28 25 -25 31 -27 38 49 34 -31 32 -24 -22 -30 36 -14 -36 -2 44 -41 -42 -43 -11 -4 46 47 48 -46 59 51 -51 -53 -7 -33 56 -56 -37 -59 -1 61 -61 -19
right_child=1 -3 5 4 -6 6 -8 -9 -10 10 16 -13 13 14 -16 -17 -18 62 19 -21 21 -23 23 24 -26 26 -28 -29 29 30 -32 54 -34 -35 37 57 -38 -39 -40 40 41 42 -44 -45 45 -47 -48 -49 -50 50 -52 52 -54 -55 55 -57 -58 58 -60 60 -62 -63 -64
leaf_value=-2.5305450172627171 -1.9578247470997712 -2.5305678463503791 -2.5305344749745151 -2.034043636461583 -2.5305678463503791 -1.9435441499301274 -2.5305678463503791 -2.5305678463503791 -2.4576091869381478 -2.505751975802001 -1.9225790179151185 -2.2444554564984918 -2.4576091869381478 -1.9225790179151185 -2.5305678463503791 -2.1405372771654951 -2.1397178852134258 -1.9249219421094739 -2.5300400782701402 -2.0278078536058368 -1.9225790179151185 -2.5305678463503791 -2.4191032278039146 -2.0317052178906785 -2.5305678463503791 -2.2873723149762748 -2.5305678463503791 -1.9901333321857031 -2.5305678463503791 -2.2382655249872729 -2.5305678463503791 -2.5305678463503791 -2.5305678463503791 -1.9673781947471902 -2.4805961618214538 -2.5305678463503791 -2.5305678463503791 -2.5305678463503791 -1.9225790179151185 -2.3398262531157874 -2.5305678463503791 -2.3834737749547514 -2.5305678463503791 -2.5305678463503791 -2.5305678463503791 -2.5305678463503791 -2.1634802518234295 -2.5305678463503791 -2.4089700806633272 -2.5305678463503791 -2.5305678463503791 -2.2321006033003421 -2.4244110667823175 -1.9225790179151185 -2.5164285712704895 -2.4954915677868064 -2.5305678463503791 -2.5305678463503791 -2.5062482932129688 -2.5305678463503791 -2.5305678463503791 -2.4576091869381478 -1.9225790179151185
leaf_weight=21901.882857754827 5.6744464114308348 2097.9004051536322 128852.94419851154 4.9343012273311606 568.59597809612751 4.7698245197534552 1785.0657073408365 8.2238353788852674 4.1119176894426337 8.059358671307562 45.477809645235538 5.5922080576419821 4.1119176894426355 35.526968836784363 15.95424063503742 4.3586327508091918 4.6053478121757498 85.363411232829094 94.738583564758301 4.2763943970203391 17.763484418392185 4568.4227913245559 4.9343012273311642 6.4145915955305126 12.993659898638724 4.1119176894426372 17.434531003236771 5.1810162886977187 141.61444522440434 4.2763943970203382 7.3192134872078896 396.88229538500309 17.023339234292507 7.8126436099410048 6.0033998265862447 1291.9645380228758 8.1415970250964129 5.4277313500642776 9283.3943291008472 4.1941560432314864 321.63420166820288 5.0987779349088695 18.174676187336445 704.61821526288986 23.520169183611873 1301.0929952934384 4.3586327508091918 77.715244330465794 4.1119176894426337 5.8389231190085402 1352.9031581804156 4.5231094583868963 5.1810162886977196 225.90875785797834 7.0724984258413306 4.2763943970203391 57.649086005985737 9.7863641008734685 4.1119176894426337 5.2632546424865705 114.39355012029409 4.1119176894426346 5406.7605698481202
leaf_count=266322 69 25510 1566823 60 6914 58 21706 100 50 98 553 68 50 432 194 53 56 1038 1152 52 216 55551 60 78 158 50 212 63 1722 52 89 4826 207 95 73 15710 99 66 112884 51 3911 62 221 8568 286 15821 53 945 50 71 16451 55 63 2747 86 52 701 119 50 64 1391 50 65745
internal_value=-2.47963 -2.03469 -2.50952 -2.41944 -1.98056 -2.52901 -2.46103 -1.9238 -1.93237 -2.53001 -2.4917 -1.92283 -2.53022 -2.5145 -2.111 -1.92289 -1.94255 -1.92272 -2.53038 -2.50835 -2.5304 -2.52726 -2.53018 -2.52111 -2.36569 -2.52703 -2.48416 -1.92264 -2.53039 -2.52115 -2.42277 -2.52893 -2.50552 -1.93626 -2.52861 -2.53026 -2.50609 -2.50432 -1.9226 -2.53051 -2.52613 -2.52839 -2.49834 -2.53029 -2.53052 -2.52908 -2.51143 -2.52582 -2.51247 -2.53045 -2.52918 -2.40833 -2.33477 -1.92301 -2.53003 -2.52694 -2.52902 -2.53049 -2.52337 -2.53053 -2.52814 -2.49857 -1.92262
internal_weight=181022 11397.7 169624 30165.8 6078.24 139458 2019.86 5509.64 234.791 137438 762.761 9299.84 136675 1369.6 51.4812 5501.42 50.0832 5497.06 135306 99.015 135207 4594 24087.5 528.793 19.4083 509.384 21.5464 9294.25 23558.7 164.641 11.5956 487.838 21.9576 25.5761 153.046 1318.12 12.2535 11.4311 9289.07 130613 349.102 344.908 23.2735 712.678 130264 1410.8 109.706 105.347 27.6321 23394.1 1368.45 15.543 9.70413 230.679 465.88 68.998 64.7216 1305.86 13.8983 22025.7 123.769 9.37517 5492.12
internal_count=2201182 138594 2062588 366809 73910 1695779 24561 66996 2855 1671218 9275 113084 1661943 16654 626 66896 609 66843 1645289 1204 1644085 55862 292899 6430 236 6194 262 113016 286469 2002 141 5932 267 311 1861 16028 149 139 112953 1588223 4245 4194 283 8666 1583978 17155 1334 1281 336 284467 16640 189 118 2805 5665 839 787 15879 169 267827 1505 114 66783
is_linear=0
shrinkage=1


Tree=3
num_leaves=64
num_cat=0
split_feature=19 74 34 5 3 5 76 69 16 9 27 28 12 5 36 4 66 26 41 72 13 15 13 20 19 39 66 66 27 3 5 20 4 24 3 4 68 66 24 72 13 27 12 26 24 24 48 21 19 36 3 21 26 10 18 76 73 13 15 24 12 10 72
split_gain=93427.9 286323 62193.1 51581.6 956260 14745.8 4517.21 10218.8 3536.78 68364.7 3123.95 48786.4 311487 20175.8 1073.72 2463 10960.5 776.662 708.384 484.752 9164.78 6803.97 1341.25 3607.55 240.423 615.828 5450.88 8646.25 239.66 196.829 13020.5 3116.74 65.266 62.5361 42.7167 46.2076 40.0888 22.9662 61.8687 12.194 646.99 7.62268 207.429 21.4671 66.6326 6.03289 165.296 2899.02 3771.15 734.069 19.4111 19.3 6.82014 666.166 5.46044 12.9781 4.97748 257.323 677.418 4.4995 2.54437 2.98702 1.6074
threshold=4.9449375020069946 16.116418049116351 -1.0000000180025095e-35 0.99267502637785199 1.2564707973660305 0.9999190048858021 15.619338575082841 0.83333333333333337 0.95145366924211661 1.975371728792523 1.5185512275553787 1.3161081907835781 0.56008519887014974 0.73632916934003856 -0.46161294376268319 -0.96245509628451076 0.064714613317322908 1.3045621993975223 0.65010521268143961 7.4801462186196179 2.1275201051862052 -0.51702762591086682 1.9606595620651313 0.90525315952457208 4.5354638244755412 -0.95167651452989788 0.064714613317322908 0.013461563092625346 1.5052209584007061 0.65698187400813512 0.73233810269159993 1.0162605920154246 1.777623713736179 1.271351758225076 1.3659724481421465 0.87997058522568605 0.50000000000000011 0.01767147842314502 3.9892503030977626 15.677313105485856 1.9138168546956313 1.4995208992519089 0.62124096920133309 1.331929001779786 1.4388664810966436 1.3066581055889519 1.0000000180025095e-35 0.39312749519552476 2.3389608428808222 0.37812959910190208 -0.82074244803277496 0.43747985085702201 1.4101324142120286 0.40982511579951458 0.80686683497353517 18.300666039535123 13.545817782382779 1.9606595620651313 -0.46637673877191016 1.2086588427338205 0.52058182172363598 0.70054729589286968 15.763590272877927
decision_type=2 2 2 2 2 2 2 2 2 2 2 2 2 2 2 2 2 2 2 2 2 2 2 2 2 2 2 2 2 2 2 2 2 2 2 2 2 2 2 2 2 2 2 2 2 2 2 2 2 2 2 2 2 2 2 2 2 2 2 2 2 2 2
left_child=3 6 -3 8 5 28 14 -8 10 -10 24 12 60 18 -2 16 -16 -15 -14 20 22 -22 -13 -24 41 26 27 -26 -5 30 32 -32 -21 -34 35 -6 59 38 -4 56 -41 45 43 -43 -45 52 62 48 49 50 -48 -49 -1 -54 -40 -56 -31 -58 -59 -20 -12 -62 -47
right_child=1 2 37 4 34 -7 7 -9 9 -11 11 19 13 17 15 -17 -18 -19 36 29 21 -23 23 -25 25 -27 -28 -29 -30 39 31 -33 33 -35 -36 -37 -38 -39 54 40 -42 42 -44 44 -46 46 47 51 -50 -51 -52 -53 53 -55 55 -57 57 58 -60 -61 61 -63 -64
leaf_value=-5.7404305291654723 -5.7404305291654723 -5.7404305291654723 7.0740536864108527 6.4265132606238584 -5.7404305291654723 -5.7404305291654723 -5.7404305291654723 6.7332429359965378 -5.7404305291654723 8.1646480877364986 -5.7404305291654723 -5.7404305291654723 5.0163284008907691 -5.7404305291654723 5.2200432041572142 -5.7404305291654723 -5.7404305291654723 -1.2908053717568668 8.1646480877364969 -5.7404305291654723 -5.1842273844893967 7.9366959792625842 -5.7404305291654723 2.602616640975663 -5.7404305291654723 -5.7404305291654723 -5.7404305291654723 5.5896335290509089 8.1646480877364986 -5.7404305291654723 8.1646480877364986 -1.012703799418829 -4.4529232498226978 -5.7404305291654723 -5.7404305291654723 -4.6280242398133211 7.4454198834139262 8.1646480877364969 8.1646480877364827 -5.7404305291654723 -2.741295925519978 -5.7404305291654723 -4.4001819877773309 -4.6280242398133149 -5.7404305291654723 -5.7399988713786989 -5.1528919960569404 -5.2525330338355865 3.2721204262339061 -2.2641608749399929 -5.7404305291654723 -5.7404305291654723 -5.7404305291654723 -2.6813132334470389 7.6084449430603467 8.1646480877364418 -5.7404305291654723 -2.1251100887709797 -5.7404305291654723 7.9289687891448821 -5.4623289568274336 -5.7404305291654723 -5.6591142799438234
leaf_weight=6236.1639723088592 20.093378014862544 0.9421018324792384 0.18338623456656833 0.20136527717113217 0.1941736601293077 0.19417366012930948 0.49981738440692325 0.24451497942209244 17.378542581573132 0.93131440691649814 32.243615007027984 15.138353873044251 0.19057785160839458 0.21574851125478733 0.30564372427761577 2.3480629641562727 0.89895213022828102 0.1797904260456562 4.4588025659322739 25.976120755076415 0.1797904260456562 0.21934431977570135 0.46385929919779378 0.1797904260456562 0.39913474582135933 12.872994504868982 4.3832905869930983 0.29126049019396305 13.117509484291075 605.40111000649631 0.19057785160839458 0.1797904260456562 0.1941736601293077 0.18338623456656933 234.2849041800946 0.1797904260456562 0.20855689421296109 4.5522935874760151 0.61847906559705712 9.2556111328303778 0.18338623456657011 17.205943772569306 0.2984521072357883 0.17979042604565521 0.53577546961605549 579.16249522939324 0.25530240498483181 0.20496108569205063 0.1941736601293087 0.25889821350574493 0.31283534131944424 18.32424022257328 17.511587496846918 0.17979042604565521 0.1797904260456562 0.25170659646391869 31.592773664742708 0.1797904260456562 0.46385929919779201 0.21215270273387421 0.17979042604565521 0.2085568942129612 0.61488325707614322
leaf_count=1734287 5588 262 51 56 54 54 139 68 4833 259 8967 4210 53 60 85 653 250 50 1240 7224 50 61 129 50 111 3580 1219 81 3648 168363 53 50 54 51 65155 50 58 1266 172 2574 51 4785 83 50 149 161066 71 57 54 72 87 5096 4870 50 50 70 8786 50 129 59 50 58 171
internal_value=-5.69339 -2.95909 6.1729 -5.70419 -4.99478 7.93894 -5.47803 -1.6428 -5.72724 -5.03316 -5.72891 -5.63042 -3.88861 7.15836 -5.59876 -4.79747 -2.95941 -3.71787 8.00686 -5.72659 -5.45615 2.02637 -5.64539 -3.40997 -5.73932 -5.55655 -5.09002 -0.96056 8.13837 -5.73308 -5.60011 3.70962 -5.73094 -5.07828 -5.73958 -5.20562 8.12366 8.1128 7.92141 -5.73858 -5.68216 -5.7398 -5.7075 -5.72927 -5.46093 -5.73988 -5.73509 -5.5921 -2.99858 -4.47084 -5.47641 -5.73503 -5.74034 -5.70934 8.06941 7.9329 -5.73941 -5.72027 -4.73056 8.15394 -5.7389 -5.61168 -5.73991
internal_weight=7915.03 31.1181 6.72776 7883.91 248.172 13.513 24.3904 0.744332 7635.74 18.3099 7617.43 728.079 38.0976 5.46563 23.646 3.55266 1.2046 0.395539 5.07009 689.982 16.1811 0.399135 15.782 0.64365 6889.35 17.9467 5.07369 0.690395 13.3189 673.801 26.724 0.370368 26.3537 0.37756 234.659 0.373964 4.87951 5.78566 1.23336 647.077 9.439 6871.4 18.22 17.9215 0.715566 6853.18 599.328 19.5504 1.02121 0.827036 0.568138 18.5292 6253.86 17.6914 1.04998 0.431497 637.638 32.2364 0.64365 4.67096 32.632 0.388347 579.777
internal_count=2201182 8654 1871 2192528 69017 3758 6783 207 2123511 5092 2118419 202480 10595 1520 6576 988 335 110 1410 191885 4500 111 4389 179 1915939 4991 1411 192 3704 187385 7432 103 7329 105 65259 104 1357 1609 343 179953 2625 1910948 5067 4984 199 1905881 166674 5437 284 230 158 5153 1739207 4920 292 120 177328 8965 179 1299 9075 108 161237
is_linear=0
shrinkage=1


Tree=4
num_leaves=64
num_cat=0
split_feature=77 67 40 18 66 66 13 37 66 66 34 43 21 13 5 5 24 67 67 34 1 66 66 48 37 40 3 8 24 19 48 66 66 26 39 34 24 21 34 66 67 67 21 37 22 66 19 66 13 68 40 8 1 66 17 19 1 19 24 13 29 26 24
split_gain=907071 185453 92097.6 154617 107084 70966.9 51825.5 32397.5 36381.9 37751.7 43681.3 22754.3 57365.2 17077.9 129115 31230.5 15515.1 9735.09 8259.34 6117.76 1740.7 2276.13 6262.61 1456.59 1254.77 992.578 470.801 447.337 419.508 362.645 270.25 326.431 248.282 243.233 215.218 940.983 100.365 98.6191 220.254 218.805 70.623 2839.56 2709.29 63.5566 61.6084 58.2914 159.075 410.029 54.0018 167.894 478.136 261.357 43.5173 76.2492 87.8878 41.3106 164.616 62.7747 47.0655 39.0535 37.3966 297.353 31.5093
threshold=18.219176192934025 1.0043451647759014 -1.0770510733567424 -0.86017054239077584 0.018420050259242808 -1.0000000180025095e-35 2.0410732694165721 -0.34193224548418755 0.0098941897487265697 -1.0000000180025095e-35 -1.0000000180025095e-35 1.0000000180025095e-35 0.13327269030762798 2.081729473978934 0.99227227727120437 0.99222538513973746 1.4388664810966436 1.0043451647759014 1.0051243578061562 -1.0000000180025095e-35 -0.41374792377261715 1.0000000180025095e-35 0.0078616162519884909 1.0000000180025095e-35 -0.34236217710787048 -0.82460678904998119 -0.82074244803277496 -0.049226335739703822 0.97596754885894832 3.2804303456655859 1.0000000180025095e-35 -0.010622155414557256 -0.014316783803913288 0.82726841150769836 -0.38097709672917673 0.46645133460415045 1.6923556113987319 0.39312749519552476 1.0465714009855607 0.0078616162519884909 1.0051243578061562 1.0043451647759014 -0.22159843285511341 -0.24470215126878278 0.75914495187577347 0.018420050259242808 1.9737076021640507 0.01767147842314502 2.0410732694165721 1.0000000180025095e-35 0.9281027177899478 0.27199052276268143 -0.37404979788463005 1.0000000180025095e-35 -0.33349926952870673 0.85926329785430433 -0.55946973677332235 1.1037283607536781 1.120684767799198 1.9567253956385662 2.0599477803348658 0.9362477449404486 1.6104129183438392
decision_type=2 2 2 2 2 2 2 2 2 2 2 2 2 2 2 2 2 2 2 2 2 2 2 2 2 2 2 2 2 2 2 2 2 2 2 2 2 2 2 2 2 2 2 2 2 2 2 2 2 2 2 2 2 2 2 2 2 2 2 2 2 2 2
left_child=2 34 3 4 5 -1 25 8 9 30 -11 13 28 48 15 -15 20 26 -19 -7 21 -12 -23 -21 45 -3 29 -17 60 44 -5 32 -32 -30 35 -2 62 52 39 -39 41 -9 -43 -20 -14 46 47 -10 -4 50 -50 -52 53 -22 -55 -24 57 -57 -58 -27 -13 -62 -34
right_child=1 6 11 7 -6 19 -8 40 24 10 16 12 17 14 -16 27 -18 18 43 23 37 22 55 -25 -26 59 -28 -29 33 -31 31 -33 36 -35 -36 -37 -38 38 -40 -41 -42 42 -44 -45 -46 -47 -48 -49 49 -51 51 -53 -54 54 -56 56 58 -59 -60 -61 61 -63 -64
leaf_value=-2.6327733781605849 -2.6277900818350601 -2.0105408778780376 -2.6327091104125735 -2.632710559561561 -2.6327335972891666 -2.6327733781605849 -1.9650116705402905 -2.6327733781605849 -2.6327733781605844 -2.6327733781605849 -1.9929152577463256 -2.6325598603479889 -2.2585333002634966 -2.6325393221817484 -2.6327733781605849 -2.5125762707889319 -2.6266471239622335 -1.9651900256972403 -2.4190896317220907 -1.9667648488406242 -1.9696650622310243 -2.6327733781605849 -1.9688940060497107 -2.6327733781605849 -1.9909441640401075 -2.6327733781605849 -2.6327733781605849 -1.9650116705402905 -2.5685655216586332 -2.6192832426531041 -2.6327733781605844 -2.6327733781605849 -2.2187611194360022 -2.0306931499783523 -2.6327733781605849 -1.9650116705402905 -2.418585660622 -2.4078431187516434 -1.9670984258766038 -1.9838218594873411 -2.6327619377139806 -2.6327733781605849 -1.9712234073553629 -2.6327733781605849 -2.0135761583672211 -2.6312442084619159 -2.6327733781605849 -2.1055930826708789 -2.6223396014790175 -2.6255354016094556 -2.5149330768158267 -1.9742861387016837 -1.9689305392078991 -2.2348143806899046 -1.9650116705402905 -2.0882907550240368 -1.9908939072697591 -2.3359903969960096 -2.1704768113465347 -2.4804768483524473 -2.26709434779709 -2.6308709231531195 -2.0216016457623494
leaf_weight=494.03850403428078 30.100557535886765 6.5891767740249625 123701.23627407849 795.94260349869728 1256.8854696452618 35.192194133996964 7179.7317423969507 2010.522563174367 10.482781231403353 468.50544403493404 207.8585764169693 1639.2074765563011 6.8138078004121798 213.62410609424114 8539.2735911011696 3.7438504397869101 114.26231542229652 560.67904186248779 3.7438504397869101 2509.7275808155537 21.489701524376869 63.720334485173225 38.636536538600922 8.2364709675312024 7.7123319059610358 306.62135101854801 72.705575540661812 1004.9992120563984 3.8936044573783857 7.4128238707780829 4.9418825805187234 19.692653313279152 3.7438504397869092 4.5674975365400314 1312.5190871804953 6.5142997652292243 3.9684814661741266 7.1133158355951291 23.96064281463623 5.3162676244974136 8740.9173757880926 29.801049500703812 32.197113782167435 49.343948796391487 4.1182354837656021 2059.9413889795542 40.508461758494377 5.6906526684761038 23.96064281463623 214.14824515581131 3.8187274485826475 5.3911446332931519 740.00947792828083 7.4128238707780838 5.0916365981101972 4.8670055717229825 57.954804807901382 5.3911446332931519 3.8936044573783866 4.2679895013570777 6.2896687388420096 52.563660174608231 4.417743518948555
leaf_count=6598 402 88 1652059 10630 16786 470 95887 26851 140 6257 2776 21892 91 2853 114044 50 1526 7488 50 33518 287 851 516 110 103 4095 971 13422 52 99 66 263 50 61 17529 87 53 95 320 71 116737 398 430 659 55 27511 541 76 320 2860 51 72 9883 99 68 65 774 72 52 57 84 702 59
internal_value=-2.5823 -2.08977 -2.61023 -2.50962 -2.24441 -2.08424 -1.99266 -2.58304 -2.47394 -2.34882 -2.21855 -2.6249 -2.47268 -2.62765 -2.56397 -2.08335 -2.07006 -2.0932 -2.02163 -1.97809 -2.01674 -2.10468 -2.23785 -1.96894 -2.62755 -2.61781 -2.57566 -1.96704 -2.6294 -2.34932 -2.62659 -2.49405 -2.33404 -2.27821 -2.62944 -2.50987 -2.21233 -1.97525 -2.0557 -2.22648 -2.63079 -2.6225 -2.28921 -2.6177 -2.16625 -2.62987 -2.57985 -2.44728 -2.63266 -2.60932 -2.50465 -2.19846 -1.97147 -2.02679 -2.12495 -2.01061 -2.03297 -2.21847 -2.0022 -2.63068 -2.63115 -2.59199 -2.11204
internal_weight=164818 8846.34 155972 19850 4304.08 3047.19 7497.21 15546 4732.53 2608.19 1775.48 136122 2411.34 133710 9761.64 1222.37 1306.98 704.817 613.767 2553.16 1192.72 382.322 174.463 2517.96 2124.34 317.479 91.0504 1008.74 1706.52 18.3449 832.707 36.7646 17.072 8.4611 1349.13 36.6149 12.1301 810.394 36.3902 12.4296 10813.4 2072.52 61.9982 53.0878 10.932 2116.62 56.6819 16.1734 123949 247.319 33.1705 9.20987 774.004 33.9942 12.5045 110.743 72.1066 10.2582 61.8484 310.889 1698.06 58.8533 8.16159
internal_count=2201182 118145 2083037 265102 57482 40696 100127 207620 63204 34833 23712 1817935 32204 1785731 130369 16325 17455 9413 8197 34098 15929 5106 2330 33628 28371 4240 1216 13472 22791 245 11121 491 228 113 18018 489 162 10823 486 166 144416 27679 828 709 146 28268 757 216 1655362 3303 443 123 10337 454 167 1479 963 137 826 4152 22678 786 109
is_linear=0
shrinkage=1


Tree=5
num_leaves=64
num_cat=0
split_feature=73 16 21 28 5 6 7 17 66 13 24 72 28 4 26 4 11 24 67 36 7 6 51 13 40 19 72 7 19 29 36 67 67 8 68 34 4 37 77 75 72 72 8 24 24 72 24 75 19 51 66 13 24 19 24 14 36 69 24 22 48 18 67
split_gain=383464 488394 61748.9 30808.2 192371 136992 16076.4 135604 46328.3 5916.33 5054.02 2083.21 16493.5 21435.6 3944.52 32454.6 1167.41 896.986 16794 79476.6 7413.3 997.288 372.788 8357.02 62098.5 339.557 338.274 294.192 17173.8 239.264 162.98 123.137 1462.6 46833.3 7175.4 338.284 117.564 609.376 95.1937 164.018 66.7922 47.56 790.239 32.4183 62.3636 28.1912 37.8561 33.6082 30.7684 27.0883 507.201 24635.1 15.4952 13.4699 10.681 150.031 291.5 36.3511 22.2592 56.3274 9.97707 77.6964 172.662
threshold=15.414862505040066 0.80630497132826806 1.1317437064497817 1.5602167587347291 -0.65636888489095169 1.1093654675086542 1.0809746722867757 -0.13320922659366088 -0.0070450410570579774 0.93987646359675658 3.1930642747783837 15.677313105485856 1.5283127899467785 1.8035742805850294 1.6262273787682824 1.777623713736179 0.31079081811853598 3.8126838306197057 1.0043451647759014 -0.48795443490011042 0.6930617609869697 -0.62778548959337599 1.5000000000000002 1.857908282855423 0.68847881931117472 -0.13636248241099705 15.763590272877927 0.90754040608489817 4.1688491745177405 5.0009494775300487 -0.48600699745422532 1.8887064344875495 1.8894694351163273 0.84256623288551913 0.91702188357323478 1.3268366104423932 1.2451054052771353 0.88951148787127365 15.896969999813416 16.317946473627028 15.762439402220558 15.615907239455353 1.2152427857903085 3.1930642747783837 3.1934977728054812 15.762439402220558 3.1934977728054812 16.317946473627028 4.5349746769967494 1.0000000180025095e-35 -0.0079895322722558226 2.0612726111507782 3.1930642747783837 4.5349746769967494 2.7157787633580353 -0.020228574772526511 -0.23884241884255616 1.5000000000000002 3.1934977728054812 1.2473572761714988 1.0000000180025095e-35 0.19806630981036691 1.0112418200476514
decision_type=2 2 2 2 2 2 2 2 2 2 2 2 2 2 2 2 2 2 2 2 2 2 2 2 2 2 2 2 2 2 2 2 2 2 2 2 2 2 2 2 2 2 2 2 2 2 2 2 2 2 2 2 2 2 2 2 2 2 2 2 2 2 2
left_child=3 29 26 6 5 -5 11 8 16 -9 -4 17 14 -14 -13 -16 36 22 20 -20 -19 -21 27 -24 25 -25 30 31 -29 -2 38 41 33 34 35 -33 -8 -38 45 -40 -32 49 -43 -42 53 -3 47 48 -47 54 51 -51 -49 -45 -1 57 -57 60 59 -59 -56 62 -62
right_child=1 2 10 4 -6 -7 7 9 -10 -11 -12 12 13 -15 15 -17 -18 18 19 21 -22 -23 23 24 -26 -27 -28 28 -30 -31 40 32 -34 -35 -36 -37 37 -39 39 -41 43 42 -44 44 -46 46 -48 52 -50 50 -52 -53 -54 -55 55 56 -58 58 -60 -61 61 -63 -64
leaf_value=-6.3671185772025671 -6.3586837264799518 17.148681744532954 5.7877143046528809 -6.3672516390794192 -6.36725163907942 19.61922727510705 19.619227275106997 -6.36725163907942 -6.3672516390794192 4.3330632079384026 -6.3672516390794192 -6.3618792018426644 -6.3672516390794192 18.668502436783015 -6.36725163907942 19.263248111898875 13.555715528463384 -6.3653628122939718 -6.36725163907942 14.490316963096436 7.3902960213722517 19.619227275107068 -6.3662482613847526 15.98112022712073 -6.36725163907942 19.619227275107011 15.064895919012429 -6.36725163907942 14.941661070553305 -3.9156970245335456 16.98964309926669 -6.3595519416233648 -6.36725163907942 17.299005943483081 3.8013705447325821 -3.9090712012509981 14.94166107055328 19.619227275106965 18.364707603387643 16.229686547169532 17.523543491704892 -6.36725163907942 -2.1758840722751787 18.516770593899079 17.256820101089993 16.609493841543074 17.256820101090021 17.400869319017829 15.906873144508889 -6.36725163907942 -6.36725163907942 17.379013575608045 16.695748397260942 17.977975975263579 -6.36725163907942 -6.3672516390794192 -3.1759296671617809 -5.7698613192130637 -6.36725163907942 -6.36725163907942 -3.7686037476607708 -6.3397235893821886 -6.3672516390794192
leaf_weight=3757.6502709882334 5.8357271016575378 0.54643801413476478 0.11929280590265978 0.8177329436875892 13.220336602535095 1.335309795103967 0.35595434019342065 10.205307137221093 0.25013007689267464 0.13083727099001485 0.30208016978576779 9.3067629379220254 0.18663551891222674 0.1577743561938405 1.0236092377454049 0.14045765856280912 0.11544465087354183 52.942916890606284 1.8625070340931418 0.14622989110648632 0.098127953242509558 0.26937085203826328 49.831683549564332 0.096203875727951527 2.0472184754908085 0.1924077514559025 0.18663551891222585 5.5163302342407396 0.096203875727951416 0.10197610827162851 0.32324502244591724 12.987523223273449 146.05095189763233 0.2154966816306122 0.17701513133943159 0.14238173607736904 0.096203875727951527 0.252054154407233 0.27899123961105932 0.13276134850457311 0.59646402951329947 1.9625590648502105 0.11929280590265978 0.31747278990224004 0.19048367394134402 0.68112344015389659 0.27514308458194148 0.1577743561938405 0.20202813902869821 5.1295906538143745 92.475013504736125 0.11159649584442366 0.15392620116472244 0.1827873638831079 48.448271816596389 0.20587629405781627 0.10967241832986374 0.83697371883317762 0.86198672652244557 0.74654207564890385 0.096203875727950527 5.4489875212311745 0.19048367394134402
leaf_count=1952962 3033 284 62 425 6871 694 185 5304 130 68 157 4837 97 82 532 73 60 27516 968 76 51 140 25899 50 1064 100 97 2867 50 53 168 6750 75907 112 92 74 50 131 145 69 310 1020 62 165 99 354 143 82 105 2666 48062 58 80 95 25180 107 57 435 448 388 50 2832 99
internal_value=-6.32051 3.18459 15.3258 -6.34433 -4.1101 9.74947 -6.35249 -4.47788 12.4683 -6.2318 -2.92612 -6.35758 -5.66454 5.10164 -6.01866 -3.27465 18.2162 -6.35937 -6.15937 -1.9557 -6.33991 17.8146 -6.36205 -6.22923 -3.30624 18.4065 17.146 -6.36375 -6.002 -6.31673 17.2422 -6.36424 -6.32119 -5.82371 -6.19817 -6.33298 18.9802 18.3271 16.9835 17.6763 17.6322 -6.366 -6.12708 17.7936 18.0267 16.842 16.7281 16.6063 16.4488 -6.36613 -6.34013 -5.86164 17.0527 18.3199 -6.36679 -6.3453 -5.25807 -6.35136 -6.16279 -6.0515 -6.35987 -6.29751 -5.49522
internal_weight=4235.24 10.5844 4.64665 4224.66 15.3734 2.15304 4209.29 11.4059 1.06979 10.3361 0.421373 4197.88 10.8152 0.34441 10.4708 1.16407 0.819657 4187.07 55.3192 2.27811 53.041 0.415601 4131.75 52.1675 2.33583 0.288612 4.22527 4079.58 5.61253 5.9377 4.03864 4073.97 159.573 13.5224 13.3069 13.1299 0.704212 0.348258 2.42819 0.411753 1.61045 3914.39 2.08185 1.28721 0.690744 2.01643 1.47 1.19485 0.883152 3912.31 97.7162 5.24119 0.311701 0.50026 3814.6 56.945 0.315549 56.6294 2.4455 1.58352 54.1839 5.73568 0.286688
internal_count=2201182 5501 2415 2195681 7990 1119 2187691 5928 556 5372 219 2181763 5621 179 5442 605 426 2176142 28751 1184 27567 216 2147391 27113 1214 150 2196 2120278 2917 3086 2099 2117361 82935 7028 6916 6824 366 181 1262 214 837 2034426 1082 669 359 1048 764 621 459 2033344 50786 2724 162 260 1982558 29596 164 29432 1271 823 28161 2981 149
is_linear=0
shrinkage=1


Tree=6
num_leaves=64
num_cat=0
split_feature=71 29 4 29 30 19 69 36 16 30 75 40 30 4 4 20 12 5 22 14 8 73 3 6 22 29 28 35 27 52 8 5 36 25 66 17 19 1 40 48 12 12 25 1 67 37 36 67 68 40 24 36 19 37 66 14 0 11 1 24 8 6 10
split_gain=100613 433290 71649.6 41234.9 330690 36902.5 151560 380598 4899.02 30088 1136.55 10930.4 1125.29 61267.1 145508 2100.87 514.367 20365.5 402.748 9740.31 22884 281.954 5633.23 10657.3 170.72 149.323 5724.14 29435.2 1265.32 14388.3 15901.6 621.689 1123.24 188.293 2426.59 39.1158 9.83849 9.46244 8.79008 5.46389 2539.27 21132.7 4.72304 34.6256 4.11901 98.5525 778.869 6.88946 220.246 570.589 1.98125 33.8513 1.06098 8.71795 0.62806 29.5832 0.555062 14.7133 24.1582 0.530424 0.521859 84.7803 1.69241
threshold=14.678555773725389 5.7027193541191066 1.777623713736179 6.0653427392093322 1.0000000180025095e-35 4.5202164072592046 1.5000000000000002 -0.41712148455808867 0.95145366924211661 1.0000000180025095e-35 17.950675850705036 0.072127233615879138 1.0000000180025095e-35 -0.79640160279251693 -0.84501965684494262 1.0259884700469211 0.30165902856853738 0.30305308754181604 1.6405735380418711 -0.029475964857533964 -1.0000000180025095e-35 15.414862505040066 1.0000000180025095e-35 0.89589901995704879 1.2473572761714988 1.8252879120322116 0.49533579337526085 0.36873823446597093 1.6819165124500537 -0.12039754791765872 -1.0000000180025095e-35 -0.65636888489095169 -0.49205169669067045 0.57340046745458217 0.52650199049804691 0.82121627318219692 4.5349746769967494 0.85595675747086408 -0.83351052800670378 1.0000000180025095e-35 0.30165902856853738 0.33565618809303716 0.64984857420142916 0.19191231603862613 1.8887064344875495 -0.33449118115251752 -0.44273501923875075 1.8894694351163273 0.50000000000000011 0.35294483888364009 2.7703675231725886 -0.21253516573813472 1.2314678723216286 -0.32885067498633674 -0.0098968180380866379 -0.029489518459444943 0.5580662442045653 0.31079081811853598 0.48997589814160658 3.1934977728054812 0.63715855746493666 1.0898196972623519 0.86577933043642064
decision_type=2 2 2 2 2 2 2 2 2 2 2 2 2 2 2 2 2 2 2 2 2 2 2 2 2 2 2 2 2 2 2 2 2 2 2 2 2 2 2 2 2 2 2 2 2 2 2 2 2 2 2 2 2 2 2 2 2 2 2 2 2 2 2
left_child=3 35 37 5 -5 8 54 -8 10 38 12 -12 18 14 -14 -16 56 -18 21 20 -20 25 23 -23 36 39 27 -27 33 30 -30 32 -31 34 -28 -2 -9 -3 -10 44 50 -42 43 -35 -1 46 -46 48 52 -50 -41 -52 -47 -54 55 -7 57 -15 -59 -38 -44 -62 -63
right_child=1 2 -4 4 -6 6 7 24 9 -11 11 -13 13 16 15 -17 17 -19 19 -21 -22 22 -24 -25 -26 26 28 -29 29 31 -32 -33 -34 42 -36 -37 59 -39 -40 40 41 -43 60 -45 45 47 -48 -49 49 -51 51 -53 53 -55 -56 -57 -58 58 -60 -61 61 62 -64
leaf_value=-6.3144793181935315 -6.3145658363537871 17.847426820390169 -6.3145658363537871 -6.3145658363537871 18.340528711344312 -5.5559475425784646 -6.3044984233085852 17.213438674878109 -5.8214639453998291 18.002787690142831 10.944000347034919 -6.3145658363537871 -6.3145658363537871 -6.3145658363537871 18.340528711344341 12.018709596549833 14.579582085424288 -6.3145658363537871 -6.3145658363537871 -6.3145658363537871 18.340528711344341 -6.3145658363537871 -6.3145658363537871 13.90261169275848 18.340528711344312 -6.3145658363537871 -6.3145658363537871 15.193069832914681 -6.3145658363537862 -6.3145658363537871 18.340528711344174 -6.3145658363537871 0.077495713049380299 -6.3145658363537871 0.57435764020888147 -5.3283620544458783 17.470348903778486 18.340528711344334 -6.3145658363537871 -6.3143195624664337 17.847426820390378 -6.3145658363537871 -6.3145658363537871 -5.3283620544458712 -6.3145658363537871 -6.3145658363537871 -1.9118703814076925 -6.3140032942677298 -1.876648817768201 -6.3145658363537871 -6.3145658363537871 -5.418016943710219 -6.3145658363537871 -5.8214639453998327 -6.3145658363537871 -6.3145658363537871 -6.3145658363537871 -5.3283620544458703 -6.3145658363537862 17.535211552751157 -4.8921565355250953 -6.3145658363537871 -6.2280567326776533
leaf_weight=3467.4800936880056 11.932625035755333 0.10139892110601056 0.33461643964983512 12.044163848971944 1.5331516871228821 0.13181859743781377 4.9665191557724029 0.35489622387103681 0.10139892110601068 0.14804242481477559 0.10139892110600957 0.96328975050710142 2.1760208469349895 6.6740769871976218 0.77671573567204077 0.15818231692537665 0.1196507269050916 4.6095949534792453 0.30622474174015224 10.413669197587295 0.13587455428205331 0.18251805799081822 5.5627448118757457 0.10139892110601068 0.78482764936052252 0.96126177208498009 1.7501453782897431 0.19062997167930007 0.13181859743781388 0.18454603641293943 0.12979061901569355 4.0762366284616283 0.10951083479449142 0.72804425354115565 0.13790253270417441 0.10139892110601145 0.51713449764065422 2.4011264517903328 0.83147115306928643 406.05197956901975 0.10139892110600968 0.84161104517988861 172.99264334212057 0.10139892110601068 0.8700027430895716 11.157937278505409 0.11356679163873096 88.882238284684718 0.10139892110601145 0.25349730276502669 1.8779080188833175 0.11153881321661074 0.77265977882780135 0.10139892110601145 24.712945051956922 5.1206455158535418 177.69349732459523 0.10139892110601056 0.16021029534749687 0.80713541200384498 0.10545487795025366 25.89322849363089 0.57797385030425985
leaf_count=1709821 5884 50 165 5939 756 65 2449 175 50 73 50 475 1073 3291 383 78 59 2273 151 5135 67 90 2743 50 387 474 863 94 65 91 64 2010 54 359 68 50 255 1184 410 200225 50 415 85303 50 429 5502 56 43828 50 125 926 55 381 50 12186 2525 87621 50 79 398 52 12768 285
internal_value=-6.26805 -2.16224 15.415 -6.28177 -3.53051 -6.29019 -4.72616 1.66604 -6.30349 -2.93779 -6.30432 -4.67089 -6.30472 -6.18649 0.773372 17.2709 -6.30084 -5.78594 -6.31013 -6.00597 1.26292 -6.31092 -5.96394 0.905855 17.7318 -6.3114 -6.27011 -2.7552 -6.28968 -5.47258 5.91742 -6.15439 -3.93407 -6.30839 -5.8114 -6.30626 17.4472 18.3205 -6.26097 -6.31356 -6.30809 -3.7165 -6.31307 -6.194 -6.31419 -6.3043 -5.80621 -6.30913 -6.2742 -5.04659 -6.31408 -6.2643 -6.31041 -6.25736 -6.31123 -6.29553 -6.31402 -6.30015 -5.93232 17.5099 -6.31356 -6.30704 -6.31268
internal_weight=4463.95 14.8712 2.83714 4449.08 13.5773 4435.5 37.3959 7.43051 4398.11 1.08091 4397.02 1.06469 4395.96 192.469 3.11092 0.934898 189.358 4.72925 4203.49 10.8558 0.442099 4192.63 5.84666 0.283917 2.46399 4186.79 208.071 1.15189 206.919 4.6319 0.261609 4.37029 0.294057 202.287 1.88805 12.034 1.67917 2.50253 0.93287 3978.72 408.984 0.94301 200.399 0.829443 3569.73 102.253 0.98357 101.269 12.3869 0.354896 408.041 1.98945 12.032 0.874059 29.9654 5.25246 184.629 6.93569 0.261609 1.32427 199.569 26.5767 26.4712
internal_count=2201182 7333 1399 2193849 6695 2187154 18440 3664 2168714 533 2168181 525 2167656 94907 1534 461 93373 2332 2072749 5353 218 2067396 2883 140 1215 2064513 102600 568 102032 2284 129 2155 145 99748 931 5934 828 1234 460 1961913 201671 465 98817 409 1760242 50421 485 49936 6108 175 201206 981 5933 431 14776 2590 91041 3420 129 653 98408 13105 13053
is_linear=0
shrinkage=1


Tree=7
num_leaves=43
num_cat=0
split_feature=30 0 35 39 66 17 20 20 8 4 12 0 19 66 1 19 34 35 4 22 4 1 1 16 1 20 0 0 0 0 0 1 1 1 1 1 2 1 1 1 2 19
split_gain=25346.3 975452 26490.1 995809 18977.3 343.431 95.694 17.0641 0.249001 41.1866 419.824 5.41201 438.766 3.53798 29.4622 10.7064 16.2788 0.0478293 9.24234 55.5678 2.32831e-10 1.16415e-10 1.16415e-10 1.16415e-10 5.82077e-11 1.45519e-11 2.27374e-13 2.84217e-14 2.84217e-14 2.84217e-14 2.84217e-14 3.55271e-15 3.55271e-15 3.55271e-15 8.88178e-16 4.44089e-16 4.44089e-16 2.22045e-16 1.11022e-16 1.11022e-16 1.11022e-16 1.11022e-16
threshold=1.0000000180025095e-35 -1.0000000180025095e-35 1.6630077148706888 -0.12563230179178891 0.0015305019545310634 -0.046955059108668394 0.91458938040361792 -0.23508360738836245 -0.80279559452830973 -0.28757496083416051 -0.76509937992606769 -0.12749763963931673 3.3047561422265068 -0.0006627605755146652 -0.68857941185413518 0.85183079670463346 -1.0000000180025095e-35 1.3953372859737325 0.11883919641056737 0.91245352234360466 0.26142849251842554 -0.49587574261165412 -0.50998527978172892 -0.80519360291949582 0.59460479969980162 0.92195739085279205 3.1424773139594921 3.1722380138344772 3.1701617249915564 3.0438864182894978 3.07194500786188 -0.12252917790883226 -0.48862947814253488 0.13130631080209984 0.87360778532489347 -0.12252917790883226 7.3246564658451119 0.84242333186421525 0.82331002309953816 0.55670199226617367 7.3781143284277784 1.2063137077702997
decision_type=2 2 2 2 2 2 2 2 2 2 2 2 2 2 2 2 2 2 2 2 2 2 2 2 2 2 2 2 2 2 2 2 2 2 2 2 2 2 2 2 2 2
left_child=2 4 8 6 5 7 -4 -2 9 11 37 12 13 14 -1 34 -17 -10 19 -19 -8 22 23 -9 25 -22 -13 28 -3 -5 -20 32 -15 -28 36 -29 -16 38 -11 -30 -36 -34
right_child=1 27 3 29 -6 -7 20 21 17 10 -12 26 -14 31 15 16 -18 18 30 -21 24 -23 -24 -25 -26 -27 33 35 39 -31 -32 -33 41 -35 40 -37 -38 -39 -40 -41 -42 -43
leaf_value=-5.4486801874716644 11.577045609800955 -6.0002114682366194 10.795006629634095 -6.0002114682366194 -6.0002114682366194 9.4941406460536619 12.016477036751962 12.016477036751965 -6.0002114682366194 -6.0002114682366194 -3.1175413074384464 -6.0002114682366194 -3.2284132366999141 -6.0002114682366194 -6.0002114682366194 -5.3072619103524481 -6.0002114682366194 -6.0002114682366194 -6.0002114682366194 -4.9192101579373118 12.016477036751883 12.016477036751763 12.016477036751937 12.016477036751962 12.016477036751958 12.016477036751898 -6.0002114682366194 -6.0002114682366194 -6.0002114682366194 -6.0002114682366194 -6.0002114682366194 -6.0002114682366212 -6.0002114682366194 -6.0002114682366194 -6.0002114682366194 -6.0002114682366194 -6.0002114682366194 -6.0002114682366194 -6.0002114682366194 -6.0002114682366194 -6.0002114682366194 -6.0002114682366194
leaf_weight=0.27197007369250048 0.22756679635494936 266.95527855819091 0.16373708518221874 282.00798957562074 0.14986106101423491 0.13876024167984535 4.2266369615681469 2.1480085412040344 4104.103342550341 0.6577235455624757 0.13876024167984624 1197.1040314058773 0.14431065134704013 23.389426337555062 3.0360740879550638 0.14431065134704113 0.2053651576861738 0.8297862452454855 179.13392159901559 0.13876024167984724 0.29417171236127648 0.15818667551502663 0.56059137638658274 4.7011969881132245 2.9500427381135523 0.27197007369250059 27.149828887078915 1.1600356204435227 0.47733523137867351 0.17761310935020347 0.14986106101423402 0.14153544651343963 0.91859279992058762 0.69102600356563826 0.26919486885890342 0.46345920721068878 1.0185001739300785 0.54116494255140424 0.20814036251977086 0.18316351901739836 0.78538296790793538 0.14431065134704113
leaf_count=98 82 96193 59 101617 54 50 1523 774 1478847 237 50 431357 52 8428 1094 52 74 299 64548 50 106 57 202 1694 1063 98 9783 418 172 64 54 51 331 249 97 167 367 195 75 66 283 52
internal_value=-5.9534 -5.48637 -5.97561 -5.50985 11.6268 11.9598 11.9912 12.0036 -5.99999 -5.99938 -5.74144 -5.99969 -5.97888 -5.99197 -5.95659 -5.98189 -5.71423 -6.00018 -5.99938 -5.84534 12.0165 12.0165 12.0165 12.0165 12.0165 12.0165 -6.00021 -6.00021 -6.00021 -6.00021 -6.00021 -6.00021 -6.00021 -6.00021 -6.00021 -6.00021 -6.00021 -6.00021 -6.00021 -6.00021 -6.00021 -6.00021
internal_weight=6108.73 277.323 5831.41 290.092 8.08417 7.93431 7.90656 7.79555 5541.32 1256.96 1.54579 1255.41 30.469 30.3247 5.7308 5.45883 0.349676 4284.36 180.252 0.968546 7.74282 7.56798 7.4098 6.84921 3.51618 0.566142 1224.94 269.239 267.616 282.186 179.284 24.5939 24.4523 27.8409 5.10915 1.62349 4.05457 1.40703 0.865864 0.660499 1.05458 1.0629
internal_count=2201182 99929 2101253 104530 2913 2859 2849 2809 1996723 452925 557 452368 10979 10927 2065 1967 126 1543798 64951 349 2790 2727 2670 2468 1267 204 441389 97016 96431 101681 64602 8862 8811 10032 1841 585 1461 507 312 238 380 383
is_linear=0
shrinkage=1


Tree=8
num_leaves=51
num_cat=0
split_feature=12 6 2 0 0 0 0 0 0 2 3 3 9 9 9 9 9 9 9 9 9 9 9 9 4 19 19 19 4 19 4 4 6 6 17 17 19 6 6 24 76 6 6 72 76 76 8 17 72 24
split_gain=17651.9 46233.9 2.66454e-15 8.88178e-16 8.88178e-16 8.88178e-16 8.88178e-16 8.88178e-16 8.88178e-16 8.88178e-16 8.88178e-16 8.88178e-16 8.88178e-16 1.11022e-16 1.11022e-16 1.11022e-16 1.11022e-16 1.11022e-16 1.11022e-16 1.11022e-16 1.11022e-16 1.11022e-16 1.11022e-16 1.11022e-16 5.55112e-17 2.77556e-17 2.77556e-17 2.77556e-17 1.38778e-17 1.38778e-17 6.93889e-18 6.93889e-18 6.93889e-18 6.93889e-18 6.93889e-18 6.93889e-18 6.93889e-18 3.46945e-18 1.73472e-18 1.73472e-18 1.73472e-18 8.67362e-19 8.67362e-19 8.67362e-19 8.67362e-19 8.67362e-19 4.33681e-19 4.33681e-19 4.33681e-19 2.1684e-19
threshold=0.9150568281959498 1.1474894603223895 6.1801427414757883 3.1348541900961977 3.1276426644183668 3.087008828555319 3.086112817068948 3.0802026341302446 3.0777659002227593 6.1238016862905091 3.9841599877363865 3.9159266171660589 1.9124064870758788 3.3160813513165661 3.2213570371320337 3.1260179870991256 3.1037011276325805 3.0144349322026298 2.9711133318447822 2.9683053150302681 2.897943810448703 2.8477193343125182 2.7886824751606447 2.557021743530703 2.1933441032150314 1.1186684591539187 1.1037283607536781 0.96708553251730101 1.4224249032976266 0.55878654434030139 2.1933441032150314 0.87005533571420701 1.0403378186673171 0.87852825388857891 0.25505020833933062 -0.046955059108668394 0.61961284740309308 2.5633984708077624 2.7345789034463794 0.7408817509658906 18.035608554274166 2.4613990331469506 2.6636427427745111 13.421459313169899 18.321362763965137 18.248111313961413 2.141199957294313 0.69545263559965065 10.440463261885597 1.0449828388315294
decision_type=2 2 2 2 2 2 2 2 2 2 2 2 2 2 2 2 2 2 2 2 2 2 2 2 2 2 2 2 2 2 2 2 2 2 2 2 2 2 2 2 2 2 2 2 2 2 2 2 2 2
left_child=2 -2 3 4 5 6 7 8 9 10 11 12 -1 14 15 16 17 18 19 20 21 22 23 -14 -7 26 27 29 31 -5 32 -9 33 34 35 -6 -31 40 42 -29 -26 -32 43 -39 45 -42 -43 -36 -40 -41
right_child=1 -3 -4 25 30 24 -8 28 -10 -11 -12 -13 13 -15 -16 -17 -18 -19 -20 -21 -22 -23 -24 -25 37 -27 -28 39 -30 36 41 -33 -34 -35 47 -37 -38 38 48 49 44 46 -44 -45 -46 -47 -48 -49 -50 -51
leaf_value=-12.559075650167813 -12.559075650167781 386.77352640632137 -12.559075650167811 -12.559075650167813 -12.559075650167811 -12.559075650167813 -12.559075650167802 -12.559075650167811 -12.559075650167809 -12.559075650167767 -12.559075650167737 -12.559075650167735 -12.559075650167813 -12.559075650167779 -12.559075650167792 -12.559075650167804 -12.559075650167792 -12.559075650167804 -12.559075650167797 -12.559075650167799 -12.559075650167802 -12.559075650167804 -12.559075650167806 -12.559075650167811 -12.559075650167808 -12.559075650167811 -12.559075650167776 -12.559075650167809 -12.5590756501678 -12.559075650167793 -12.559075650167795 -12.559075650167774 -12.55907565016777 -12.559075650167783 -12.559075650167797 -12.559075650167765 -12.559075650167811 -12.559075650167802 -12.559075650167783 -12.559075650167772 -12.559075650167802 -12.559075650167772 -12.559075650167795 -12.559075650167772 -12.559075650167772 -12.559075650167795 -12.559075650167772 -12.55907565016777 -12.559075650167774 -12.559075650167769
leaf_weight=6.9530774492409169 0.0026224858015674304 0.001001671268568316 0.050856506612036223 0.096361564753807083 0.035074268750577169 0.28908469426141969 0.0083446315129557247 0.047823887692630573 0.023101536579816506 0.0018258810919186122 0.0010923737850142548 0.001068712258985082 0.96144273073104825 0.0015340556042248146 0.0023977013042896225 0.0057103149483738172 0.0024489679440194969 0.0053080690058778792 0.0031667009002377391 0.0036714801221934259 0.0047875154332360772 0.0059784789100377758 0.0076190113813937579 0.043312423396400845 0.0098353076527928351 0.01891344647265214 0.0012303993535169857 0.01446507957916765 0.0035965519564342676 0.0024016448919610403 0.0025160089344353756 0.0011830763014586401 0.0010923737850134776 0.0015813786562830492 0.002788116483770863 0.0017391221631449854 0.03624551428902123 0.0043063977373094531 0.0015261684288816477 0.0011436404247433521 0.0040895004153753689 0.0011239224863857089 0.0026027678632090101 0.0011239224863857089 0.0011515276000864105 0.0026934703796541726 0.0011475840124148817 0.0011120917233711225 0.0011712455384440545 0.0010608250836412481
leaf_count=1763135 665 254 12896 24435 8894 73305 2116 12127 5858 463 277 271 243799 389 608 1448 621 1346 803 931 1214 1516 1932 10983 2494 4796 312 3668 912 609 638 300 277 401 707 441 9191 1092 387 290 1037 285 660 285 292 683 291 282 297 269
internal_value=-12.513 97.8114 -12.5591 -12.5591 -12.5591 -12.5591 -12.5591 -12.5591 -12.5591 -12.5591 -12.5591 -12.5591 -12.5591 -12.5591 -12.5591 -12.5591 -12.5591 -12.5591 -12.5591 -12.5591 -12.5591 -12.5591 -12.5591 -12.5591 -12.5591 -12.5591 -12.5591 -12.5591 -12.5591 -12.5591 -12.5591 -12.5591 -12.5591 -12.5591 -12.5591 -12.5591 -12.5591 -12.5591 -12.5591 -12.5591 -12.5591 -12.5591 -12.5591 -12.5591 -12.5591 -12.5591 -12.5591 -12.5591 -12.5591 -12.5591
internal_weight=8.68055 0.00362416 8.67693 8.62607 8.45425 8.40608 8.08849 8.08015 8.02754 8.00444 8.00262 8.00152 8.00045 1.04738 1.04584 1.04345 1.03774 1.03529 1.02998 1.02681 1.02314 1.01835 1.01237 1.00476 0.317585 0.171822 0.152909 0.151678 0.0526035 0.135009 0.0481749 0.049007 0.0433874 0.042295 0.0407136 0.0368134 0.0386472 0.0285003 0.0107305 0.0166695 0.0177698 0.00478752 0.00803309 0.00543032 0.0079345 0.00678297 0.00227151 0.00390021 0.00269741 0.00220447
internal_count=2201182 919 2200263 2187367 2143797 2131581 2051049 2048933 2035594 2029736 2029273 2028996 2028725 265590 265201 264593 263145 262524 261178 260375 259444 258230 256714 254782 80532 43570 38774 38462 13339 34235 12216 12427 11002 10725 10324 9335 9800 7227 2721 4227 4506 1214 2037 1377 2012 1720 576 989 684 559
is_linear=0
shrinkage=1


Tree=9
num_leaves=64
num_cat=0
split_feature=68 29 4 52 5 38 73 52 12 24 24 27 12 34 35 34 9 14 14 14 1 1 1 6 6 11 6 6 6 6 6 11 11 11 11 38 38 38 38 77 77 77 77 77 77 77 77 77 77 1 3 1 4 1 1 1 1 1 1 3 6 9 9
split_gain=1176.14 79498.4 272.865 9700.55 34410.5 1528.83 29534 53.2943 916.762 4.95844 35.3828 298.53 659.85 14.9855 967.004 5.78984 25.499 965.36 25.9204 775.19 3.55271e-15 2.22045e-16 2.22045e-16 2.22045e-16 2.22045e-16 4.44089e-16 2.22045e-16 2.22045e-16 2.22045e-16 2.22045e-16 2.22045e-16 2.22045e-16 2.22045e-16 2.22045e-16 2.22045e-16 2.22045e-16 2.22045e-16 2.22045e-16 2.22045e-16 2.22045e-16 2.22045e-16 2.22045e-16 2.22045e-16 2.22045e-16 2.22045e-16 2.22045e-16 2.22045e-16 2.22045e-16 2.22045e-16 1.11022e-16 1.11022e-16 5.55112e-17 5.55112e-17 1.38778e-17 6.93889e-18 6.93889e-18 6.93889e-18 6.93889e-18 6.93889e-18 6.93889e-18 6.93889e-18 6.93889e-18 6.93889e-18
threshold=3.3050454503411149 1.4421689767804642 1.8035742805850294 0.21188265500047038 0.4784425173999825 -1.0000000180025095e-35 13.193978671870424 0.33778278665831224 -0.14344254113727931 1.2820688368283035 1.295281415331156 1.7336762313295881 -0.1138283844346766 2.1681069350769384 1.4873824771139148 -0.45950940473070789 1.6032349210931582 -0.023977864509149183 0.0028922958227015814 0.0038128765200845147 0.8579719925020618 0.80367969862329458 -0.12252917790883226 2.0743454371733008 1.9544337612069616 1.2155531402956397 1.8249355900292159 1.7906855050948824 1.7658352608245214 1.7101532556104841 1.6340244715479697 1.1976117750582473 1.1670507606476515 1.1612941374904773 1.1538891904647208 0.70481344200715645 0.59718698038486939 0.59245677632317595 0.57776513100290827 17.891357310729074 17.20769800210962 17.090024142222266 16.498418003528414 16.296233166600491 16.116204714262832 16.115661039695983 16.114088683777094 16.113040394654686 16.111749707987613 0.87424164207570521 3.4607582495946221 0.83982545070053216 0.41665136370071221 0.87266263246435416 0.47544661705403146 0.87360778532489347 0.87314274257122426 0.83872132777589348 0.68542552746435959 3.5487042730997689 1.0512678258504864 1.9085516846442701 1.9450749088029562
decision_type=2 2 2 2 2 2 2 2 2 2 2 2 2 2 2 2 2 2 2 2 2 2 2 2 2 2 2 2 2 2 2 2 2 2 2 2 2 2 2 2 2 2 2 2 2 2 2 2 2 2 2 2 2 2 2 2 2 2 2 2 2 2 2
left_child=2 53 9 4 -4 7 -7 8 -5 20 11 -11 -13 15 -15 16 18 -18 51 -20 -1 22 -17 24 25 26 27 28 29 30 31 32 33 34 35 36 37 38 39 40 41 42 43 44 45 46 47 48 -24 -9 -22 52 -12 54 -2 56 57 -16 -56 -60 -59 -52 -62
right_child=1 -3 3 5 -6 6 -8 49 -10 10 13 12 -14 14 55 21 17 -19 19 -21 50 -23 23 -25 -26 -27 -28 -29 -30 -31 -32 -33 -34 -35 -36 -37 -38 -39 -40 -41 -42 -43 -44 -45 -46 -47 -48 -49 -50 -51 61 -53 -54 -55 58 -57 -58 60 59 -61 62 -63 -64
leaf_value=-11.389004778386681 -11.389004778386681 436.88335848627366 305.20692994141399 37.189207427249904 -11.389004778386669 -11.389004778386679 248.05067799020546 -11.389004778386681 -11.389004778386678 -11.389004778386679 -11.389004778386681 -11.389004778386656 38.419035584353402 37.79643507982513 -11.389004778386671 -11.389004778386679 38.419035584353402 -11.389004778386679 28.762374697707457 -11.389004778386679 -11.389004778386681 -11.389004778386681 -11.389004778386681 -11.389004778386669 -11.389004778386671 -11.389004778386649 -11.389004778386674 -11.389004778386665 -11.389004778386667 -11.389004778386672 -11.389004778386676 -11.389004778386639 -11.389004778386669 -11.389004778386642 -11.389004778386639 -11.389004778386667 -11.38900477838666 -11.389004778386644 -11.389004778386674 -11.389004778386667 -11.389004778386679 -11.389004778386672 -11.389004778386679 -11.389004778386674 -11.389004778386679 -11.389004778386653 -11.389004778386667 -11.389004778386672 -11.389004778386662 -11.389004778386678 -11.389004778386679 -11.389004778386678 -11.389004778386649 -11.389004778386678 -11.389004778386676 -11.389004778386676 -11.389004778386663 -11.389004778386651 -11.389004778386663 -11.389004778386679 -11.389004778386679 -11.389004778386669 -11.389004778386678
leaf_weight=23.439533158954887 0.0026938866503759531 0.0010038539876404675 0.001105510087653693 0.0010292680126440237 0.0038375177755369805 0.021360488015488954 0.0011563381376618045 0.62682421970021096 0.0172180019399093 0.023495266115787117 0.46606780454021723 0.0019695869377756026 0.0010038539876404675 0.0010165610001421346 0.0044220403506187713 0.15121344877116039 0.0010038539876404675 0.031462562954402529 0.0012452872251742511 0.034677437117352383 0.84787540918114146 0.53999720327556122 1.2915534576932191 0.0045109894381313289 0.0051590470757220111 0.0016137905877259264 0.0086661825262127623 0.0032911162379606331 0.0039772949130566495 0.0061501940508607014 0.010241852076433244 0.0012198732001708059 0.0042695562005975454 0.0013596503376903648 0.0012452872251743621 0.0035198424629926386 0.0024651604253450579 0.0014104783876974772 0.0084882843511878692 0.0036214985630068633 0.056902001982962358 0.0062899711883802603 0.028120618666435004 0.0075098443885509561 0.077385706135828625 0.0018298098002561538 0.0038756388130424249 0.0056419135507895781 0.0028082497628930661 0.01787876659000176 0.036240399655071087 0.018171027877542656 0.0014485994252027004 0.016925740652368404 0.008615354476205539 0.00940318925131578 0.0028209567753947331 0.0015756695502204812 0.0025922305503627277 0.036202278617565753 0.023800234415830346 0.0036087915505049742 0.016824084552354179
leaf_count=1844614 212 79 87 81 302 1681 91 49329 1355 1849 36678 155 79 80 348 11900 79 2476 98 2729 66725 42496 101641 355 406 127 682 259 313 484 806 96 336 107 98 277 194 111 668 285 4478 495 2213 591 6090 144 305 444 221 1407 2852 1430 114 1332 678 740 222 124 204 2849 1873 284 1324
internal_value=-11.3407 -4.7746 -11.3567 -10.3751 59.4178 -10.8784 1.93436 -11.3136 -8.64887 -11.3817 -11.3197 -9.49998 5.42653 -11.3365 -10.5538 -11.3533 -11.2085 -9.84895 -11.2931 -9.99713 -11.389 -11.389 -11.389 -11.389 -11.389 -11.389 -11.389 -11.389 -11.389 -11.389 -11.389 -11.389 -11.389 -11.389 -11.389 -11.389 -11.389 -11.389 -11.389 -11.389 -11.389 -11.389 -11.389 -11.389 -11.389 -11.389 -11.389 -11.389 -11.389 -11.389 -11.389 -11.389 -11.389 -11.389 -11.389 -11.389 -11.389 -11.389 -11.389 -11.389 -11.389 -11.389 -11.389
internal_weight=27.9704 0.0680333 27.9024 0.69041 0.00494303 0.685467 0.0225168 0.66295 0.0182473 27.212 2.88475 0.0264687 0.00297344 2.85828 0.0598627 2.79841 0.554077 0.0324664 0.52161 0.0359227 24.3273 2.24434 1.70434 1.55313 1.54862 1.54346 1.54184 1.53318 1.52989 1.52591 1.51976 1.50952 1.5083 1.50403 1.50267 1.50142 1.4979 1.49544 1.49403 1.48554 1.48192 1.42502 1.41873 1.3906 1.38309 1.30571 1.30388 1.3 1.29436 0.644703 0.887725 0.485687 0.467516 0.0670295 0.0501038 0.0588462 0.049443 0.046622 0.0474099 0.0387945 0.0422 0.0398492 0.0406243
internal_count=2201182 5354 2195828 54333 389 53944 1772 52172 1436 2141495 227020 2083 234 224937 4711 220226 43604 2555 41049 2827 1914475 176622 134126 122226 121871 121465 121338 120656 120397 120084 119600 118794 118698 118362 118255 118157 117880 117686 117575 116907 116622 112144 111649 109436 108845 102755 102611 102306 101862 50736 69861 38222 36792 5275 3943 4631 3891 3669 3731 3053 3321 3136 3197
is_linear=0
shrinkage=1


Tree=10
num_leaves=64
num_cat=0
split_feature=37 46 3 4 14 46 29 14 46 29 16 34 37 62 66 19 67 0 66 46 19 1 14 1 16 1 1 66 19 22 1 22 23 23 14 14 14 1 0 0 0 16 0 14 15 0 15 0 1 0 14 0 0 15 0 0 0 15 0 1 19 0 0
split_gain=618621 848503 342537 11170.7 191597 7240.81 2317.2 393.63 1164.41 176.556 803.661 127.543 5687.28 863.053 76.9427 69.808 66.4891 2759.14 296.044 2744.07 383.146 15.0462 26.4935 99.6792 18.1855 11.0225 9.92138 9.7899 24.6439 61.3087 93.4378 10.3023 38.6791 9.37237 7.71888 11.0676 7.53332 9.37382 6.96956 6.93433 5.908 5.80029 5.55617 4.54942 4.50419 4.02027 3.77195 3.72109 2.99877 2.86758 2.85892 2.84888 2.70938 2.69612 2.47467 2.45837 2.54628 2.42368 3.93498 2.34514 2.08725 4.37172 9.69495
threshold=0.72099730035595988 1.0000000180025095e-35 -1.0000000180025095e-35 -1.2354044930224946 0.14782837187384282 1.0000000180025095e-35 5.7274065573842012 -0.017309724542649164 1.0000000180025095e-35 5.483276493987141 0.77886320674721488 0.51040314420578736 0.20044450743520273 0.78158539731316246 0.52650199049804691 1.5244412610848912 1.8894694351163273 -1.0000000180025095e-35 0.15575417332846775 1.0000000180025095e-35 0.69547185524450572 -0.74507209314203948 0.86314930520249789 -0.67618707301248138 -0.64701787069531247 -0.66163514909380849 -0.56548482232376795 1.0000000180025095e-35 1.2575543768175688 0.83688509578379311 0.13130631080209984 0.59468046894906978 0.31115456003323222 0.19894738668756354 2.3010156161555009 4.808064893367697 0.47081802082271756 -0.63343455381411895 1.449923654061031 1.5234651032256132 1.2726921339501227 -0.64242601242344699 0.8080821755629749 1.0189972513809777 0.63954720966052225 1.849437845538054 0.64304734030903987 1.2287960024466142 -0.76114420621947498 2.8494000466657914 16.489804352198878 2.7698368731665997 0.047357103970283011 0.71430757427276792 0.26640778084191369 2.5616769594944819 2.2860017730553142 0.64304734030903987 2.4598006037187403 -0.92027313128024246 1.1666813999018373 0.83851421410884319 0.79883821848813275
decision_type=2 2 2 2 2 2 2 2 2 2 2 2 2 2 2 2 2 2 2 2 2 2 2 2 2 2 2 2 2 2 2 2 2 2 2 2 2 2 2 2 2 2 2 2 2 2 2 2 2 2 2 2 2 2 2 2 2 2 2 2 2 2 2
left_child=3 -2 14 4 6 -6 7 9 -9 11 -11 -1 27 42 21 -10 -5 33 19 -19 -21 34 23 24 54 -25 36 28 -13 31 -31 -30 -33 -18 48 -36 60 -38 41 -40 -8 47 -14 53 -39 46 -46 -26 52 50 59 55 -3 -24 -23 56 -41 -47 -59 -37 -7 62 -62
right_child=1 2 -4 16 5 26 40 8 15 10 -12 12 13 -15 -16 -17 17 18 -20 20 -22 22 43 25 38 -27 -28 -29 29 30 -32 32 -34 -35 35 49 37 44 39 51 -42 -43 -44 -45 45 57 -48 -49 -50 -51 -52 -53 -54 -55 -56 -57 -58 58 -60 -61 61 -63 -64
leaf_value=-3.0057521780683061 -3.0057710973460656 -2.1393095318075499 -3.0057841226304496 -3.0057268095113874 -3.0057841226304496 -2.0601843591660844 -2.1537507749879317 -3.0057841226304496 -2.0590804030276519 -2.0590804030276511 -3.0057841226304496 -3.0043697246429955 -2.0590804030276519 -2.9329607595840805 -2.0590804030276519 -2.3998937420846591 -2.1726848493799871 -3.0057841226304496 -3.0057841226304496 -2.7407070811416663 -2.0590804030276519 -2.1292066044797107 -2.0667352680871462 -2.0744691474538302 -2.1305297403561649 -2.0623720588265932 -2.1408943047217206 -3.0053421507725586 -3.0035354202085904 -2.5892344860052185 -3.0057841226304496 -2.8164433787098901 -3.0008275586534716 -2.0590804030276519 -2.0681432846900849 -2.1156939144989155 -2.0620858116613112 -2.0663255845552242 -2.1892521644730363 -2.128454580871646 -2.0590804030276519 -2.078077802083226 -2.1276821218394488 -2.0698366283944543 -2.1221939843345052 -2.0680680965681848 -2.0850174912359476 -2.0911720545396109 -2.0803405922393394 -2.0590804030276519 -2.0752357566044912 -2.1027744208554733 -2.0919109470275212 -2.0611377919868659 -2.0813082384932455 -2.1619829812453473 -2.0960610170746361 -2.0816209677800992 -2.1501096068356129 -2.0924763931363395 -2.0590804030276524 -2.0618730393686628 -2.1774183679780017
leaf_weight=9391.2696756795049 7677.3755033910275 3.1160751953721038 1177.5067200139165 88984.861502066255 21.178748361766338 407.62488742172718 2.6407416909933081 17.692969329655174 3.485779032111167 2.7463713586330387 12.200226612389088 106.05218631029129 15.527561143040662 3.4329641982913008 2730.2100194841623 2.640741690993309 2.6407416909933072 104.15085229277611 1620.8872499316931 2.6407416909933081 9.4010404199361783 2.8520010262727729 320.05789294838905 337.90930677950382 16.795117154717449 425.31785675138235 4.2780015394091597 1018.1643663793802 22.235045038163662 2.6407416909933081 2.7463713586330414 3.9611125364899626 10.087633259594439 5.8096317201852798 204.12933271378279 15.897264979779719 83.183363266289234 20.703414857387543 4.2251867055892935 59.099799044430256 4.383631207048893 15.791635312139986 3.6442235335707656 320.74448578804731 16.63667265325785 16.689487487077717 11.566448606550692 9.3482255861163122 79.961658403277397 6.4434097260236731 15.474746309220789 13.731856793165205 92.901292689144611 656.17149537801743 49.487499289214611 4.8589647114276877 6.7602987289428702 8.8728920817375165 2.7463713586330405 34.43527165055275 4.1723718717694309 17.904228664934635 2.9576306939125061
leaf_count=177815 145364 59 22295 1684846 401 7718 50 335 66 52 231 2008 294 65 51694 50 50 1972 30690 50 178 54 6060 6398 318 8053 81 19278 421 50 52 75 191 110 3865 301 1575 392 80 1119 83 299 69 6073 315 316 219 177 1514 122 293 260 1759 12424 937 92 128 168 52 652 79 339 56
internal_value=-2.95655 -2.64834 -2.23276 -2.99971 -2.9527 -2.09724 -3.0025 -3.0031 -2.80007 -3.00356 -2.83183 -3.0038 -2.98837 -2.20286 -2.065 -2.20598 -3.00554 -2.99587 -3.00026 -2.92316 -2.20856 -2.07099 -2.06931 -2.07567 -2.10882 -2.06773 -2.06502 -3.0036 -2.99157 -2.95899 -2.80159 -2.98236 -2.94884 -2.09458 -2.07931 -2.0741 -2.06448 -2.07373 -2.1188 -2.12674 -2.09467 -2.102 -2.07212 -2.06467 -2.08628 -2.09359 -2.10695 -2.11646 -2.08749 -2.09091 -2.09403 -2.12361 -2.09345 -2.06297 -2.08392 -2.12766 -2.12513 -2.08028 -2.09781 -2.09981 -2.06104 -2.07506 -2.10817
internal_weight=116255 14280.6 6603.23 101974 11244.1 618.515 10625.6 10618.5 23.8195 10594.7 14.9466 10579.8 1188.49 22.6047 5425.72 6.12652 90730.4 1745.53 1737.08 116.193 12.0418 2695.51 2243.15 946.178 182.951 763.227 597.336 1165.89 147.723 41.6709 5.38711 36.2838 14.0487 8.45037 452.359 276.38 593.058 160.399 130.611 88.6761 7.02437 41.935 19.1718 1296.97 77.2153 56.5119 28.2031 26.1433 175.979 72.2507 65.8073 84.4509 96.0174 976.229 52.3395 70.7191 65.8601 28.3088 11.6193 50.3325 432.659 25.0342 7.13
internal_count=2201182 270390 125026 1930792 212896 11711 201185 201052 451 200601 283 200318 22503 428 102731 116 1717896 33050 32890 2200 228 51037 42472 17915 3464 14451 11310 22075 2797 789 102 687 266 160 8565 5233 11229 3037 2473 1679 133 794 363 24557 1462 1070 534 495 3332 1368 1246 1599 1818 18484 991 1339 1247 536 220 953 8192 474 135
is_linear=0
shrinkage=1


Tree=11
num_leaves=64
num_cat=0
split_feature=35 5 0 48 0 67 5 19 37 5 15 15 24 37 29 35 5 0 24 34 23 10 37 29 0 66 30 0 17 20 69 67 36 2 1 1 8 8 1 1 17 24 24 0 1 0 0 0 0 0 1 14 1 1 1 4 14 14 0 1 5 6 0
split_gain=51800.3 877819 72840.7 8731.66 260160 734996 3391.81 343.952 231.807 124.383 659.855 36.244 2.48422 82.9861 703.913 45.9703 538.641 14.6212 20.3925 10.6505 615.399 1286.67 2.44095 76.8205 0.246732 80.5153 0.209308 6.09058 132.904 22.6456 0.00455698 4.10323 5.587 2.32831e-10 1.16415e-10 1.16415e-10 1.16415e-10 2.91038e-11 1.45519e-11 1.45519e-11 1.45519e-11 1.45519e-11 1.45519e-11 4.54747e-13 4.54747e-13 5.68434e-14 5.68434e-14 5.68434e-14 2.84217e-14 1.42109e-14 7.10543e-15 7.10543e-15 3.55271e-15 1.77636e-15 1.77636e-15 1.77636e-15 1.77636e-15 1.77636e-15 8.88178e-16 8.88178e-16 8.88178e-16 8.88178e-16 4.44089e-16
threshold=2.1336207478758733 0.67997270476856475 -1.0000000180025095e-35 1.0000000180025095e-35 -1.0000000180025095e-35 1.0134843992350315 0.71723195045202714 1.6901480597197411 0.81876660107879917 0.84110680717487674 -0.41901658265900082 1.0081885427996304 1.1037461902193617 0.5105410042766253 0.97488670362060137 1.9135128705720141 0.67997270476856475 -1.0000000180025095e-35 1.1500824795494866 2.0669685113006184 0.94684348283497177 0.58419874058055132 0.30675063282770226 1.4724682060733127 -1.0000000180025095e-35 -0.010622155414557256 1.0000000180025095e-35 -1.0000000180025095e-35 -0.056938642371572569 -0.23508360738836245 1.5000000000000002 1.0134843992350315 -0.41135575223334314 3.7615870809386895 -0.68641100709908065 -0.65828861510056635 0.54482725962668954 0.52529177343625943 -0.69536357490321732 -0.66866212943164072 0.58866743154921763 1.2003789706203252 1.1829730738374817 3.1722380138344772 0.54614591446614769 3.1611230853024073 3.0825383385471015 3.1221326682650692 3.1539369247948978 1.7549901032575113 0.85550493601104816 -0.0026102760153055384 0.80689582405197124 -0.51287908662307358 0.87424164207570521 1.3889902976963584 7.4968089212495794 1.0851754005597847 3.1722380138344772 -0.51715481502143723 0.32589960076362129 1.3207172544490349 3.1221326682650692
decision_type=2 2 2 2 2 2 2 2 2 2 2 2 2 2 2 2 2 2 2 2 2 2 2 2 2 2 2 2 2 2 2 2 2 2 2 2 2 2 2 2 2 2 2 2 2 2 2 2 2 2 2 2 2 2 2 2 2 2 2 2 2 2 2
left_child=3 2 33 12 5 7 -3 11 34 10 -8 53 26 15 17 19 -17 18 -15 22 21 -21 24 62 25 50 30 28 29 -28 43 47 -33 40 38 39 37 42 -7 -36 41 -2 -35 44 -1 -6 -26 -32 -29 -11 51 -14 -22 -5 60 61 57 -47 -50 -31 -52 -54 -24
right_child=1 6 -4 4 45 8 9 -9 -10 49 -12 -13 13 14 -16 16 -18 -19 -20 20 52 -23 23 -25 46 -27 27 48 -30 59 31 32 -34 36 35 -37 -38 -39 -40 -41 -42 -43 -44 -45 -46 56 -48 -49 58 -51 54 -53 55 -55 -56 -57 -58 -59 -60 -61 -62 -63 -64
leaf_value=-6.2974619711219662 17.940277868644639 2.2070081480944266 -6.2974619711219662 -6.2974619711219662 -6.2974619711219662 17.940277868644689 -6.2974619711219662 -3.3889331903500093 15.564028864745872 -6.2974619711219662 -1.9346687999639567 -5.3828302790553115 -6.2974619711219662 -6.2974619711219662 -1.934668799963994 -2.6389352028552913 -6.2974619711219662 -6.2974619711219662 -5.3469623695624957 -6.2974619711219662 -6.2974619711219662 0.080890618290275107 -6.2974619711219662 -4.9754034344074283 -6.2974619711219662 -5.2875561444650199 -5.7134200472721686 -6.2974619711219662 -4.5661948397100574 -6.2974619711219662 -6.2974619711219662 -6.2974619711219662 -5.8127071743266319 17.94027786864465 17.940277868644671 17.940277868644753 17.940277868644749 17.940277868644714 17.940277868644642 17.94027786864465 17.940277868644525 17.940277868644586 17.940277868644596 -6.2974619711219662 -6.2974619711219662 -6.2974619711219662 -6.2974619711219662 -6.2974619711219662 -6.2974619711219662 -6.2974619711219662 -6.2974619711219662 -6.2974619711219644 -6.2974619711219662 -6.2974619711219662 -6.2974619711219662 -6.2974619711219662 -6.2974619711219662 -6.2974619711219662 -6.2974619711219662 -6.2974619711219662 -6.2974619711219662 -6.2974619711219662 -6.2974619711219662
leaf_weight=2447.7013842831366 0.18359797494485963 0.11758521990850468 0.33418957237154145 11.508911260869352 414.8303413442336 0.36100725410506129 0.54254233045503497 0.103144929744304 0.10520782833918918 74.969860735349357 0.10314492974430223 0.1093336255289622 48.453362196683877 0.1217110170982777 0.10314492974430312 0.10933362552896042 1.2604310414753852 1.1036507482640434 0.10520782833918929 0.2413591356016721 1.6193753969855631 0.11758521990850568 3.1768638361245394 0.11345942271873344 447.42620204202831 0.1980382651090612 0.17122058337554324 150.44719452504069 0.11552232131361861 4.2454453082755199 204.14857074711472 0.14027710445225239 0.10314492974430223 0.280554208904505 0.28674290468916297 3.1521090529859062 2.8302968721836805 0.58380030235275626 0.19184956932440389 0.20010116370394815 0.10520782833918929 0.14234000304713845 0.15265449602156878 2.6301957084797314 644.18134422507137 12.905493609607214 20.992056101560593 1.3697646670043457 4.2928919759578994 0.45796348806470533 8.001983649563039 0.19184956932441011 6.7209236221388 0.10314492974430223 0.75295798713341433 9.6502396268770081 0.24135913560167033 2.1000307695940146 0.87673190282657731 1.1696635033003993 0.13408840866759497 1.3202551007270811 0.30530899204313744
leaf_count=1186535 89 57 162 5579 201091 175 263 50 51 36342 50 53 23488 59 50 53 611 535 51 117 785 57 1540 55 216892 96 83 72930 56 2058 98962 68 50 136 139 1528 1372 283 93 97 51 69 74 1275 312270 6256 10176 664 2081 222 3879 93 3258 50 365 4678 117 1018 425 567 65 640 148
internal_value=-6.25081 -4.99616 16.1842 -6.27354 -6.06371 0.172138 -6.27843 -6.26363 17.8821 -6.29155 -5.60053 -6.28893 -6.29686 -6.29375 -5.91384 -6.29474 -6.00544 -6.22231 -5.85678 -6.29546 -6.25933 -4.208 -6.2968 -6.25574 -6.29708 -6.294 -6.29736 -6.2956 -6.24485 -6.27956 -6.29745 -6.29722 -6.09206 17.9403 17.9403 17.9403 17.9403 17.9403 17.9403 17.9403 17.9403 17.9403 17.9403 -6.29746 -6.29746 -6.29746 -6.29746 -6.29746 -6.29746 -6.29746 -6.29746 -6.29746 -6.29746 -6.29746 -6.29746 -6.29746 -6.29746 -6.29746 -6.29746 -6.29746 -6.29746 -6.29746 -6.29746
internal_weight=4540.82 80.8037 4.61264 4460.01 446.199 16.1216 76.1911 11.8245 4.29702 76.0735 0.645687 11.7214 4013.81 552.219 1.43371 550.786 1.36976 1.33057 0.226919 549.416 19.6697 0.358944 529.746 3.59563 526.151 57.7323 3461.59 161.319 5.70185 5.58633 3300.27 205.762 0.243422 4.27845 4.19181 3.63895 3.84731 1.01701 0.552857 0.486844 0.431146 0.325938 0.433209 3094.51 3091.88 430.077 468.418 205.518 155.617 75.4278 57.5342 48.6452 19.3108 11.6121 8.88903 17.6914 15.2469 15.0055 5.16962 5.41511 8.13607 8.04118 3.48217
internal_count=2201182 39170 2236 2162012 216297 7815 36934 5732 2083 36877 313 5682 1945715 267691 695 266996 664 645 110 266332 9535 174 256797 1743 255054 27986 1678024 78200 2764 2708 1599824 99744 118 2074 2032 1764 1865 493 268 236 209 158 210 1500080 1498805 208482 227068 99626 75436 36564 27890 23581 9361 5629 4309 8576 7391 7274 2506 2625 3944 3898 1688
is_linear=0
shrinkage=1


Tree=12
num_leaves=64
num_cat=0
split_feature=67 67 19 24 4 20 24 24 20 21 1 20 21 24 19 22 19 1 19 19 24 24 63 39 12 20 20 24 23 24 48 0 67 1 1 0 66 29 8 4 12 68 14 18 24 25 24 10 1 1 67 29 4 63 19 8 4 29 68 9 4 10 24
split_gain=16670.3 187663 506382 220436 81371.1 29705.4 7020.74 57155.5 17071.7 2843.7 3330.76 2458.71 3118.36 2399.46 3643.38 1881.15 1796.6 1745.58 1207.68 1151.12 2817.39 2450.82 1034.71 20549.6 73109.9 635.383 564.879 295.535 192.954 133.917 88.1851 687.157 5257 84282.6 957.379 31552 51205.5 40.5106 186.066 3647.68 9872.44 322.684 1234.72 22029.4 30.0101 27.6317 26.2464 18.54 18.9329 11.1102 26.6629 10.183 27.2887 1.23956 34.4735 1.13344 32.6514 0.952054 15.3778 21.4024 0.275962 33.5926 1.5784
threshold=1.8887064344875495 1.8894694351163273 1.0801276733203136 1.594968724726783 -0.67655864796733345 0.92285732516336416 1.4697240196987653 1.3066581055889519 0.92631248197860738 1.0001606373632757 0.54008483217108738 0.92631248197860738 1.0130997638490822 1.3842771138487822 1.2063137077702997 1.3993604219068494 1.2314678723216286 0.54826055888419833 1.1945631219948074 1.2063137077702997 1.3341473978812399 1.3675862304124564 2.5249021792533881 0.60692158173224797 0.56008519887014974 0.91741249703647698 0.92546170832725638 1.3842771138487822 0.97223954679409241 1.2377889804154274 1.0000000180025095e-35 1.0000000180025095e-35 1.2964360656884113 -0.096271769407937954 -0.60601311446367334 -1.0000000180025095e-35 1.0000000180025095e-35 2.0006100646059557 0.54482725962668954 0.81904390324316412 0.097292525054041526 1.0000000180025095e-35 -0.028765259488034763 0.54243855639769156 2.1322388604429992 1.4521289224232625 1.764218508582865 0.99293288837984539 0.87146169541928298 -0.59918805954178411 1.0134843992350315 2.01023127326734 1.2924775475086843 2.4433714780260156 0.55878654434030139 0.51573120663010485 0.78748741390236876 2.0717703852828318 0.50000000000000011 2.1456912088219373 1.9148157307313007 1.0451558030259129 1.3213338805286028
decision_type=2 2 2 2 2 2 2 2 2 2 2 2 2 2 2 2 2 2 2 2 2 2 2 2 2 2 2 2 2 2 2 2 2 2 2 2 2 2 2 2 2 2 2 2 2 2 2 2 2 2 2 2 2 2 2 2 2 2 2 2 2 2 2
left_child=22 2 6 4 5 9 7 29 -9 -4 27 12 18 15 17 -12 -16 25 -7 21 -21 -17 30 24 45 -15 -14 -11 -18 -2 37 32 34 -34 35 -32 -37 53 55 40 -40 42 43 -41 -5 -24 -8 -25 -49 50 -36 52 -43 60 -55 -39 -57 58 59 -53 -1 62 -62
right_child=1 -3 3 44 -6 11 46 8 -10 10 13 -13 26 14 16 19 28 -19 -20 20 -22 -23 23 47 -26 -27 -28 -29 -30 -31 31 -33 33 -35 49 36 -38 38 39 41 -42 51 -44 -45 -46 -47 -48 48 -50 -51 -52 57 -54 54 -56 56 -58 -59 -60 -61 61 -63 -64
leaf_value=-7.6611534796634846 -7.6612587035751192 -7.6612587035751192 32.450742914566234 -5.9400891795966935 -7.6612587035751183 72.153759418169273 -6.3279583680988747 66.121228978735786 13.164892536563752 62.520912403476288 38.810318443842348 59.089226040460616 81.644707163231431 36.406616177596703 58.316906382264889 49.137335587713721 46.891063497097122 46.167474448299004 58.192183952991158 57.42046392185938 36.290034498016823 65.966548711058095 -5.7679722271988183 -7.6612587035751192 85.182597349491658 26.637409346719817 73.986720590152288 55.448290508967077 41.303046719949123 -4.0890200689029204 -7.6612587035751192 -7.6612587035751192 77.376184726884546 -7.6612587035751192 -5.7679722271986629 79.721194052255612 -6.5731630274967898 -7.6612587035751192 28.311184347575196 39.670903205831593 -7.6612587035751183 -5.7679722271988494 -7.6612587035751192 -7.6612587035751192 -7.6612587035751192 -7.6612587035751183 -7.6612587035751192 -5.7679722271988494 -7.6612587035751174 -7.6612587035751192 -7.6612587035751183 -5.7679722271988494 -7.6612587035751183 -7.6612587035751192 -5.8751393862390184 -5.9708243496676801 -7.6612587035751192 -7.6612587035751192 -7.6612587035751192 -7.6612587035751183 -7.6612587035751192 -5.9708243496677786 -7.5787265991123327
leaf_weight=950.35431510809576 0.41779202345060173 40.798896408872679 0.031162742583546788 0.029050014272797853 0.058100028545595594 0.026937285962048918 0.037500927515793925 0.035916381282731891 0.026409103884361684 0.030634560505859554 0.029050014272797853 0.041198202059604228 0.055987300234846771 0.030634560505859554 0.034860017127357423 0.0501772973802872 0.031162742583546788 0.026937285962048918 0.036444563360419124 0.033803652971982956 0.029578196350485086 0.038029109593480825 0.026409103884361129 2.4924912246060562 0.027465468039736152 0.036444563360419124 0.042254566214978695 0.028521832195110619 0.030634560505859554 0.027993650117423385 2.0118455339106736 85.731345757725649 0.031162742583546788 0.44842658395646218 0.026409103884358909 0.027465468039735152 0.045951840758789331 41.102072921465151 0.026409103884360685 0.026409103884361573 0.068663670099340379 0.026409103884361573 1.173092394543344 0.35546653828350827 0.1975400970550254 0.071304580487776548 2.3456566070090048 0.026409103884361573 0.026409103884361684 10.703609804331789 0.062853667244780809 0.026409103884361573 0.068135488021653146 0.77273037965642188 0.027993650117423385 0.029578196350484087 0.83452768274582922 6.5668877718853764 0.86040860455250368 0.03433183504967019 13.236771048919758 0.029578196350485864 0.60582484310725782
leaf_count=1799293 791 77244 59 55 110 51 71 68 50 58 55 78 106 58 66 95 59 51 69 64 56 72 50 4719 52 69 80 54 58 53 3809 162314 59 849 50 52 87 77818 50 50 130 50 2221 673 374 135 4441 50 50 20265 119 50 129 1463 53 56 1580 12433 1629 65 25061 56 1147
internal_value=-7.61412 -6.66662 3.9 35.5883 49.082 54.0436 -6.5026 -1.16662 43.6821 47.0361 48.092 69.9931 72.7725 46.3365 42.4243 50.466 49.2408 35.4163 64.1259 52.6996 47.5596 56.393 -7.65196 -6.66893 13.109 31.0989 78.3509 59.1109 44.1209 -7.43694 -7.65431 -7.60929 -7.27571 -2.1357 -7.46713 -6.48635 25.7096 -7.6587 -7.61536 -7.41214 2.33109 -7.51352 -6.85738 -4.38794 -7.4406 -7.14956 -7.64028 -7.64161 -6.71462 -7.65663 -7.10111 -7.64807 -7.13241 -7.661 -7.59882 -7.66007 -7.6034 -7.65458 -7.60698 -6.83809 -7.66105 -7.65405 -7.65765
internal_weight=1162.62 44.6393 3.84041 0.949143 0.722553 0.664453 2.89127 0.508111 0.0623255 0.461631 0.430468 0.202822 0.161624 0.371312 0.190674 0.180638 0.0966573 0.0940164 0.0633818 0.151588 0.0633818 0.0882064 1117.99 2.67049 0.125179 0.0670791 0.0982419 0.0591564 0.0617973 0.445786 1115.32 99.0891 13.3577 0.479589 12.8781 2.08526 0.0734173 1016.23 51.1988 9.23262 0.0950728 9.13755 1.55497 0.381876 0.22659 0.0977137 2.38316 2.54531 0.0528182 10.7929 0.0892628 7.58258 0.0945446 965.027 0.800724 41.9662 0.864106 7.48804 0.92115 0.0607409 964.226 13.8722 13.8426
internal_count=2201182 84515 7271 1797 1368 1258 5474 962 118 874 815 384 306 703 361 342 183 178 120 287 120 167 2116667 5056 237 127 186 112 117 844 2111611 187604 25290 908 24382 3948 139 1924007 96934 17480 180 17300 2944 723 429 185 4512 4819 100 20434 169 14356 179 1827073 1516 79454 1636 14177 1744 115 1825557 26264 26208
is_linear=0
shrinkage=1


Tree=13
num_leaves=64
num_cat=0
split_feature=29 29 9 21 23 48 0 36 0 17 15 9 9 12 0 22 5 0 1 1 76 76 76 76 76 76 76 76 76 76 76 76 76 76 0 22 9 1 1 1 1 1 1 1 1 1 1 0 37 0 0 0 1 4 6 29 42 76 76 76 1 1 1
split_gain=70.6634 5180.98 26123.5 79.1248 3835.24 34.9683 298.619 1787.24 34835.6 164.768 823.622 1.33414 64.2088 886.49 3.55271e-15 1.77636e-15 4.44089e-16 2.22045e-16 2.22045e-16 2.22045e-16 2.22045e-16 2.22045e-16 2.22045e-16 2.22045e-16 2.22045e-16 4.44089e-16 2.22045e-16 2.22045e-16 2.22045e-16 4.44089e-16 2.22045e-16 2.22045e-16 2.22045e-16 2.22045e-16 1.11022e-16 1.11022e-16 5.55112e-17 2.77556e-17 2.77556e-17 2.77556e-17 2.77556e-17 2.77556e-17 2.77556e-17 2.77556e-17 2.77556e-17 2.77556e-17 2.77556e-17 1.38778e-17 1.38778e-17 6.93889e-18 6.93889e-18 6.93889e-18 6.93889e-18 6.93889e-18 6.93889e-18 6.93889e-18 6.93889e-18 6.93889e-18 6.93889e-18 6.93889e-18 3.46945e-18 3.46945e-18 3.46945e-18
threshold=2.0006100646059557 2.01023127326734 2.1081401242432452 0.37169585161239244 0.3330607028180807 1.0000000180025095e-35 1.0000000180025095e-35 0.64367111617707429 -1.0000000180025095e-35 1.0000000180025095e-35 0.043314128528185079 2.1331474760906519 2.1358757900925274 0.54237395616069095 3.1158977823451304 1.5875288142909001 0.16254831776405501 3.1493185036759992 0.85334722208215819 0.83982545070053216 18.176696335904087 18.134996466133945 18.105284611753806 18.077485727348417 18.063291017904771 15.987421771424961 15.948060840582771 15.902779634376978 15.888982755183147 15.863509799405806 15.804378997825351 15.766385789143802 15.731187168185297 15.712968034947487 3.1755558638262409 1.640200646978107 1.2285341931889748 0.65795936976801894 0.60211426865427842 0.3316833304755864 -0.019403869547388288 0.2100701817980912 0.11577154225663196 0.07438925367051484 0.043246943061988626 -0.50637686828110873 -0.53518024745174642 3.1677321714300617 0.67101133948722402 3.1105914223773219 2.8674191740666841 3.1722380138344772 0.071555309194406905 0.15133419830144187 1.0291536012288327 0.66054797518805297 -0.11332414760344091 18.029857654229826 17.432812284250478 16.304385833011182 -0.69536357490321732 0.80367969862329458 -0.63343455381411895
decision_type=2 2 2 2 2 2 2 2 2 2 2 2 2 2 2 2 2 2 2 2 2 2 2 2 2 2 2 2 2 2 2 2 2 2 2 2 2 2 2 2 2 2 2 2 2 2 2 2 2 2 2 2 2 2 2 2 2 2 2 2 2 2 2
left_child=5 2 -2 4 49 11 7 9 60 37 -11 14 13 61 15 -1 17 18 19 20 21 22 23 24 25 26 27 28 29 30 31 32 33 -8 -14 -17 41 38 39 40 -7 42 43 44 45 46 -16 48 -19 50 53 52 54 56 -38 -37 -3 58 59 -27 -9 -13 -49
right_child=1 3 -4 -5 -6 6 16 8 -10 10 -12 12 34 -15 36 35 -18 47 -20 -21 -22 -23 -24 -25 -26 57 -28 -29 -30 -31 -32 -33 -34 -35 -36 55 51 -39 -40 -41 -42 -43 -44 -45 -46 -47 -48 62 -50 -51 -52 -53 -54 -55 -56 -57 -58 -59 -60 -61 -62 -63 -64
leaf_value=-11.923087034463814 -11.9230870344638 -11.923087034463812 249.59637528747589 -11.923087034463814 86.067173786885093 -11.923087034463814 -11.923087034463814 -11.923087034463796 252.04505939164511 -11.923087034463805 37.797897160071749 -11.923087034463807 -11.923087034463814 35.682110598604119 -11.923087034463814 -11.923087034463814 -11.923087034463796 -11.923087034463812 -11.923087034463805 -11.923087034463812 -11.923087034463801 -11.923087034463803 -11.923087034463803 -11.923087034463803 -11.923087034463794 -11.923087034463812 -11.9230870344638 -11.923087034463803 -11.923087034463801 -11.923087034463798 -11.923087034463807 -11.923087034463801 -11.923087034463794 -11.923087034463771 -11.923087034463775 -11.92308703446381 -11.923087034463812 -11.9230870344638 -11.923087034463773 -11.923087034463801 -11.923087034463812 -11.923087034463803 -11.923087034463805 -11.923087034463794 -11.923087034463796 -11.923087034463812 -11.92308703446381 -11.923087034463808 -11.923087034463812 -11.923087034463784 -11.923087034463803 -11.923087034463798 -11.923087034463791 -11.923087034463778 -11.923087034463769 -11.923087034463812 -11.923087034463782 -11.923087034463807 -11.92308703446381 -11.923087034463807 -11.923087034463812 -11.923087034463776 -11.923087034463812
leaf_weight=12.174567305580688 0.00569846578628208 0.037945078059237851 0.0011471421321402886 0.71584648635507619 0.0010205095591118143 0.076165768189184746 1.1669713032815665 0.0026369371089458573 0.0013259175293569561 0.0048492826495021282 0.0010056116093437595 0.012968665273093261 0.69510854027794267 0.0010503054586479274 0.14424194965431525 0.84697079123861918 0.0028157125061626367 0.037051201073154627 0.0061975471035112797 0.021371108942276007 0.0039405077136508418 0.0050504049713709911 0.0049759152225307126 0.0047449970011258493 0.0025773453098737456 0.038883648894625478 0.0034190794717688924 0.0051323436950952974 0.0041490790104036215 0.0030689776522195835 0.0064806081491043379 0.0040149974624911202 0.0027561207070904139 0.0011992849563285937 0.001184387006560427 0.013028257072164706 0.047591500534053921 0.0034041815220007257 0.0011247952074882042 0.0037393853917819788 0.07555495224869524 0.0040224464373750371 0.004759894950893794 0.0023017332391646042 0.0025177535108014118 0.032149775599464969 0.013318767092641792 0.0089238719110653619 0.025021106635449541 0.0015717337005298751 0.0041192831108673991 0.0028455084056986371 0.0020931619424118244 0.0013035706047048725 0.0010503054586479257 0.026667330084819696 0.0014525501023854364 0.0064508122495681155 0.014108358430348744 0.0067040773956250624 0.019151314426835597 0.0012216318809805679 0.021818047435317567
leaf_count=1634395 765 5094 154 96100 137 10225 156662 354 178 651 135 1741 93316 141 19364 113703 378 4974 832 2869 529 678 668 637 346 5220 459 689 557 412 870 539 370 161 159 1749 6389 457 151 502 10143 540 639 309 338 4316 1788 1198 3359 211 553 382 281 175 141 3580 195 866 1894 900 2571 164 2929
internal_value=-11.8712 -11.4037 31.9006 -11.7921 -9.81395 -11.8943 -11.6726 -9.80622 3.21914 -11.6216 -3.38322 -11.9195 -11.8528 -8.64238 -11.9231 -11.9231 -11.9231 -11.9231 -11.9231 -11.9231 -11.9231 -11.9231 -11.9231 -11.9231 -11.9231 -11.9231 -11.9231 -11.9231 -11.9231 -11.9231 -11.9231 -11.9231 -11.9231 -11.9231 -11.9231 -11.9231 -11.9231 -11.9231 -11.9231 -11.9231 -11.9231 -11.9231 -11.9231 -11.9231 -11.9231 -11.9231 -11.9231 -11.9231 -11.9231 -11.9231 -11.9231 -11.9231 -11.9231 -11.9231 -11.9231 -11.9231 -11.9231 -11.9231 -11.9231 -11.9231 -11.9231 -11.9231 -11.9231
internal_weight=16.3965 0.770105 0.00684561 0.763259 0.0474127 15.6264 1.59678 0.188958 0.0231142 0.165844 0.00585489 14.0297 0.711534 0.0152406 13.3181 13.0612 1.40783 1.40501 1.3122 1.306 1.28463 1.28069 1.27564 1.27066 1.26592 1.26334 1.19719 1.19377 1.18864 1.18449 1.18142 1.17494 1.17093 1.16817 0.696293 0.886666 0.256893 0.159989 0.156585 0.15546 0.151721 0.203312 0.19929 0.19453 0.192228 0.18971 0.157561 0.0928142 0.0620723 0.0463922 0.0448205 0.0535805 0.050735 0.0407012 0.0486418 0.0396956 0.0393976 0.0661469 0.0596961 0.0455877 0.0217883 0.0141903 0.0307419
internal_count=2201182 103384 919 102465 6365 2097798 214363 25367 3103 22264 786 1883435 95521 2046 1787914 1753427 188996 188618 176158 175326 172457 171928 171250 170582 169945 169599 160719 160260 159571 159014 158602 157732 157193 156823 93475 119032 34487 21478 21021 20870 20368 27294 26754 26115 25806 25468 21152 12460 8333 6228 6017 7193 6811 5464 6530 5329 5289 8880 8014 6120 2925 1905 4127
is_linear=0
shrinkage=1


Tree=14
num_leaves=64
num_cat=0
split_feature=67 67 19 24 1 21 24 20 18 19 19 1 36 1 16 19 19 24 19 24 23 24 24 20 20 19 24 63 6 8 39 66 66 24 37 19 0 9 13 52 9 19 29 21 6 29 12 37 19 0 0 0 0 0 7 0 0 9 23 24 0 15 9
